tree
version=v4
num_class=1
num_tree_per_iteration=1
label_index=0
max_feature_idx=17
objective=binary sigmoid:1
feature_names=qty_dot_directory qty_hyphen_directory qty_underline_directory qty_slash_directory qty_questionmark_directory qty_equal_directory qty_at_directory qty_and_directory qty_exclamation_directory qty_space_directory qty_tilde_directory qty_comma_directory qty_plus_directory qty_asterisk_directory qty_hashtag_directory qty_dollar_directory qty_percent_directory directory_length
feature_infos=[-1:19] [-1:23] [-1:17] [-1:21] [-1:0] [-1:5] [-1:43] [-1:26] [-1:9] [-1:9] [-1:5] [-1:5] [-1:19] [-1:22] [-1:0] [-1:10] [-1:174] [-1:1286]
tree_sizes=3422 3405 3380 3399 3400 3415 3403 3405 3433 3429 3444 3429 3433 3432 3431 3472 3437 3438 3447 3451 3451 3433 3440 3451 3457 3438 3450 3452 3455 3481 3455 3454 3441 3448 3472 3482 3440 3445 3452 3467 3460 3412 3447 3473 3459 3485 3488 3471 3448 3464 3476 3432 3469 3436 3443 3477 3452 3455 3478 3469 3454 3482 3408 3464 3478 3419 3455 3446 3453 3430 3431 3456 3431 3435 3413 3442 3420 3485 3445 3419 3500 3440 3436 3415 3445 3419 3490 3437 3413 3434 3484 3471 3462 3497 3466 3514 3468 3516 3408 3406 3493 3381 3380 3441 3454 3467 3416 3404 3474 3482 3419 3460 3415 3412 3465 3469 3443 3453 3423 3482 3423 3426 3461 3391 3441 3489 3457 3414 3528 3543 3483 3455 3488 3472 3492 3471 3436 3502 3428 3524 3412 3415 3485 3444 3447 3544 3423 3498 3427 3396 3460 3449 3425 3432 3465 3454 3429 3444 3431 3458 3498 3473 3427 3431 3433 3420 3439 3417 3436 3451 3443 3478 3420 3438 3412 3443 3534 3429 3396 3426 3401 3399 3415 3395 3399 3421 3517 3451 3416 3425 3408 3446 3547 3471 3402 3417 3419 3472 3431 3431

Tree=0
num_leaves=31
num_cat=0
split_feature=17 0 3 1 17 17 0 16 3 17 0 2 1 1 0 17 17 1 1 17 1 17 17 17 17 17 3 17 17 1
split_gain=72817.1 8122.07 1275.3 654.945 314.715 295.263 263.236 225.898 221.809 207.344 142.986 151.546 95.535 95.1476 65.3371 52.4776 49.04 121.658 48.7999 44.6591 39.1066 56.9987 42.0901 38.871 54.3439 38.7573 33.902 53.6683 26.9211 41.5367
threshold=1.5000000000000002 -1.0000000180025095e-35 2.5000000000000004 4.5000000000000009 19.500000000000004 16.500000000000004 1.0000000180025095e-35 5.5000000000000009 3.5000000000000004 117.50000000000001 1.0000000180025095e-35 1.5000000000000002 1.0000000180025095e-35 2.5000000000000004 1.0000000180025095e-35 69.500000000000014 29.500000000000004 2.5000000000000004 1.0000000180025095e-35 78.500000000000014 1.0000000180025095e-35 12.500000000000002 26.500000000000004 17.500000000000004 18.500000000000004 19.500000000000004 1.5000000000000002 9.5000000000000018 44.500000000000007 1.5000000000000002
decision_type=2 2 2 2 2 2 2 2 2 2 2 2 2 2 2 2 2 2 2 2 2 2 2 2 2 2 2 2 2 2
left_child=1 -1 7 4 5 -4 8 10 12 14 11 16 23 28 -5 -15 20 -18 25 -19 21 -2 -22 -7 -25 -13 27 -12 29 -6
right_child=2 -3 3 9 13 6 -8 -9 -10 -11 26 18 -14 15 -16 -17 17 19 -20 -21 22 -23 -24 24 -26 -27 -28 -29 -30 -31
leaf_value=-0.55328974895479976 -0.24767050370876467 -0.37705654954886147 -0.17489650812801549 -0.44206887347540735 -0.16632669581969781 -0.30526244692352272 -0.15740213335670628 -0.46585743989543232 -0.17863204771148417 -0.16565825750480184 -0.1823408805267045 -0.25043503648443433 -0.19105380971874214 -0.26048137435515162 -0.31964451886554907 -0.15321013686423066 -0.16901937544785178 -0.2813900082162536 -0.17507189805786855 -0.5286084640662031 -0.20243630958753442 -0.28703014716432673 -0.3473752620130961 -0.42785040129549984 -0.32780594141780367 -0.47845754173605359 -0.20729764429198422 -0.24221810318539605 -0.155248247154465 -0.22084271686741741
leaf_weight=11617.502861186862 2276.8415007293224 3374.7856598496437 689.03436188399792 109.25042878091335 4597.6225393265486 75.394722059369087 150.21236984431744 43.068195104598999 98.063664734363556 51.350882887840271 182.8793201893568 8.9680855423212034 34.167474240064621 159.4171062707901 72.538405582308769 63.877986580133438 227.03024916350842 93.670866534113884 8.0023271143436414 7.9254104793071738 248.29468849301338 438.84316338598728 21.794653818011284 136.80322533845901 90.025829792022705 44.156379953026772 1399.8974844366312 824.84132194519043 2553.6462451815605 144.14200958609581
leaf_count=47851 7088 11943 1980 410 13082 249 423 165 283 146 530 28 100 503 243 179 648 302 23 32 736 1423 75 507 304 171 4172 2553 7173 436
internal_value=-0.358151 -0.513619 -0.201211 -0.177668 -0.173281 -0.219248 -0.271516 -0.237683 -0.31097 -0.343096 -0.235984 -0.249264 -0.349549 -0.165494 -0.393218 -0.229794 -0.246386 -0.209721 -0.405286 -0.300675 -0.250422 -0.254031 -0.214132 -0.367468 -0.388144 -0.439964 -0.217366 -0.231352 -0.163526 -0.167984
internal_weight=29844 14992.3 14851.8 9025.55 8792.41 1273.7 584.667 5826.21 434.455 233.14 5783.15 3375.53 336.391 7518.71 181.789 223.295 3314.4 328.627 61.1268 101.596 2985.77 2715.68 270.089 302.224 226.829 53.1245 2407.62 1007.72 7295.41 4741.76
internal_count=103758 59794 43964 26018 25219 3846 1866 17946 1443 799 17781 10526 1160 21373 653 682 10304 982 222 334 9322 8511 811 1060 811 199 7255 3083 20691 13518
is_linear=0
shrinkage=1


Tree=1
num_leaves=31
num_cat=0
split_feature=0 17 17 1 17 2 1 17 0 17 1 17 1 0 2 17 2 1 17 17 2 17 6 17 17 17 17 0 17 2
split_gain=58529.5 6491.37 791.237 630.789 152.036 115.427 108.678 102.128 87.295 157.956 92.1633 82.8873 68.7741 60.2479 73.5584 53.9384 52.9047 46.9113 37.2077 33.8243 52.2614 46.5576 32.0218 32.6698 25.3759 23.6973 25.5622 21.5801 20.0342 19.3804
threshold=-1.0000000180025095e-35 1.5000000000000002 19.500000000000004 4.5000000000000009 123.50000000000001 2.5000000000000004 1.5000000000000002 46.500000000000007 1.0000000180025095e-35 17.500000000000004 1.0000000180025095e-35 18.500000000000004 9.5000000000000018 1.0000000180025095e-35 1.0000000180025095e-35 26.500000000000004 1.0000000180025095e-35 1.0000000180025095e-35 95.500000000000014 7.5000000000000009 1.0000000180025095e-35 5.5000000000000009 1.0000000180025095e-35 54.500000000000007 71.500000000000014 8.5000000000000018 15.500000000000002 1.0000000180025095e-35 4.5000000000000009 1.5000000000000002
decision_type=2 2 2 2 2 2 2 2 2 2 2 2 2 2 2 2 2 2 2 2 2 2 2 2 2 2 2 2 2 2
left_child=-1 -2 8 5 12 6 15 27 9 17 11 -11 18 14 24 16 -4 19 22 21 -21 28 23 -5 -8 -10 -27 -7 -3 -18
right_child=1 2 3 4 -6 7 13 -9 25 10 -12 -13 -14 -15 -16 -17 29 -19 -20 20 -22 -23 -24 -25 -26 26 -28 -29 -30 -31
leaf_value=-0.14409860355578893 0.019779537752132842 0.13267404556757872 0.19114055726552132 0.0771071669831455 0.21115938522924466 -0.076010342626987915 0.098608010585296849 0.16104989304026116 0.2083911061053163 0.0077812573643260795 0.18135463660622553 0.10566402495868127 -0.071099291192552219 0.18740256789282281 0.21897922375732573 0.20536582744568041 0.14693390548828839 0.18992394225939799 0.1766637625681946 0.15179525668182647 0.066945079968964594 0.11166205909879673 0.21207642602124013 -0.0072480597664247503 0.20801209603002446 0.1490048375355589 0.17315946376271685 0.066176073528320487 0.16793517696672022 0.05576196370351022
leaf_weight=11206.59195317328 3389.0935486555099 380.38456520438194 2053.1195002645254 79.399021103978157 52.392702460289001 26.225871533155441 258.75690759718418 113.26600053906441 101.25653213262558 176.0821073949337 70.443835973739624 170.06978677213192 58.304294750094414 403.43791979551315 75.046190977096558 5989.2022963762283 113.65331697463989 194.70100572705269 21.303473934531212 1785.1761562377214 75.666639909148216 793.40244910120964 9.9874976873397809 108.85716995596886 23.093036949634552 1092.7204642891884 731.36435231566429 18.00071881711483 279.54693329334259 29.332676291465759
leaf_count=47851 11943 1156 5751 261 143 102 815 329 278 630 200 537 224 1140 203 16439 336 548 63 5294 247 2465 28 394 63 3243 2101 58 817 99
internal_value=0.0365654 0.144989 0.172753 0.190672 0.054907 0.195597 0.197091 0.110731 0.143862 0.135308 0.0770908 0.0558726 0.0254435 0.160927 0.130998 0.20045 0.187045 0.14222 0.0510819 0.139417 0.148345 0.127986 0.0375868 0.0283296 0.107572 0.161303 0.15869 -0.0181389 0.147611 0.128231
internal_weight=29879.9 18673.3 15284.2 9433.38 330.244 9103.13 8945.64 157.493 5850.81 3925.47 416.596 346.152 277.851 760.334 356.896 8185.31 2196.11 3508.88 219.547 3314.18 1860.84 1453.33 198.244 188.256 281.85 1925.34 1824.08 44.2266 659.931 142.986
internal_count=103758 55907 43964 26448 1113 25335 24846 489 17516 11894 1367 1167 970 2221 1081 22625 6186 10527 746 9979 5541 4438 683 655 878 5622 5344 160 1973 435
is_linear=0
shrinkage=0.1


Tree=2
num_leaves=31
num_cat=0
split_feature=1 17 3 1 16 17 17 17 3 1 2 6 1 17 1 17 17 17 17 17 17 1 3 3 2 17 17 17 17 17
split_gain=48056.9 5179.55 860.562 400.467 181.257 172.719 198.266 131.874 90.1936 61.8582 57.9784 55.1052 44.2756 75.4046 44.2024 65.3298 41.2587 36.2459 36.0189 33.8521 45.8422 25.6119 25.515 20.7053 19.5689 25.2427 23.3761 35.1762 20.8218 51.8063
threshold=-1.0000000180025095e-35 1.5000000000000002 2.5000000000000004 4.5000000000000009 5.5000000000000009 19.500000000000004 16.500000000000004 117.50000000000001 3.5000000000000004 2.5000000000000004 2.5000000000000004 1.0000000180025095e-35 6.5000000000000009 27.500000000000004 7.5000000000000009 84.500000000000014 65.500000000000014 63.500000000000007 69.500000000000014 17.500000000000004 18.500000000000004 1.5000000000000002 1.5000000000000002 1.5000000000000002 1.0000000180025095e-35 7.5000000000000009 7.5000000000000009 5.5000000000000009 15.500000000000002 18.500000000000004
decision_type=2 2 2 2 2 2 2 2 2 2 2 2 2 2 2 2 2 2 2 2 2 2 2 2 2 2 2 2 2 2
left_child=-1 -2 4 5 10 6 -4 14 19 -7 12 -6 13 24 15 -5 23 22 -11 -8 -21 -15 -14 -12 26 -26 27 -3 -27 -30
right_child=1 2 3 7 11 9 8 -9 -10 18 16 -13 17 21 -16 -17 -18 -19 -20 20 -22 -23 -24 -25 25 28 -28 -29 29 -31
leaf_value=-0.13578369128329221 0.017734206230918263 0.1317971818736593 0.1783754733816392 0.0062022310034069265 -0.11838391839126006 0.18356592932291069 0.12340789047614208 0.18251495419942745 0.18112224769419297 0.10609593623821295 0.11545616066902697 0.23048492799598685 0.2278941719606421 0.17261967262657429 -0.055173960356348056 0.20235685609316234 0.20185509891462022 -0.048238432763702925 0.1932896719858137 0.031958876190272267 0.1048532311417902 0.12295771579566994 0.028817612645374854 -0.065857013278886697 0.20313914833305713 0.043242833319234786 0.12983478596093762 0.10099776674055293 0.18317576073553718 0.066196170176889321
leaf_weight=10728.213842079043 3401.2854183912277 677.18884278833866 716.71295580267906 85.936461687088013 38.821524500846863 7586.4196253120899 139.77391138672829 53.355325490236282 112.64214526116848 165.18514853715897 7.9119062125682822 5.125349521636962 11.736970692873001 463.89421324431896 74.931384459137917 21.159790188074112 9.6845732331275922 26.030287340283394 66.428081780672073 189.52364571392536 158.36181284487247 133.79924832284451 14.260187208652496 30.881579682230949 20.696613356471062 72.347987458109856 3545.5411425679922 819.65537345409393 58.557245627045631 107.10178400576115
leaf_count=47851 11943 1997 1980 305 151 20691 416 146 312 503 24 14 32 1286 288 60 26 97 179 653 485 401 48 120 56 237 10439 2513 163 342
internal_value=0.0331193 0.129427 0.154074 0.17305 0.124651 0.176368 0.142866 0.0442628 0.100471 0.182012 0.126134 -0.0776967 0.127021 0.127831 0.0037388 0.0449579 0.0172158 0.0351751 0.131104 0.0818418 0.0651413 0.161502 0.118695 -0.0288783 0.124035 0.0972109 0.125411 0.114932 0.0879996 0.107546
internal_weight=29543.2 18815 15413.7 9370.43 6043.23 9135.05 1317.01 235.383 600.302 7818.03 5999.29 43.9469 5950.81 5898.78 182.028 107.096 48.4781 52.0274 231.613 487.659 347.885 597.693 25.9972 38.7935 5301.09 258.704 5042.39 1496.84 238.007 165.659
internal_count=103758 55907 43964 26018 17946 25219 3846 799 1866 21373 17781 165 17611 17434 653 365 170 177 682 1554 1138 1687 80 144 15747 798 14949 4510 742 505
is_linear=0
shrinkage=0.1


Tree=3
num_leaves=31
num_cat=0
split_feature=0 17 3 1 17 17 0 3 17 0 2 1 1 0 1 17 17 17 17 2 1 17 1 1 17 3 17 17 1 2
split_gain=39913.6 4263.59 749.044 331.046 152.801 165.895 178.961 141.137 108.356 101.875 116.716 61.7418 54.0672 44.8828 33.3918 31.0283 29.2251 27.7189 38.4884 30.0276 35.4166 27.402 35.8287 23.5739 22.487 33.7154 22.2678 20.5028 27.2411 24.8971
threshold=-1.0000000180025095e-35 1.5000000000000002 2.5000000000000004 4.5000000000000009 19.500000000000004 16.500000000000004 1.0000000180025095e-35 3.5000000000000004 117.50000000000001 1.0000000180025095e-35 1.5000000000000002 1.0000000180025095e-35 2.5000000000000004 1.0000000180025095e-35 1.0000000180025095e-35 68.500000000000014 19.500000000000004 52.500000000000007 32.500000000000007 1.0000000180025095e-35 6.5000000000000009 12.500000000000002 1.0000000180025095e-35 1.0000000180025095e-35 8.5000000000000018 1.5000000000000002 62.500000000000007 44.500000000000007 1.5000000000000002 2.5000000000000004
decision_type=2 2 2 2 2 2 2 2 2 2 2 2 2 2 2 2 2 2 2 2 2 2 2 2 2 2 2 2 2 2
left_child=-1 -2 9 4 5 -4 7 11 13 10 17 -7 27 -5 16 -14 -12 18 21 20 26 23 -23 -3 -11 -26 -19 28 29 -6
right_child=1 2 3 8 12 6 -8 -9 -10 24 14 -13 15 -15 -16 -17 -18 19 -20 -21 -22 22 -24 -25 25 -27 -28 -29 -30 -31
leaf_value=-0.12875080299805963 0.015909313749920485 0.10536832959780225 0.16153184883622773 -0.037832911763742115 0.16509510555215212 0.013071887530023578 0.18250752740600007 0.16155531811733112 0.16612148248091957 0.17455387574467876 0.11111896728182609 0.15238216333457691 0.09468758410723746 0.06339751015873353 0.15938120912978199 0.17531904777938262 -0.081155299623916266 0.0228231879491902 0.142463612234076 -0.094275690461867706 -0.014713693637000825 0.069036404568523488 0.11820647548860388 0.16199756060875201 0.11112159580114955 0.13530266301815796 0.17597906448298636 0.17436705652812398 0.1213633319356216 0.020509932565159705
leaf_weight=10209.644404932857 3411.7042152881622 2367.8599171489477 712.43491369485855 107.69202561676502 4715.3230372071266 308.83076019585133 155.71860887110233 101.59343704581261 52.782066211104393 97.896731689572334 9.3118431717157346 35.467188283801079 164.01571038365364 73.821557685732841 8.4940723180770856 67.31166410446167 52.332168728113174 13.78729374706745 256.42856737971306 12.708963483572004 28.456399008631706 470.6050905585289 216.30925445258617 75.865984737873077 958.96576879918575 1446.1191249638796 30.479983538389206 2621.528862208128 149.42735174298286 11.939878955483435
leaf_count=47851 11943 7088 1980 410 13043 1060 423 283 146 268 28 100 498 243 24 184 206 46 733 49 104 1470 636 211 2842 4157 84 7173 436 39
internal_value=0.0303231 0.117009 0.139519 0.157366 0.160407 0.128881 0.0902152 0.0579839 0.0400094 0.11213 0.101218 0.0274227 0.165766 0.00333749 -0.0264979 0.11815 -0.0521107 0.103798 0.105217 0.0475423 0.072326 0.102166 0.0845201 0.107126 0.127573 0.125661 0.128278 0.167235 0.163401 0.16473
internal_weight=28944.9 18735.2 15323.5 9277.89 9043.59 1314.04 601.61 445.891 234.296 6045.62 3542.64 344.298 7729.55 181.514 70.1381 231.327 61.644 3472.5 3387.07 85.4326 72.7237 3130.64 686.914 2443.73 2502.98 2405.08 44.2673 7498.22 4876.69 4727.26
internal_count=103758 55907 43964 26018 25219 3846 1866 1443 799 17946 10679 1160 21373 653 258 682 234 10421 10138 283 234 9405 2106 7299 7267 6999 130 20691 13518 13082
is_linear=0
shrinkage=0.1


Tree=4
num_leaves=31
num_cat=0
split_feature=0 17 17 1 17 2 1 0 17 1 17 17 0 2 1 17 1 2 17 17 2 17 0 17 17 17 17 0 17 17
split_gain=33433.8 3590.06 530.18 366.22 88.5223 74.5145 81.0322 61.0991 94.59 60.1701 57.9231 52.3283 47.5394 57.0509 46.7764 42.2507 34.5416 30.7322 24.2625 20.1716 34.0294 31.7858 19.1408 19.1501 18.3543 19.1854 18.3534 17.4913 20.2287 16.2652
threshold=-1.0000000180025095e-35 1.5000000000000002 19.500000000000004 4.5000000000000009 123.50000000000001 2.5000000000000004 1.5000000000000002 1.0000000180025095e-35 17.500000000000004 1.0000000180025095e-35 46.500000000000007 18.500000000000004 1.0000000180025095e-35 1.0000000180025095e-35 9.5000000000000018 37.500000000000007 1.0000000180025095e-35 1.5000000000000002 107.50000000000001 7.5000000000000009 1.0000000180025095e-35 5.5000000000000009 1.5000000000000002 42.500000000000007 8.5000000000000018 15.500000000000002 71.500000000000014 1.0000000180025095e-35 29.500000000000004 4.5000000000000009
decision_type=2 2 2 2 2 2 2 2 2 2 2 2 2 2 2 2 2 2 2 2 2 2 2 2 2 2 2 2 2 2
left_child=-1 -2 7 5 14 6 15 8 16 11 -7 -10 13 26 18 17 19 -4 22 21 -21 29 23 -5 -9 -26 -8 28 -19 -3
right_child=1 2 3 4 -6 10 12 24 9 -11 -12 -13 -14 -15 -16 -17 -18 27 -20 20 -22 -23 -24 -25 25 -27 -28 -29 -30 -31
leaf_value=-0.12268047614648979 0.014278907725140788 0.094148553170738836 0.14564012183094874 0.11402102767816824 0.16033934565425678 -0.020737517010662478 0.062289153104606393 0.1607098029581292 -0.002602423525020998 0.13709480094217397 0.1158924694359364 0.074681834523582152 0.14023721659537169 0.16892174485110056 -0.064139472023370156 0.15924900853565799 0.14367286478899202 -0.0268589148765222 0.17792085417012762 0.10982972252100387 0.041836510040687926 0.077989874008760826 0.20154976199744074 0.013943720704308778 0.10827268582132027 0.12921157642359218 0.15689974240812649 0.12143556780042444 0.13736451522008619 0.12576159854010696
leaf_weight=9671.255949229002 3420.6331533193588 384.8038322031498 4495.6297601163387 21.37176550924778 50.862440809607506 43.121731355786324 261.5472337603569 99.570099756121635 177.96053391695023 69.833958312869072 110.63964101672173 172.56333044171333 398.16218876838684 72.829794317483902 56.752843275666237 3380.7462055683136 192.75492745637894 22.152464985847473 11.678168267011641 1790.6620497554541 76.763068720698357 804.05083377659321 6.2945709824562064 181.51936288177967 1097.6559706330299 727.67801110446453 22.248054534196854 51.918059393763542 11.340393528342245 282.04011887311935
leaf_count=47851 11943 1156 12827 64 143 160 815 278 630 200 329 537 1140 203 224 9533 548 80 32 5294 247 2465 17 633 3243 2101 63 152 33 817
internal_value=0.0279863 0.106768 0.127755 0.142744 0.0390573 0.146583 0.1478 0.104291 0.0971743 0.0523318 0.0775752 0.0354447 0.116486 0.0899679 0.0168371 0.150769 0.102513 0.144511 0.0376447 0.100136 0.107035 0.0913773 0.0298135 0.0244855 0.118901 0.11662 0.0697061 0.0850884 0.0287457 0.107519
internal_weight=28167 18495.8 15075.2 9198.81 328.479 8870.34 8716.57 5876.34 3951.43 420.358 153.761 350.524 754.787 356.625 277.617 7961.79 3531.07 4581.04 220.864 3338.32 1867.43 1470.89 209.186 202.891 1924.9 1825.33 283.795 85.4109 33.4929 666.844
internal_count=103758 55907 43964 26448 1113 25335 24846 17516 11894 1367 489 1167 2221 1081 970 22625 10527 13092 746 9979 5541 4438 714 697 5622 5344 878 265 113 1973
is_linear=0
shrinkage=0.1


Tree=5
num_leaves=31
num_cat=0
split_feature=0 17 3 1 16 17 17 0 3 0 0 2 1 1 17 1 1 3 0 17 1 17 1 17 1 17 17 17 3 17
split_gain=28174.5 3068.42 678.439 257.522 141.171 126.038 136.254 139.678 115.396 75.2987 62.6558 61.529 45.0655 33.6028 29.4074 49.6996 28.1573 32.2778 42.1782 27.5223 23.9804 23.6371 27.8946 23.1191 23.7142 22.6182 21.4932 20.1235 36.0571 19.9059
threshold=-1.0000000180025095e-35 1.5000000000000002 2.5000000000000004 3.5000000000000004 5.5000000000000009 19.500000000000004 16.500000000000004 1.0000000180025095e-35 3.5000000000000004 1.0000000180025095e-35 1.0000000180025095e-35 1.5000000000000002 1.0000000180025095e-35 5.5000000000000009 29.500000000000004 2.5000000000000004 1.5000000000000002 3.5000000000000004 1.0000000180025095e-35 118.50000000000001 1.0000000180025095e-35 12.500000000000002 1.0000000180025095e-35 26.500000000000004 2.5000000000000004 78.500000000000014 19.500000000000004 9.5000000000000018 1.5000000000000002 79.500000000000014
decision_type=2 2 2 2 2 2 2 2 2 2 2 2 2 2 2 2 2 2 2 2 2 2 2 2 2 2 2 2 2 2
left_child=-1 -2 4 5 10 6 -4 8 12 13 11 14 -8 29 21 -16 -7 18 -18 -11 26 -3 -23 -24 -25 -17 -13 -12 -29 -5
right_child=1 2 3 9 -6 16 7 -9 -10 19 27 20 -14 -15 15 25 17 -19 -20 -21 -22 22 23 24 -26 -27 -28 28 -30 -31
leaf_value=-0.11734400951903674 0.012820645182151404 0.087685735682807686 0.14017951186057487 0.025357786646115432 -0.086805166392240452 0.1456013618051524 0.0069866452695151755 0.15824105536406435 0.14180092496287833 0.065898921857880918 0.13608886636539594 0.096582979030755675 0.12780733482626669 -0.043906221923555415 0.1414339000301523 0.070525320085997836 0.0022768551201818314 0.13582267405634624 0.12182787643142856 0.15438615141124551 0.14543507469432379 0.052500056191432658 0.10955253742938689 -0.09054073813922886 0.11527691866115515 -0.11140772730345555 -0.071159790066804604 0.086311065273576515 0.11251392380686696 0.17092136111473066
leaf_weight=9128.1531740576029 3428.3071382939816 2413.4234330058098 684.72290562093258 53.408050715923309 43.968270301818848 6712.4705075472593 309.28518007695675 149.42762513458729 98.544824674725533 109.80942140519619 195.70414668321609 9.3121450990438444 34.29496793448925 88.078016489744186 222.01329362392426 96.631459608674049 47.070455834269524 368.87176214158535 79.107051074504852 51.698576480150223 7.9576621800661078 452.68382582068443 176.89869663119316 12.42726205289364 10.187148571014403 7.3533523082733145 42.502972945570946 842.24635957181454 1394.9466758668423 11.399801164865492
leaf_count=47851 11943 7299 1980 179 165 19647 1060 423 283 352 567 28 100 343 648 302 156 1079 233 150 23 1423 525 45 30 32 171 2553 4135 33
internal_value=0.0259693 0.0980268 0.117863 0.135481 0.0917147 0.138775 0.10981 0.0746567 0.0464072 0.0466086 0.0930486 0.084385 0.0190465 -0.0036916 0.0861576 0.114712 0.143904 0.120889 0.0772294 0.0942236 -0.0161911 0.0831211 0.0662297 0.0973814 0.00217426 0.0576598 -0.0410133 0.105339 0.102649 0.0509626
internal_weight=27282.9 18154.8 14726.4 8798.19 5928.26 8483.8 1276.28 591.553 442.125 314.394 5884.29 3451.39 343.58 152.886 3391.62 325.998 7207.52 495.049 126.178 161.508 59.7728 3065.62 652.197 199.513 22.6144 103.985 51.8151 2432.9 2237.19 64.8079
internal_count=103758 55907 43964 26018 17946 24961 3846 1866 1443 1057 17781 10526 1160 555 10304 982 21115 1468 389 502 222 9322 2023 600 75 334 199 7255 6688 212
is_linear=0
shrinkage=0.1


Tree=6
num_leaves=31
num_cat=0
split_feature=0 17 3 16 17 17 0 3 0 2 6 17 3 17 2 17 3 17 3 17 17 17 0 0 17 3 17 2 17 3
split_gain=23860.9 2655.9 641.297 116.363 94.3739 120.592 122.046 98.0413 55.5099 50.3584 41.4482 27.0371 22.1583 44.4925 31.9547 19.6818 20.5881 18.1124 32.2391 17.8965 21.9754 16.5633 16.4229 15.2505 15.2323 18.716 20.1755 13.9192 24.8336 16.7733
threshold=-1.0000000180025095e-35 1.5000000000000002 2.5000000000000004 5.5000000000000009 19.500000000000004 16.500000000000004 1.0000000180025095e-35 3.5000000000000004 1.0000000180025095e-35 1.5000000000000002 1.0000000180025095e-35 29.500000000000004 3.5000000000000004 51.500000000000007 1.5000000000000002 12.500000000000002 1.5000000000000002 9.5000000000000018 1.5000000000000002 17.500000000000004 18.500000000000004 12.500000000000002 1.0000000180025095e-35 1.5000000000000002 55.500000000000007 1.5000000000000002 19.500000000000004 1.0000000180025095e-35 61.500000000000007 7.5000000000000009
decision_type=2 2 2 2 2 2 2 2 2 2 2 2 2 2 2 2 2 2 2 2 2 2 2 2 2 2 2 2 2 2
left_child=-1 -2 3 8 5 -4 7 19 9 11 -5 15 13 14 -6 -3 -17 -10 -19 -7 -21 -20 27 -23 25 -11 -27 28 -14 -30
right_child=1 2 4 10 12 6 -8 -9 17 24 -12 -13 22 -15 -16 16 -18 18 21 20 -22 23 -24 -25 -26 26 -28 -29 29 -31
leaf_value=-0.11257291448509986 0.01151512729158006 0.079869370767302106 0.1307908424133413 -0.1147176613702178 0.12898341533308841 0.055449799548927259 0.14835627580179489 0.13169992375650327 0.12650303826119313 0.11063422379015814 0.18699369171635519 0.10637227269532808 0.12905200586537258 0.07401078644878506 0.042055506566070086 0.026215173148874837 0.069571352203208939 0.078778471799062125 0.15100160062257154 -0.021569941372603426 0.038174210595519086 0.097999038736942767 0.14038474459878189 0.138115875808934 0.12110826351168254 0.12624863344798262 -0.083921021723255704 0.14566680701730683 0.07592359015702127 0.14518239203737082
leaf_weight=8591.3921230584383 3434.9205381572247 2386.0717746764421 661.67415374517441 38.379194334149361 2401.8003192394972 90.144127532839775 143.73562936484814 95.64140596985817 189.78523245453835 7.6273156702518454 5.1661713123321524 316.94268772006035 1247.344879001379 166.38471208512783 43.045783966779709 139.74388717114925 506.49221120774746 831.08673636615276 70.404787391424179 146.4303316026926 106.23179021477699 1189.5694043040276 2795.6762031763792 102.96353970468044 7.2257540822029105 5.1794421076774588 38.662959456443787 363.35292167961597 157.54410929977894 44.94310887157917
leaf_count=47851 11943 7299 1980 151 7362 284 423 283 567 23 14 982 3830 551 142 453 1570 2553 201 533 343 3632 8517 302 22 15 162 1102 531 137
internal_value=0.024209 0.0904735 0.109441 0.0839355 0.127025 0.101584 0.0683897 0.0421744 0.08516 0.0769721 -0.078923 0.0785814 0.131408 0.124048 0.127453 0.0756766 0.0601959 0.0968655 0.0943018 0.0171972 0.00354949 0.103768 0.135577 0.101195 -0.0148529 -0.0339403 -0.0590921 0.128165 0.123779 0.0912959
internal_weight=26325.6 17734.2 14299.3 5835.3 8463.95 1243.86 582.183 438.448 5791.76 3407.95 43.5454 3349.25 7220.09 2611.23 2444.85 3032.31 646.236 2383.81 2194.02 342.806 252.662 1362.94 4608.86 1292.53 58.6955 51.4697 43.8424 1813.19 1449.83 202.487
internal_count=103758 55907 43964 17946 26018 3846 1866 1443 17781 10526 165 10304 22172 8055 7504 9322 2023 7255 6688 1160 876 4135 14117 3934 222 200 177 5600 4498 668
is_linear=0
shrinkage=0.1


Tree=7
num_leaves=31
num_cat=0
split_feature=1 17 3 1 17 17 16 17 3 1 6 17 1 17 1 17 17 17 3 6 17 17 17 1 17 1 1 3 1 17
split_gain=20269.6 2313.16 610.405 249.052 117.429 108.044 98.6722 66.507 47.6933 46.2588 39.8605 37.8833 32.2771 33.8856 25.5506 47.5253 20.6744 18.6042 18.298 25.7679 17.8624 22.8823 14.4882 13.1867 12.3986 15.5424 12.123 12.9677 11.2169 11.1522
threshold=-1.0000000180025095e-35 1.5000000000000002 2.5000000000000004 3.5000000000000004 19.500000000000004 16.500000000000004 7.5000000000000009 117.50000000000001 3.5000000000000004 6.5000000000000009 1.0000000180025095e-35 84.500000000000014 1.5000000000000002 48.500000000000007 4.5000000000000009 27.500000000000004 54.500000000000007 44.500000000000007 1.5000000000000002 1.0000000180025095e-35 17.500000000000004 18.500000000000004 66.500000000000014 1.0000000180025095e-35 25.500000000000004 1.0000000180025095e-35 2.5000000000000004 3.5000000000000004 1.5000000000000002 34.500000000000007
decision_type=2 2 2 2 2 2 2 2 2 2 2 2 2 2 2 2 2 2 2 2 2 2 2 2 2 2 2 2 2 2
left_child=-1 -2 6 4 5 -4 14 9 20 11 -8 16 17 26 15 24 29 -6 -16 -20 -7 23 -18 -22 25 -3 -14 -28 -26 -5
right_child=1 2 3 7 12 8 10 -9 -10 -11 -12 -13 13 -15 18 -17 22 -19 19 -21 21 -23 -24 -25 28 -27 27 -29 -30 -31
leaf_value=-0.10824002697736751 0.010345437857860974 0.074957351669581118 0.1227919454999914 0.15270835687333051 0.1263785486002616 0.080565794653239611 -0.13069532167181044 0.1316766694791551 0.12504654090586875 -0.04464349191522389 0.17228278234747696 0.14558194057751528 0.087572573620881472 0.12803337870721201 0.10112695788042976 0.10710140060238781 -0.081697082315154143 0.13805760651384388 -0.024035550126272127 0.15533299051281593 0.0076358114336609259 0.065980580309618564 0.027502281172088524 0.13222461965278337 0.059414815392452427 0.095632772401554531 -0.019040917878850927 0.079143930018014313 -0.01917212935372371 0.037485376264008295
leaf_weight=8068.9159404039383 3440.6358332931995 4563.2813058197498 635.64981254935265 9.5500798225402814 4081.2343969196081 132.36658757925034 30.910937577486038 54.549459382891655 101.43543919920921 96.273175254464149 5.0520037412643424 29.461352974176407 160.64349383115768 248.64749506115913 24.109815016388893 539.77585539221764 26.334910899400711 2048.5723090916872 59.887214601039886 9.2456432282924634 176.42982703447342 151.98539415001869 22.556686654686928 8.9250371605157834 80.860708326101303 395.06528678536415 25.479823991656303 28.495216459035873 23.423573225736618 69.754861906170845
leaf_count=47851 11943 14223 1980 27 13082 416 127 174 312 367 14 88 509 784 73 1708 98 6565 211 26 627 485 77 26 264 1220 87 88 80 226
internal_value=0.0226208 0.0837243 0.101966 0.119623 0.123109 0.0944292 0.0769878 0.0314963 0.0628631 0.00997558 -0.0881335 0.0433285 0.128358 0.102907 0.0780304 0.0788944 0.0198292 0.130282 0.0261134 -4.7282e-05 0.0494342 0.0372187 -0.0313167 0.0136349 0.075887 0.0766047 0.0737962 0.0327941 0.0417632 0.0513608
internal_weight=25349.5 17280.6 13840 8108.35 7799.86 1206.79 5731.61 308.481 571.142 253.931 35.9629 157.658 6593.07 463.266 5695.65 5602.41 128.197 6129.81 93.2427 69.1329 469.707 337.34 48.8916 185.355 5062.63 4958.35 214.619 53.975 104.284 79.3049
internal_count=103758 55907 43964 26018 24961 3846 17946 1057 1866 883 141 516 21115 1468 17805 17495 428 19647 310 237 1554 1138 175 653 15787 15443 684 175 344 253
is_linear=0
shrinkage=0.1


Tree=8
num_leaves=31
num_cat=0
split_feature=0 17 17 1 16 1 2 17 17 0 17 17 1 13 1 17 1 2 17 17 17 0 17 1 17 17 17 2 17 0
split_gain=17266.3 2027.16 447.661 282.408 114.51 67.1477 64.6444 65.5825 56.6793 45.858 52.6651 45.4977 42.8602 42.3255 39.7235 33.6903 33.3806 29.3172 29.4501 28.4583 20.9976 18.7063 17.3716 16.6886 16.6706 15.4495 30.176 28.6231 15.1643 13.0711
threshold=-1.0000000180025095e-35 1.5000000000000002 19.500000000000004 2.5000000000000004 7.5000000000000009 6.5000000000000009 2.5000000000000004 40.500000000000007 80.500000000000014 1.0000000180025095e-35 17.500000000000004 54.500000000000007 1.5000000000000002 1.5000000000000002 1.0000000180025095e-35 123.50000000000001 1.0000000180025095e-35 1.0000000180025095e-35 24.500000000000004 18.500000000000004 52.500000000000007 1.0000000180025095e-35 8.5000000000000018 4.5000000000000009 15.500000000000002 7.5000000000000009 5.5000000000000009 1.0000000180025095e-35 4.5000000000000009 1.0000000180025095e-35
decision_type=2 2 2 2 2 2 2 2 2 2 2 2 2 2 2 2 2 2 2 2 2 2 2 2 2 2 2 2 2 2
left_child=-1 -2 9 4 6 8 7 12 23 10 16 29 17 -6 19 20 25 -4 -19 -12 -7 -14 -11 -5 -24 26 28 -27 -3 -8
right_child=1 2 3 5 13 15 11 -9 -10 22 14 -13 21 -15 -16 -17 -18 18 -20 -21 -22 -23 24 -25 -26 27 -28 -29 -30 -31
leaf_value=-0.10424750202094231 0.0092967611309041614 0.06417010420728661 0.11578312751360649 0.061600027148964481 -0.09797224343243803 0.082340336334438491 -0.070423819009203345 0.13110727345334913 0.13513685380953355 0.13030213461132961 -0.0082501111995817462 0.09896902423448023 0.033858345351839916 0.1632919547112808 0.10614492672070991 0.11977820738317431 0.11395004233316755 0.035280109969013915 0.10153163559200085 0.049324759529626297 -0.037088197414786209 0.095171991265832145 0.076428292362002617 0.013695875164857799 0.096813285581192371 0.077967500419518415 0.047880021049796467 0.014900711338104569 0.095573077403429074 0.027341007633044024
leaf_weight=7566.2681509107351 3445.5876593887806 366.59340359270573 3935.3919660449028 239.0006897598505 33.711690008640289 16.53310064971447 27.951513171195984 2558.9798342883587 92.703751891851425 86.751150652766228 176.43557128310204 70.392820745706558 95.674418285489082 7.5983159840106955 62.997379958629608 18.270272925496101 173.71546077728271 85.468298509716988 312.12543022632599 167.21413642168045 134.35389333963394 103.68403336405754 1023.9574729055166 104.52977475523949 659.58916573226452 1659.0469964742661 773.39161865413189 75.227097854018211 264.8830007314682 26.776254177093506
leaf_count=47851 11943 1156 13150 764 140 51 116 8661 302 278 630 238 314 23 200 61 548 290 1055 537 508 334 3243 351 2101 5294 2465 247 817 90
internal_value=0.0211858 0.0776825 0.0953287 0.110628 0.116101 0.0450098 0.117052 0.118309 0.0657486 0.0734155 0.0671102 0.0457986 0.111083 -0.0499169 0.0331468 -0.00847272 0.0712791 0.113169 0.0872899 0.0197648 -0.0240021 0.0657469 0.0866635 0.0470237 0.0844148 0.0689178 0.0611232 0.0752319 0.0773426 -0.0225911
internal_weight=24364.8 16798.5 13352.9 7863.15 7257.75 605.391 7216.44 7091.32 436.234 5489.8 3719.5 125.121 4532.34 41.31 406.647 169.157 3312.86 4332.99 397.594 343.65 150.887 199.358 1770.3 343.53 1683.55 3139.14 1404.87 1734.27 631.476 54.7278
internal_count=103758 55907 43964 26448 24411 2037 24248 23804 1417 17516 11894 444 15143 163 1367 620 10527 14495 1345 1167 559 648 5622 1115 5344 9979 4438 5541 1973 206
is_linear=0
shrinkage=0.1


Tree=9
num_leaves=31
num_cat=0
split_feature=0 17 3 1 17 17 0 3 0 17 2 0 1 0 3 1 6 1 17 17 17 3 17 2 2 3 1 8 17 1
split_gain=14736.7 1783.58 595.828 210.019 108.582 97.9642 107.91 76.5506 56.7701 52.7932 51.7981 33.4744 32.8385 32.0321 40.1115 31.742 27.8431 27.1275 25.0582 19.63 24.0716 21.1717 19.1289 21.9211 19.2642 18.4441 18.4364 18.3007 21.4672 19.1073
threshold=-1.0000000180025095e-35 1.5000000000000002 2.5000000000000004 3.5000000000000004 19.500000000000004 16.500000000000004 1.0000000180025095e-35 3.5000000000000004 1.0000000180025095e-35 123.50000000000001 1.5000000000000002 1.5000000000000002 1.5000000000000002 1.0000000180025095e-35 3.5000000000000004 1.0000000180025095e-35 1.0000000180025095e-35 6.5000000000000009 84.500000000000014 52.500000000000007 37.500000000000007 1.5000000000000002 44.500000000000007 4.5000000000000009 1.5000000000000002 3.5000000000000004 1.0000000180025095e-35 1.0000000180025095e-35 12.500000000000002 1.0000000180025095e-35
decision_type=2 2 2 2 2 2 2 2 2 2 2 2 2 2 2 2 2 2 2 2 2 2 2 2 2 2 2 2 2 2
left_child=-1 -2 8 4 5 -4 7 15 10 11 16 17 22 14 -14 -7 19 18 -5 20 27 -21 24 -24 -6 -26 -12 28 29 -3
right_child=1 2 3 9 12 6 -8 -9 -10 -11 26 -13 13 -15 -16 -17 -18 -19 -20 21 -22 -23 23 -25 25 -27 -28 -29 -30 -31
leaf_value=-0.10051875293514707 0.0083560725886846054 0.058866019984067042 0.11158013215778279 0.0081343681817531554 0.11572122304793996 -0.0026047349865650129 0.13301003889676033 0.11258183685882367 0.076784448122674542 0.12699246642841541 -0.050431129657533116 0.14033261654104015 -0.02254898534298265 0.11496280156906824 0.085146691845918235 0.10331222841581714 0.15376989213428233 -0.043462279960587442 0.12593013419070037 0.13337184764134183 0.10382623859486129 -0.020776741403128018 0.12815673511367764 -0.018424810132700305 0.0013095903266156224 0.11162799729759046 0.11665410225352731 0.14040385408958281 0.040506044417984437 0.11387847037133454
leaf_weight=7087.1516081988811 3449.8891208767891 2205.5686882287264 588.58020807802677 120.52900068461895 3614.4229686409235 306.93390972912312 129.19390188157558 86.499776691198349 2214.7478813827038 43.820932686328888 58.602019414305687 17.808589726686478 45.068667784333229 235.99610494077206 148.65605126321316 31.167763829231262 29.988120406866074 94.142965853214264 21.241500526666641 10.574062734842299 111.08530312776566 56.616681843996048 1805.5234766751528 10.260419845581053 29.013608053326607 31.72839929163456 7.4425871968269339 25.726112216711044 708.84500350058079 64.996467515826225
leaf_count=47851 11943 7068 1980 409 12867 1060 423 283 7267 157 234 56 156 805 507 100 87 367 68 34 373 218 6525 40 105 110 24 85 2345 211
internal_value=0.0198705 0.0722001 0.0893342 0.107935 0.111402 0.0831747 0.0529851 0.0286359 0.0644151 0.0256358 0.0560616 0.00813028 0.116848 0.0902262 0.0600921 0.00715918 0.0578633 -0.00184939 0.0257837 0.0569599 0.058113 0.00348221 0.118931 0.127328 0.114783 0.0589341 -0.0316022 0.0564232 0.055698 0.0604408
internal_weight=23391.8 16304.7 12854.8 7360.59 7063.05 1142.38 553.795 424.601 5494.19 297.543 3279.45 253.722 5920.67 429.721 193.725 338.102 3213.4 235.913 141.771 3183.41 3116.22 67.1907 5490.95 1815.78 3675.16 60.742 66.0446 3005.14 2979.41 2270.57
internal_count=103758 55907 43964 26018 24961 3846 1866 1443 17946 1057 10679 900 21115 1468 663 1160 10421 844 477 10334 10082 252 19647 6565 13082 215 258 9709 9624 7279
is_linear=0
shrinkage=0.1


Tree=10
num_leaves=31
num_cat=0
split_feature=0 3 0 1 3 3 16 0 1 2 0 2 2 1 1 3 1 8 3 1 1 1 2 6 0 6 1 1 11 2
split_gain=12596.4 1588.11 293.296 195.617 122.601 83.3402 75.9361 53.947 42.9391 39.906 37.2372 34.931 28.5376 27.7818 22.0614 20.6824 19.5493 16.9538 16.6503 15.4336 13.9364 13.8399 13.7334 13.6404 12.5707 11.5911 11.2005 34.4385 8.46513 8.01652
threshold=-1.0000000180025095e-35 2.5000000000000004 1.0000000180025095e-35 2.5000000000000004 1.5000000000000002 3.5000000000000004 5.5000000000000009 1.0000000180025095e-35 1.0000000180025095e-35 1.5000000000000002 1.0000000180025095e-35 1.0000000180025095e-35 1.0000000180025095e-35 5.5000000000000009 5.5000000000000009 3.5000000000000004 7.5000000000000009 1.0000000180025095e-35 1.5000000000000002 1.0000000180025095e-35 1.5000000000000002 1.5000000000000002 4.5000000000000009 1.0000000180025095e-35 1.5000000000000002 1.0000000180025095e-35 1.5000000000000002 1.0000000180025095e-35 1.0000000180025095e-35 1.0000000180025095e-35
decision_type=2 2 2 2 2 2 2 2 2 2 2 2 2 2 2 2 2 2 2 2 2 2 2 2 2 2 2 2 2 2
left_child=-1 2 4 5 8 10 9 11 25 13 20 14 -12 17 -5 -9 -17 23 -4 -11 -3 24 28 26 29 -2 27 -6 -7 -20
right_child=1 3 18 7 6 22 -8 15 -10 19 12 -13 -14 -15 -16 16 -18 -19 21 -21 -22 -23 -24 -25 -26 -27 -28 -29 -30 -31
leaf_value=-0.096993209058015062 0.01800791445808515 0.086318876764196695 0.060958512744855954 0.016463983116423487 0.05132533932509064 0.1178356632190817 -0.095166803263842456 0.03032511577266464 0.084382557519973742 -0.05735256357587757 0.1125750915160692 0.12105839630548693 0.060489199816997345 -0.035086619936041556 -0.052020715215934425 0.11258939393064976 -0.0030181679743802869 0.13635535168397775 0.080644085003861318 0.11598649577065351 0.018274199493537202 0.029582145403853205 -0.013967053341926173 0.15244629944337196 0.11744931126921015 0.15036536291030345 0.018524175183637935 0.10397025760557176 0.00075738362123739208 0.049442789698569307
leaf_weight=6633.8600790053606 4513.5967377573252 1681.9893965125084 924.10874566435814 113.95492209494114 1678.2582011073828 3574.0327671170235 35.911031916737556 70.749839827418327 100.21075892448425 43.811496987938881 1140.2330053895712 22.034929126501083 115.88124261796474 34.577956765890121 80.101710453629494 112.58056131005287 16.811377942562103 25.493801057338715 999.4375302195549 5.8187825530767432 30.648099780082703 54.775936588644981 7.9474347829818717 14.046675413846968 87.597753703594208 6.6262165904045096 87.162245661020279 134.19597579538822 6.1863152384757987 89.739498436450958
leaf_count=47851 15398 6130 3085 388 5524 13564 152 239 334 180 4242 74 441 126 323 394 63 89 3386 19 103 192 31 42 294 20 292 446 26 310
internal_value=0.0186581 0.0671898 0.0390321 0.102867 0.0286818 0.107087 0.0489751 0.0363903 0.0196373 0.0515333 0.0946926 0.00174332 0.10777 0.0537603 -0.0118048 0.0737984 0.097569 0.0553445 0.0711043 -0.0370298 0.0851012 0.0787173 0.117342 0.0542653 0.0810044 0.0182019 0.0535393 0.0552232 0.117633 0.0780733
internal_weight=22442.4 15808.5 8835.37 6973.15 6679.71 6556.92 2059.28 416.233 4620.43 2023.37 2968.75 216.092 1256.11 1973.73 194.057 200.142 129.392 1939.16 2155.66 49.6303 1712.64 1231.55 3588.17 1913.66 1176.77 4520.22 1899.62 1812.45 3580.22 1089.18
internal_count=103758 55907 29889 26018 22622 24537 6870 1481 15752 6718 10916 785 4683 6519 711 696 457 6393 7267 199 6233 4182 13621 6304 3990 15418 6262 5970 13590 3696
is_linear=0
shrinkage=0.1


Tree=11
num_leaves=31
num_cat=0
split_feature=0 3 17 1 17 17 0 3 16 0 0 2 13 1 2 17 1 17 1 17 3 2 0 17 17 3 17 17 17 17
split_gain=10763.9 1466.04 510.866 181.04 126.232 99.0995 100.948 66.2724 55.1288 45.5935 33.1685 29.3981 28.2689 28.0598 26.033 25.7409 26.2039 24.0663 45.019 20.7295 23.4461 19.7946 19.2413 20.0471 18.8514 21.5921 47.6366 34.7092 52.7144 29.2295
threshold=-1.0000000180025095e-35 2.5000000000000004 1.5000000000000002 2.5000000000000004 19.500000000000004 16.500000000000004 1.0000000180025095e-35 3.5000000000000004 5.5000000000000009 1.0000000180025095e-35 1.0000000180025095e-35 1.0000000180025095e-35 1.5000000000000002 1.0000000180025095e-35 1.5000000000000002 44.500000000000007 1.5000000000000002 32.500000000000007 2.5000000000000004 8.5000000000000018 1.5000000000000002 2.5000000000000004 1.0000000180025095e-35 37.500000000000007 5.5000000000000009 1.5000000000000002 3.5000000000000004 3.5000000000000004 4.5000000000000009 2.5000000000000004
decision_type=2 2 2 2 2 2 2 2 2 2 2 2 2 2 2 2 2 2 2 2 2 2 2 2 2 2 2 2 2 2
left_child=-1 2 -2 4 5 -3 7 13 10 11 14 -5 -10 -7 17 16 21 24 -19 -12 -21 -6 23 -18 25 26 29 -27 -29 -4
right_child=1 3 8 9 15 6 -8 -9 12 -11 19 -13 -14 -15 -16 -17 22 18 -20 20 -22 -23 -24 -25 -26 27 -28 28 -30 -31
leaf_value=-0.093622453968156744 0.0056963651896965103 0.10122280384285898 0.14753811599645078 -0.010719723006028111 0.10578470426995033 -0.010972214893793443 0.12298042165157881 0.10003177086276072 -0.093705307537414198 0.068503065870989324 0.11764847556322014 0.11324013087503891 0.16829758160996283 0.091910587059940985 -0.01803906245332251 0.11858787730871911 0.048221165269544813 0.11077061151616477 0.022849124988659177 0.05105036718984865 0.072928806109405483 -0.027780581167889413 0.09773379182906837 -0.09184415836834503 0.043853558142015234 0.13590669489825533 0.11302808985069973 -0.0086571196764539393 0.076658472761980068 -0.0025788170625928482
leaf_weight=6207.6182656288147 3461.3163396418095 535.54162672162056 15.771781653165815 192.57249294221401 3261.1562497317791 307.21482394635677 115.32547552883625 78.34791524708271 34.76087187230587 194.49261133372784 74.297010496258736 21.242292076349258 4.6715271174907675 29.012819111347198 56.008553102612495 1742.5793490856886 47.674753874540329 166.91144028306007 89.447440832853317 836.34439547359943 1182.2063293755054 11.133682355284689 60.990713521838188 13.006373733282087 2229.8158194422722 38.294290214776993 187.03022821247578 142.81599277257919 146.93185034394264 73.031226485967636
leaf_count=47851 11943 1980 47 711 13043 1060 423 283 151 696 268 74 14 100 222 7173 161 615 306 2840 4147 39 224 51 7402 117 582 499 484 252
internal_value=0.0174936 0.0624296 0.0355525 0.0979646 0.102211 0.0708859 0.040226 0.0172056 0.055131 0.0334662 0.0560176 0.00159557 -0.062666 -0.00209454 0.0495279 0.108708 0.103636 0.0507526 0.0800935 0.0657733 0.0638639 0.10533 0.0580679 0.0181996 0.0480981 0.0637713 0.0843926 0.046432 0.0346066 0.0240826
internal_weight=21557.6 15349.9 8739.66 6610.29 6201.98 1065.44 529.901 414.576 5278.34 408.307 5238.91 213.815 39.4324 336.228 3146.06 5136.54 3393.96 3090.05 256.359 2092.85 2018.55 3272.29 121.672 60.6811 2833.69 603.875 275.833 328.042 289.748 88.803
internal_count=103758 55907 29889 26018 24537 3846 1866 1443 17946 1481 17781 785 165 1160 10526 20691 13518 10304 921 7255 6987 13082 436 212 9383 1981 881 1100 983 299
is_linear=0
shrinkage=0.1


Tree=12
num_leaves=31
num_cat=0
split_feature=0 3 17 17 17 0 3 16 0 13 8 2 3 17 2 17 3 6 17 0 0 2 17 17 17 3 3 17 17 17
split_gain=9212.13 1355.66 431.835 90.3499 89.5989 90.4241 57.0571 46.8275 30.9623 27.3895 24.766 29.9721 24.0991 35.1388 30.8833 20.1238 27.6765 19.4275 17.6888 16.4452 15.4436 15.2461 14.5309 13.7885 20.074 22.2598 18.4725 41.5548 30.471 44.4488
threshold=-1.0000000180025095e-35 2.5000000000000004 1.5000000000000002 19.500000000000004 16.500000000000004 1.0000000180025095e-35 3.5000000000000004 7.5000000000000009 1.0000000180025095e-35 1.5000000000000002 1.0000000180025095e-35 1.5000000000000002 3.5000000000000004 51.500000000000007 1.5000000000000002 9.5000000000000018 1.5000000000000002 1.0000000180025095e-35 12.500000000000002 1.0000000180025095e-35 1.5000000000000002 1.0000000180025095e-35 62.500000000000007 5.5000000000000009 6.5000000000000009 1.5000000000000002 1.5000000000000002 3.5000000000000004 3.5000000000000004 4.5000000000000009
decision_type=2 2 2 2 2 2 2 2 2 2 2 2 2 2 2 2 2 2 2 2 2 2 2 2 2 2 2 2 2 2
left_child=-1 2 -2 4 -3 6 -6 8 10 -9 11 17 13 14 -5 -10 -17 23 -18 21 -20 22 -14 26 25 -25 27 -4 -28 -30
right_child=1 3 7 12 5 -7 -8 9 15 -11 -12 -13 19 -15 -16 16 18 -19 20 -21 -22 -23 -24 24 -26 -27 28 -29 29 -31
leaf_value=-0.090367757341653948 0.0051231033613274024 0.096305142601398316 0.021909189440395282 0.095662023959771247 -0.0018756191890356281 0.1185807800669294 0.09484166450392828 -0.10843397661677526 0.095624670750381169 0.15887081499720088 0.14225047461327303 -0.030139563206938027 0.095054520286902783 0.040889305924634106 0.0030264152303884472 0.043137742081282716 0.12130057041831639 0.1373942915353096 0.061628035638947677 0.10993850682885227 0.10649071828526868 0.11743033490221806 0.061865623219514998 0.042611831011199794 0.045539957502996206 -0.006476062467760473 0.12861229432640475 0.10579581725097863 -0.0077697536008020755 0.071068946142371997
leaf_weight=5808.8457995429635 3463.6346381008625 508.04030166566372 88.100177407264709 1761.6699703037739 335.08311642706394 108.02156640589237 74.570224657654762 27.114371016621593 155.71015833318233 4.4644445478916159 26.075674891471863 53.039054483175278 910.97216656804085 135.10047572851181 36.73942469060421 739.17807231843472 58.978631526231766 22.926286101341248 1001.2531157284975 1967.2463102042675 83.100758478045464 255.92130264639854 154.25732173025608 203.15681245923042 2033.3042004704475 169.41433566808701 36.511850833892822 179.09983555972576 143.19291940331459 142.856654971838
leaf_count=47851 11943 1980 299 7362 1160 423 283 127 567 14 99 214 3857 551 142 2555 201 73 3635 8517 304 1102 641 672 6921 586 117 579 499 484
internal_value=0.0164303 0.0581255 0.0324442 0.0936044 0.0664707 0.0371916 0.0157301 0.0507569 0.0515034 -0.0706439 0.0452052 0.0443814 0.0989341 0.0900747 0.0937696 0.0610754 0.0582176 0.0456908 0.067967 0.104143 0.0650661 0.0955138 0.0902484 0.0449889 0.0416299 0.0202907 0.0586918 0.078137 0.042584 0.0316033
internal_weight=20687.6 14878.7 8631.11 6247.62 1025.72 517.675 409.653 5167.48 5135.9 31.5788 3097.68 3071.6 5221.91 1933.51 1798.41 2038.22 1882.51 3018.56 1143.33 3288.4 1084.35 1321.15 1065.23 2995.64 2405.88 372.571 589.761 267.2 322.561 286.05
internal_count=103758 55907 29889 26018 3846 1866 1443 17946 17805 141 10543 10444 22172 8055 7504 7262 6695 10230 4140 14117 3939 5600 4498 10157 8179 1258 1978 878 1100 983
is_linear=0
shrinkage=0.1


Tree=13
num_leaves=31
num_cat=0
split_feature=2 17 17 16 2 17 17 2 13 5 17 17 17 2 2 17 2 17 2 17 17 16 17 2 17 17 17 17 17 2
split_gain=7879.99 1114.44 385.551 62.5839 36.3397 37.574 27.6387 29.4607 25.5955 14.5562 10.1249 14.2987 16.4558 16.6742 15.3003 22.9229 14.9255 13.2751 23.5687 11.5045 9.63346 16.8361 8.60204 23.6298 8.59088 8.02787 10.4243 7.80238 16.684 13.6294
threshold=-1.0000000180025095e-35 1.5000000000000002 19.500000000000004 7.5000000000000009 2.5000000000000004 53.500000000000007 27.500000000000004 1.0000000180025095e-35 1.5000000000000002 1.0000000180025095e-35 17.500000000000004 7.5000000000000009 5.5000000000000009 1.0000000180025095e-35 1.0000000180025095e-35 15.500000000000002 1.5000000000000002 18.500000000000004 1.0000000180025095e-35 6.5000000000000009 92.500000000000014 28.500000000000004 82.500000000000014 4.5000000000000009 21.500000000000004 4.5000000000000009 2.5000000000000004 79.500000000000014 122.50000000000001 1.0000000180025095e-35
decision_type=2 2 2 2 2 2 2 2 2 2 2 2 2 2 2 2 2 2 2 2 2 2 2 2 2 2 2 2 2 2
left_child=-1 -2 10 4 6 -6 7 -4 20 27 11 12 25 19 -13 16 -16 18 -12 -14 -5 -22 23 -7 -9 26 -3 -8 29 -29
right_child=1 2 3 8 5 22 9 24 -10 -11 17 14 13 -15 15 -17 -18 -19 -20 -21 21 -23 -24 -25 -26 -27 -28 28 -30 -31
leaf_value=-0.087198097008666528 0.0046079246129245221 0.12143297424085414 0.081470207719632731 -0.13145150961919871 -0.034978745709493352 0.094179036616343761 0.092994472937688255 -0.022356891197852041 0.14190489078258123 0.12376618392106323 0.016321078189782994 0.056045297813043009 0.017889453544338907 0.13441840453337367 -0.031008376730093341 0.086456330267102394 0.10056724915418987 0.052309271935349913 0.11012183190900733 0.042541443621155986 0.11098822249350991 -0.11167813188883986 0.12305772190264326 -0.085464525560341953 0.044051660771413814 0.069065934276439547 0.041231151856488533 0.052557984836258488 0.11773408404061395 0.11007428148038936
leaf_weight=5437.3672616779804 3465.6734365224838 17.042832836508751 1601.1833558529615 16.819745212793354 48.721907034516335 30.093154981732368 3705.4103759378195 23.965677440166473 6.22191597521305 146.58033657073975 323.94398522377014 2779.6264244914055 370.54802961647511 15.756599262356756 64.238099306821823 33.358394235372543 9.9578573405742628 315.23108974099159 29.201669573783875 387.03035056591034 5.811368688941001 8.1691894084215146 27.693582952022552 9.6765659898519498 104.07679751515388 236.25918877124786 330.0710860490799 199.36605174839497 76.675575494766235 51.931682348251343
leaf_count=47851 11943 55 6756 83 201 134 16427 93 23 662 1203 10068 1264 53 228 111 31 1141 98 1313 23 41 114 42 405 829 1122 863 345 236
internal_value=0.0154082 0.0540436 0.0696548 0.0865267 0.0873232 0.0319388 0.0884121 0.0777791 -0.0430927 0.0928109 0.0488326 0.0506343 0.0421667 0.0326013 0.0546133 0.0176056 -0.0133496 0.0373926 0.0240775 0.0304836 -0.0804637 -0.0191213 0.0802666 0.0504691 0.031622 0.0548469 0.045169 0.091686 0.0769024 0.064444
internal_weight=19877.7 14440.3 10974.7 6062.4 6025.38 116.185 5909.19 1729.23 37.0222 4179.96 4912.27 4243.89 1356.71 773.335 2887.18 107.554 74.196 668.377 353.146 757.578 30.8003 13.9806 67.4633 39.7697 128.042 583.373 347.114 4033.38 327.973 251.298
internal_count=103758 55907 43964 26448 26278 491 25787 7254 170 18533 17516 15074 4636 2630 10438 370 259 2442 1301 2577 147 64 290 176 498 2006 1177 17871 1444 1099
is_linear=0
shrinkage=0.1


Tree=14
num_leaves=31
num_cat=0
split_feature=0 3 17 3 17 17 0 17 16 0 8 17 3 0 6 17 17 17 17 0 17 17 0 0 17 17 17 17 17 17
split_gain=6733.18 1168.61 295.804 85.578 46.6081 91.6084 101.221 37.3065 32.4944 25.6786 22.7471 20.5785 19.5448 18.4374 18.4119 16.5963 15.847 27.968 14.1207 13.9981 13.3658 12.2691 14.3763 12.077 11.4941 15.7777 11.415 13.9234 9.74094 11.8454
threshold=-1.0000000180025095e-35 2.5000000000000004 1.5000000000000002 3.5000000000000004 19.500000000000004 16.500000000000004 1.0000000180025095e-35 51.500000000000007 5.5000000000000009 1.0000000180025095e-35 1.0000000180025095e-35 8.5000000000000018 1.5000000000000002 1.0000000180025095e-35 1.0000000180025095e-35 12.500000000000002 12.500000000000002 33.500000000000007 44.500000000000007 1.5000000000000002 107.50000000000001 29.500000000000004 1.5000000000000002 1.0000000180025095e-35 44.500000000000007 32.500000000000007 117.50000000000001 67.500000000000014 9.5000000000000018 15.500000000000002
decision_type=2 2 2 2 2 2 2 2 2 2 2 2 2 2 2 2 2 2 2 2 2 2 2 2 2 2 2 2 2 2
left_child=-1 2 -2 4 5 -3 -7 21 9 10 14 -11 28 -5 16 -14 -4 -18 -19 -17 -20 -6 23 -23 25 -25 27 -9 -13 -30
right_child=1 3 8 13 7 6 -8 26 -10 11 -12 12 15 -15 -16 19 17 18 20 -21 -22 22 -24 24 -26 -27 -28 -29 29 -31
leaf_value=-0.084088865510915892 0.0041448657769496454 0.086112335841863841 0.040305799278049545 0.087785185767672066 0.092931411893570459 -0.0055511525732357299 0.11284751431073642 0.046237749556593995 -0.05321966816367496 0.10745905342611256 0.13586810931722546 0.071839913530504715 0.11113901622205838 0.10350676484676087 0.12830657307812407 0.052518892767274721 0.013577324527244312 0.077214211672204103 0.008461466051330661 0.097445257841262886 0.12993999679531312 0.083742018954728922 0.11446276070321737 0.072796675353182183 0.08414225997170921 0.016064579226991199 0.1234711162818567 -0.025322937243638752 0.026218063729282676 0.054873175161403359
leaf_weight=5092.5717494860291 3467.4698877632618 414.95183080434799 2102.523856267333 1306.5367311835289 933.29555915296078 333.50225855410099 92.160222724080086 74.945104241371155 35.403237581253052 64.510853007435799 23.146922096610069 76.862109750509262 57.299582988023758 1738.5268620997667 21.614215880632401 942.27211935818195 630.65716746449471 124.43683809041977 71.770351320505142 74.863565042614937 10.365339815616606 306.92733055353165 82.319953233003616 89.325981810688972 93.910582661628723 108.64569349586964 11.794010922312735 42.669027626514435 507.66228112578392 201.52688318490982
leaf_count=47851 11943 1762 7281 6098 4344 1160 394 319 165 268 99 287 213 8549 75 3632 2254 503 273 302 41 1413 382 425 427 513 52 180 1823 730
internal_value=0.0144134 0.0501372 0.026538 0.0854024 0.0720192 0.0526772 0.0200834 0.081343 0.0422405 0.0429289 0.0371207 0.051934 0.0500087 0.0967612 0.0363488 0.0587754 0.0356727 0.0240377 0.0559728 0.0558256 0.0237918 0.085484 0.0752795 0.0698929 0.0553299 0.0416624 0.0296813 0.0202764 0.0380256 0.0343608
internal_weight=19134.5 14041.9 8412.39 5629.51 2584.45 840.614 425.662 1743.83 4944.92 4909.51 2984.51 1925 1860.49 3045.06 2961.37 1074.44 2939.75 837.23 206.573 1017.14 82.1357 1614.43 681.13 598.81 291.882 197.972 129.408 117.614 786.051 709.189
internal_count=103758 55907 29889 26018 11371 3316 1554 8055 17946 17781 10526 7255 6987 14647 10427 4147 10352 3071 817 3934 314 7504 3160 2778 1365 938 551 499 2840 2553
is_linear=0
shrinkage=0.1


Tree=15
num_leaves=31
num_cat=0
split_feature=0 0 1 1 1 0 1 2 2 1 5 16 16 13 11 8 1 1 10 1 5 2 16 7 2 2 2 1 5 2
split_gain=5754.81 528.522 70.2373 119.814 86.5006 53.5964 59.337 49.4731 27.804 26.7468 24.1793 21.2363 20.4724 20.3841 17.502 14.8657 9.19639 8.91158 8.8814 8.34524 7.90912 9.75763 10.2469 7.02021 6.60376 6.47053 5.54214 5.37833 5.21441 4.34879
threshold=-1.0000000180025095e-35 1.0000000180025095e-35 4.5000000000000009 1.0000000180025095e-35 1.5000000000000002 1.5000000000000002 3.5000000000000004 1.0000000180025095e-35 2.5000000000000004 1.0000000180025095e-35 1.0000000180025095e-35 5.5000000000000009 1.0000000180025095e-35 1.5000000000000002 1.0000000180025095e-35 1.0000000180025095e-35 1.5000000000000002 9.5000000000000018 1.0000000180025095e-35 9.5000000000000018 1.0000000180025095e-35 1.0000000180025095e-35 1.0000000180025095e-35 1.0000000180025095e-35 1.0000000180025095e-35 1.0000000180025095e-35 1.0000000180025095e-35 10.500000000000002 1.0000000180025095e-35 1.0000000180025095e-35
decision_type=2 2 2 2 2 2 2 2 2 2 2 2 2 2 2 2 2 2 2 2 2 2 2 2 2 2 2 2 2 2
left_child=-1 2 3 8 25 6 9 -6 10 20 11 12 15 -13 -7 18 -11 29 23 26 21 22 -3 24 -2 28 -4 -21 -5 -8
right_child=1 5 19 4 7 14 17 -9 -10 16 -12 13 -14 -15 -16 -17 -18 -19 -20 27 -22 -23 -24 -25 -26 -27 -28 -29 -30 -31
leaf_value=-0.081020914802324817 0.029078564013279989 0.068822821175783838 -0.022190318536071115 0.082205922862738035 0.0068832718680343838 0.10684115883530804 0.0063939271561674164 0.1210720219431813 -0.056888905828146201 0.094350460062114658 0.11974631438191008 -0.094277292200809881 0.096412607438398204 0.14019633045029675 -0.042546900816227723 0.127054377877686 0.068172890160782137 -0.061288111335669831 0.10809328652912642 -0.12206662407850627 0.11935643044127815 0.052092576899879263 0.10289291794116306 0.13591583544676941 0.045969596767064073 0.11491999375270104 0.055925362014646263 -0.043993726915088065 0.11730358069097185 0.072749180043625933
leaf_weight=4773.5400119423866 7611.6775798499584 2590.6576484069228 133.09056422114372 493.30773369967937 254.88473673164845 516.7380638718605 92.28472800552845 44.578093022108078 36.626052334904671 642.11528840661049 30.201011478900909 23.40455594658852 46.711601421236992 4.4056104570627204 7.9634033590555182 15.755007848143576 169.66095362603664 18.839366868138313 14.469734862446783 12.668061971664427 30.228378280997276 343.92594001442194 91.3908761292696 6.2149040997028342 238.72090181708336 84.879363775253296 9.7476149350404722 29.075327962636948 46.303292229771614 11.060611903667448
leaf_count=47851 28482 11564 479 2302 963 2570 356 218 171 3176 156 119 200 17 43 75 762 70 67 55 154 1555 443 23 1019 422 34 119 248 45
internal_value=0.0134899 0.0465374 0.032706 0.0339649 0.0680665 0.074528 0.0705771 0.0238814 0.0300402 0.0727444 0.0304386 0.0300999 0.0304056 -0.0571326 0.104574 0.0300147 0.0888794 0.00196492 0.0298205 -0.0283542 0.0684587 0.0679503 0.0699838 0.0296763 0.0295922 0.0892547 -0.0168595 -0.0676869 0.0852176 0.0134956
internal_weight=18425.1 13651.6 9136.72 8952.14 923.953 4514.87 3990.16 299.463 8028.19 3867.98 7991.56 7961.36 7933.55 27.8102 524.701 7886.84 811.776 122.185 7871.08 184.582 3056.2 3025.97 2682.05 7856.61 7850.4 624.49 142.838 41.7434 539.611 103.345
internal_count=103758 55907 35169 34482 4153 20738 18125 1181 30329 17654 30158 30002 29866 136 2613 29666 3938 471 29591 687 13716 13562 12007 29524 29501 2972 513 174 2550 401
is_linear=0
shrinkage=0.1


Tree=16
num_leaves=31
num_cat=0
split_feature=0 17 1 17 2 17 0 16 1 17 17 2 17 1 0 17 13 0 2 17 17 16 17 0 17 17 17 17 2 17
split_gain=4901.77 913.351 271.972 270.194 65.236 75.4835 55.7271 50.1052 46.4186 43.2468 34.5529 27.953 22.6882 19.3226 24.0464 43.3315 19.0326 18.6564 33.372 18.4561 17.5247 16.9221 16.2314 16.1519 14.3219 13.2449 12.8513 12.2299 10.7174 13.903
threshold=-1.0000000180025095e-35 19.500000000000004 1.5000000000000002 1.5000000000000002 2.5000000000000004 37.500000000000007 1.5000000000000002 11.000000000000002 4.5000000000000009 70.500000000000014 123.50000000000001 1.0000000180025095e-35 24.500000000000004 1.0000000180025095e-35 1.0000000180025095e-35 17.500000000000004 1.5000000000000002 1.0000000180025095e-35 1.0000000180025095e-35 8.5000000000000018 53.500000000000007 5.5000000000000009 18.500000000000004 1.0000000180025095e-35 42.500000000000007 14.500000000000002 22.500000000000004 26.500000000000004 5.5000000000000009 79.500000000000014
decision_type=2 2 2 2 2 2 2 2 2 2 2 2 2 2 2 2 2 2 2 2 2 2 2 2 2 2 2 2 2 2
left_child=-1 3 4 -2 5 11 8 -7 9 17 24 21 -13 14 15 -5 -9 18 26 -16 -6 27 -17 -15 -10 -21 -4 -3 -22 -30
right_child=1 2 6 13 20 7 -8 16 10 -11 -12 12 -14 23 19 22 -18 -19 -20 25 28 -23 -24 -25 -26 -27 -28 -29 29 -31
leaf_value=-0.077979725685630469 0.00081388513683178861 0.072938114284279723 0.068887137477089924 0.03538669042561314 -0.039786898458445644 0.10503945602346171 0.10710871026123819 -0.10713575438506562 0.055018460750785848 0.11115727905424588 0.10741155051340395 -0.0025533332931263549 0.063578961364363237 0.080257149667676261 0.1016596176709484 -0.023883465987483872 0.13269412175962603 0.047738963207064576 0.12020792587794377 0.035263641090870455 0.068517216040493781 -0.074755207531980561 0.020709429856920182 0.025073411460952062 -0.03495662646050806 0.05577957026310526 -0.015776008752401021 0.087353876938169442 -0.16774869621832264 0.069619250720536208
leaf_weight=4479.1421097666025 3479.3694231510162 1181.3976592570543 19.709112226963043 2712.2613621205091 47.077445521950722 1703.7697170898318 70.535594150424004 15.414345979690554 19.115624383091927 62.005252197384834 20.256673976778984 72.41003854572773 182.94203440845013 183.39445392787457 59.811692178249359 175.09237691760063 4.2134562730789176 161.34727139770985 22.335453823208809 676.10711593925953 39.778646692633629 7.0761753320693961 152.9086546599865 74.620971575379372 237.40288282930851 588.64788524806499 198.51441629230976 1172.6496812477708 4.8868878036737424 4.9842343628406525
leaf_count=47851 11943 5744 67 9979 200 9427 359 87 64 320 100 290 890 748 278 630 19 722 113 2598 207 32 537 311 879 2435 748 6136 22 22
internal_value=0.0125424 0.042914 0.0754144 0.0218633 0.085149 0.0869593 0.0221757 0.103209 0.0140875 0.0334239 -0.0183228 0.0762559 0.0448259 0.0377061 0.0361342 0.0312351 -0.055652 0.0214313 0.00378634 0.0473792 0.00392533 0.0796551 -0.003095 0.0642974 -0.0282517 0.0448123 -0.00812956 0.0801192 0.0453729 -0.0478943
internal_weight=17829.2 13350 5247.82 8102.21 4436.6 4339.87 811.222 1723.4 740.687 463.912 276.775 2616.48 255.352 4622.84 4364.83 3040.26 19.6278 401.906 240.559 1324.57 96.7272 2361.12 328.001 258.015 256.519 1264.76 218.224 2354.05 49.6498 9.87112
internal_count=103758 55907 26448 29459 23076 22625 3372 9533 3013 1970 1043 13092 1180 17516 16457 11146 106 1650 928 5311 451 11912 1167 1059 943 5033 815 11880 251 44
is_linear=0
shrinkage=0.1


Tree=17
num_leaves=31
num_cat=0
split_feature=2 3 17 3 17 17 17 2 8 16 6 2 17 17 17 17 17 17 2 17 17 2 3 3 17 17 17 17 17 17
split_gain=4185.8 1004.42 187.385 82.7183 38.1871 83.6967 32.1891 29.1222 24.9225 26.2057 18.0214 12.5007 19.1201 20.265 12.9044 16.9662 13.3903 11.3874 10.8976 10.1794 47.8186 15.0361 21.8161 11.5805 10.0955 10.0909 9.72075 9.71779 10.0859 8.89786
threshold=-1.0000000180025095e-35 2.5000000000000004 1.5000000000000002 3.5000000000000004 19.500000000000004 16.500000000000004 51.500000000000007 1.5000000000000002 1.0000000180025095e-35 7.5000000000000009 1.0000000180025095e-35 1.0000000180025095e-35 7.5000000000000009 65.500000000000014 27.500000000000004 25.500000000000004 23.500000000000004 44.500000000000007 5.5000000000000009 18.500000000000004 15.500000000000002 1.5000000000000002 1.5000000000000002 1.5000000000000002 24.500000000000004 127.50000000000001 2.5000000000000004 117.50000000000001 67.500000000000014 17.500000000000004
decision_type=2 2 2 2 2 2 2 2 2 2 2 2 2 2 2 2 2 2 2 2 2 2 2 2 2 2 2 2 2 2
left_child=-1 2 -2 4 5 -3 7 -6 9 10 11 14 -13 19 15 16 26 -16 -5 20 21 22 -14 24 -21 -11 -4 28 -8 -7
right_child=1 3 8 18 6 29 27 -9 -10 25 -12 12 13 -15 17 -17 -18 -19 -20 23 -22 -23 -24 -25 -26 -27 -28 -29 -30 -31
leaf_value=-0.074954887023436098 0.00073244219088339582 0.078113167320934707 0.10983980513548804 0.088331246209990139 0.077713908644183732 0.037375209603580144 0.036017130046921884 -0.017386497440539217 0.13033853856307276 -0.11213879131834688 0.11933158757193472 0.12390728862896745 -0.10453283129097085 0.12987673061180349 0.062341604011394783 -0.01877291603087676 0.067762435706020793 0.022766151656173905 -0.062797412264583463 -0.018195635347741223 0.10247961978276582 0.086891582083197694 0.019049327363675546 -0.031787895044560345 0.082436357190839152 0.039847349890732978 0.030301523264108718 0.11746393938053533 -0.027019976100073603 0.0038933767646667332
leaf_weight=4208.1133691519499 3479.6375395953655 375.52869507670403 15.428931802511213 2564.8713333979249 1362.1574961319566 107.79440121352673 68.431818231940269 32.979939252138138 25.333523079752922 17.656894683837894 23.20031276345253 14.339234992861746 32.128593370318413 12.537956312298773 247.89437314867973 68.074931055307388 99.684131100773811 102.88044345378876 4.7802077382802954 20.662704542279243 45.187710076570511 9.3815299570560438 25.719477415084839 120.45803026854992 19.26293608546257 5.8044242262840262 3738.9433649480343 9.6258752644062024 40.346645459532738 301.02403232455254
leaf_count=47851 11943 1762 55 14623 7362 416 319 142 124 106 88 56 122 47 1093 287 397 420 24 77 166 31 87 511 77 26 14176 52 180 1138
internal_value=0.0117247 0.0398008 0.0182786 0.0757227 0.0619373 0.0440297 0.0712173 0.0754658 0.0314239 0.0308814 0.0314196 0.0309735 0.0112302 0.00556783 0.0323582 0.0307147 0.0315889 0.0507343 0.0880501 -0.00014542 0.0229274 -0.0305428 -0.0495877 -0.0163178 0.0303563 -0.0745368 0.0306284 0.0211584 0.0126363 0.0127216
internal_weight=17199.9 12991.8 8124.22 4867.54 2297.89 784.347 1513.54 1395.14 4644.58 4619.25 4595.78 4572.58 299.678 285.339 4272.91 3922.13 3854.06 350.775 2569.65 272.801 112.417 67.2296 57.8481 160.384 39.9256 23.4613 3754.37 118.404 108.778 408.818
internal_count=103758 55907 29889 26018 11371 3316 8055 7504 17946 17822 17690 17602 1174 1118 16428 14915 14628 1513 14647 1071 406 240 209 665 154 132 14231 551 499 1554
is_linear=0
shrinkage=0.1


Tree=18
num_leaves=31
num_cat=0
split_feature=0 3 1 17 17 17 0 17 3 3 1 0 2 6 16 2 1 1 17 2 3 0 17 1 3 1 0 17 1 17
split_gain=3568.06 900.672 215.424 156.097 107.903 70.1396 72.8663 38.8932 38.0772 36.4851 34.6829 28.8793 21.7817 21.0233 25.9282 19.7393 19.5034 18.0929 34.0883 21.6636 17.9396 17.7452 19.1867 17.0611 16.2969 16.1984 14.7568 30.6706 25.5264 21.4366
threshold=-1.0000000180025095e-35 2.5000000000000004 2.5000000000000004 1.5000000000000002 19.500000000000004 16.500000000000004 1.0000000180025095e-35 44.500000000000007 3.5000000000000004 6.5000000000000009 1.5000000000000002 1.5000000000000002 4.5000000000000009 1.0000000180025095e-35 7.5000000000000009 1.5000000000000002 1.0000000180025095e-35 4.5000000000000009 29.500000000000004 2.5000000000000004 1.5000000000000002 1.0000000180025095e-35 33.500000000000007 1.5000000000000002 4.5000000000000009 7.5000000000000009 1.0000000180025095e-35 12.500000000000002 1.0000000180025095e-35 26.500000000000004
decision_type=2 2 2 2 2 2 2 2 2 2 2 2 2 2 2 2 2 2 2 2 2 2 2 2 2 2 2 2 2 2
left_child=-1 3 4 -2 5 -3 8 10 16 11 15 -4 -9 14 17 -6 -7 18 26 23 -19 22 -12 -20 -24 -11 27 -5 -29 -30
right_child=1 2 9 13 7 6 -8 12 -10 25 21 -13 -14 -15 -16 -17 -18 20 19 -21 -22 -23 24 -25 -26 -27 -28 28 29 -31
leaf_value=-0.071939649065474606 0.00065914169930312953 0.077652028779351456 -0.024534615082792484 0.028359249127711528 0.082802057892453915 -0.017735258386325916 0.10576407818642482 0.10297187085287529 0.075904414568509868 0.096861705818754223 0.028188465966338724 0.1037238013451016 -0.054997897766405325 0.11773568021748004 -0.082097969603654702 0.015841547618649841 0.074053702194715118 0.059091607354322229 0.081303412641121661 -0.025688207067429761 -0.048726300330186711 0.067272586038940804 -0.16621692978933345 0.018788145111782593 0.021544594731066423 -0.03965775426583238 0.034805306629827941 -0.01083751031721583 0.051077691753379943 -0.062341235484288438
leaf_weight=3959.1113349124789 3479.8779524862766 400.91828802227974 281.42122197151184 1990.1372943073511 2146.6299809291959 303.95056676864624 83.114113464951515 1096.8600581288338 59.957388758659363 45.876433849334717 31.977964997291565 18.723579987883568 8.7986115962266904 26.405565112829208 21.194568708539009 44.946354277431965 25.057258620858192 21.269697964191437 231.26301145553589 26.096450969576836 56.230801656842232 42.7574063539505 12.532692283391954 53.813289165496826 7.3241909444332114 10.722692281007765 1577.6718570590019 415.42586566507816 133.84004202485085 19.03409406542778
leaf_count=47851 11943 1980 1095 7281 12867 1060 423 7131 283 240 126 99 42 107 127 215 100 73 1121 117 211 224 56 220 30 47 6574 1521 525 69
internal_value=0.0109283 0.036815 0.0720029 0.016619 0.0782471 0.0468943 0.0207729 0.0863168 0.00261199 -0.00264629 0.0788699 -0.0165336 0.101715 0.0287654 0.0282486 0.0814288 -0.0107446 0.0287655 0.0296003 0.0615194 -0.0191361 0.0195837 -0.0197539 0.0695025 -0.0969613 0.0709981 0.0271989 0.0225084 0.00201909 0.0369561
internal_weight=16632.9 12673.8 4621.57 8052.26 4264.82 872.998 472.079 3391.83 388.965 356.744 2286.17 300.145 1105.66 4572.38 4545.98 2191.58 329.008 4524.78 4447.28 311.173 77.5005 94.5923 51.8348 285.076 19.8569 56.5991 4136.11 2558.44 568.3 152.874
internal_count=103758 55907 26018 29889 24537 3846 1866 20691 1443 1481 13518 1194 7173 17946 17839 13082 1160 17712 17428 1458 284 436 212 1341 86 287 15970 9396 2115 594
is_linear=0
shrinkage=0.1


Tree=19
num_leaves=31
num_cat=0
split_feature=0 3 1 17 17 17 0 17 3 17 1 8 0 1 17 16 1 0 0 17 6 1 17 3 0 17 17 3 17 1
split_gain=3041.2 812.18 194.468 130 103.289 62.3821 64.9002 39.674 32.3925 32.3671 32.101 22.7099 21.5463 18.9461 23.9924 18.4894 16.3094 16.2643 15.0598 15.0517 14.073 15.1071 26.5947 15.4147 12.793 26.5265 21.3404 19.4182 19.7415 15.5754
threshold=-1.0000000180025095e-35 2.5000000000000004 2.5000000000000004 1.5000000000000002 19.500000000000004 16.500000000000004 1.0000000180025095e-35 44.500000000000007 3.5000000000000004 123.50000000000001 1.5000000000000002 1.0000000180025095e-35 1.5000000000000002 6.5000000000000009 80.500000000000014 7.5000000000000009 1.0000000180025095e-35 1.5000000000000002 1.0000000180025095e-35 37.500000000000007 1.0000000180025095e-35 4.5000000000000009 37.500000000000007 1.5000000000000002 1.0000000180025095e-35 12.500000000000002 9.5000000000000018 1.5000000000000002 12.500000000000002 1.0000000180025095e-35
decision_type=2 2 2 2 2 2 2 2 2 2 2 2 2 2 2 2 2 2 2 2 2 2 2 2 2 2 2 2 2 2
left_child=-1 3 4 -2 5 -3 8 10 16 12 -6 15 13 14 -4 17 -7 20 19 -12 21 22 24 -23 25 -5 -26 -28 -29 -27
right_child=1 2 9 11 7 6 -8 -9 -10 -11 18 -13 -14 -15 -16 -17 -18 -19 -20 -21 -22 23 -24 -25 26 29 27 28 -30 -31
leaf_value=-0.068930449967439342 0.00059319467685492054 0.073847418383285165 -0.012651231731415259 0.025850404888009333 0.078127508950747868 -0.015951426116044113 0.10285381185818579 0.099456710178853436 0.071928765032674105 0.10307081793027283 0.0120495766676422 0.12687721102638602 0.10534184023369597 -0.054053004073753998 0.089836459471900498 -0.066934281376782742 0.069589250788096219 0.068530873339976095 0.063598398561848096 -0.11506067964074057 0.11045481539911216 0.054328810051204615 0.069670991335027049 -0.046495498916485967 0.071989258219713456 -0.0070374096014412125 0.014643992341437713 0.10225615762337369 0.034493616717711652 0.028648888376742621
leaf_weight=3730.7603842318058 3480.0935497581959 380.49376945197582 191.44705982506275 1966.2628453075886 2062.6221473813057 304.13634334504604 77.223839782178402 1022.0729753747582 57.09559865295887 26.915386728942394 40.103844493627548 22.351336047053337 15.176446110010145 94.513337418437004 25.936301201581955 21.384973600506783 24.051763921976089 89.252462238073349 40.808274239301682 12.134665966033934 19.37087070941925 20.843864932656288 133.96006010472775 55.643776893615723 120.695143699646 466.96582117676735 606.29872995615005 45.54449450969696 767.49445199966431 165.70221111178398
leaf_count=47851 11943 1980 740 7281 13082 1060 423 7173 283 172 161 124 84 367 118 132 100 422 224 51 83 73 643 208 560 1775 2405 198 3384 658
internal_value=0.0101976 0.0340883 0.0687184 0.0151082 0.0749743 0.0438557 0.0191822 0.0832295 0.0024116 -0.00233861 0.0755357 0.026329 -0.0110129 -0.0166746 -0.000423287 0.0258272 -0.00968245 0.0262722 0.0180807 -0.0174773 0.0254089 0.0250301 0.0258186 -0.0190196 0.0243993 0.0201197 0.0316216 0.0281889 0.0382895 0.0023092
internal_weight=16087.4 12356.6 4374.73 7981.86 4020.74 843.001 462.508 3177.74 385.284 353.989 2155.67 4501.77 327.073 311.897 217.383 4479.42 328.188 4458.03 93.0468 52.2385 4368.78 4349.41 4272.92 76.4876 4138.96 2598.93 1540.03 1419.34 813.039 632.668
internal_count=103758 55907 26018 29889 24537 3846 1866 20691 1443 1481 13518 17946 1309 1225 858 17822 1160 17690 436 212 17268 17185 16904 281 16261 9714 6547 5987 3582 2433
is_linear=0
shrinkage=0.1


Tree=20
num_leaves=31
num_cat=0
split_feature=0 3 1 3 0 3 0 2 8 0 16 3 2 2 1 1 1 5 1 1 3 1 1 0 3 2 3 1 1 1
split_gain=2588.53 729.806 174.348 92.3778 60.0769 28.3469 25.7431 36.5768 23.7318 21.2888 20.397 20.2296 22.7455 19.0501 15.1142 14.4785 14.1591 14.0162 13.4463 12.2662 12.1405 13.275 11.6079 11.0616 10.8396 9.85478 9.25224 9.13926 8.88627 8.34394
threshold=-1.0000000180025095e-35 2.5000000000000004 2.5000000000000004 3.5000000000000004 1.0000000180025095e-35 6.5000000000000009 1.0000000180025095e-35 1.0000000180025095e-35 1.0000000180025095e-35 1.5000000000000002 1.5000000000000002 1.5000000000000002 1.5000000000000002 5.5000000000000009 1.0000000180025095e-35 6.5000000000000009 8.5000000000000018 1.0000000180025095e-35 7.5000000000000009 1.5000000000000002 4.5000000000000009 3.5000000000000004 1.0000000180025095e-35 2.5000000000000004 3.5000000000000004 1.0000000180025095e-35 1.5000000000000002 10.500000000000002 1.5000000000000002 1.5000000000000002
decision_type=2 2 2 2 2 2 2 2 2 2 2 2 2 2 2 2 2 2 2 2 2 2 2 2 2 2 2 2 2 2
left_child=-1 4 3 6 8 9 19 -8 10 17 11 14 16 29 -2 23 -13 20 -7 -3 24 -22 -14 26 27 -23 -6 -4 -28 -5
right_child=1 2 5 13 15 18 7 -9 -10 -11 -12 12 22 -15 -16 -17 -18 -19 -20 -21 21 25 -24 -25 -26 -27 28 -29 -30 -31
leaf_value=-0.065926603237371845 0.0049810948053887931 0.048514259841059865 -0.020334094532519002 0.089435626526126022 0.022174428649236536 0.091713182872931828 0.078725774256850414 0.0050574801422583228 0.12560006997457315 0.097581085458495892 -0.077573866269836922 0.021075578066299658 -0.071493790239034946 -0.16069581136271469 0.049150753523445861 -0.097341412456925513 -0.097923783464035755 0.13500414767359264 -0.034982379747760681 -0.020216132740135159 0.015729473545160768 -0.086797692181037236 0.094155797846537603 0.10876124085301514 0.020411192623069285 0.062737035094844976 0.039280059758584826 -0.12473828525038473 -0.012410430343118915 0.06252733167229356
leaf_weight=3521.6845452859998 4413.3212370425463 1146.4796784669161 105.04114869236946 1778.0158012360334 741.37679974734783 41.430644832551479 642.6419729590416 75.294056445360184 17.476810276508331 16.17640196532011 27.153286904096603 1664.8299072086811 38.340887010097504 3.0927375406026831 78.854815721511841 8.7957792133092862 10.059207051992415 5.6871013641357413 10.499815076589583 26.568266034126282 20.589295834302902 61.858089834451675 4.7549518495798102 18.231516152620316 74.285644054412842 4.7452865093946448 860.05960660427809 9.1117657423019391 34.595961913466454 123.2254685536027
leaf_count=47851 15411 6130 391 12818 3061 240 4242 441 108 99 163 6373 171 15 334 34 43 24 47 103 88 247 19 95 279 24 3922 42 155 788
internal_value=0.0095007 0.0315218 0.0655186 0.0717417 0.0137255 -0.00207512 0.0560855 0.0709998 0.00923395 -0.0139751 0.0089079 0.00928603 0.0185152 0.0872882 0.00575644 0.0306183 0.0203609 -0.0203898 0.0660966 0.0469576 -0.0235961 -0.0544492 -0.0532169 0.0312987 -0.00931998 -0.0761438 0.0304355 -0.0286677 0.0372812 0.0876916
internal_weight=15584.3 12062.6 4144.74 3795.32 7917.85 349.425 1890.98 717.936 6254.79 297.495 6237.31 6210.16 1717.98 1904.33 4492.18 1663.06 1674.89 281.318 51.9305 1173.05 275.631 87.1927 43.0958 1654.26 188.439 66.6034 1636.03 114.153 894.656 1901.24
internal_count=103758 55907 26018 24537 29889 1481 10916 4683 22622 1194 22514 22351 6606 13621 15745 7267 6416 1095 287 6233 1071 359 190 7233 712 271 7138 433 4077 13606
is_linear=0
shrinkage=0.1


Tree=21
num_leaves=31
num_cat=0
split_feature=0 3 1 3 0 0 2 0 6 3 2 1 11 3 2 1 1 1 5 1 1 0 3 1 3 1 3 3 1 1
split_gain=2197.88 649.354 154.697 92.2501 50.4918 25.1275 33.6208 25.0969 22.381 19.1656 15.8522 15.0792 13.8409 13.7676 18.9641 19.6925 29.0649 13.8984 12.0479 11.6902 10.3636 10.1909 9.89929 10.7776 8.79895 8.705 11.5787 8.00047 7.9596 7.49641
threshold=-1.0000000180025095e-35 2.5000000000000004 2.5000000000000004 3.5000000000000004 1.0000000180025095e-35 1.0000000180025095e-35 1.0000000180025095e-35 1.5000000000000002 1.0000000180025095e-35 6.5000000000000009 5.5000000000000009 7.5000000000000009 1.0000000180025095e-35 1.5000000000000002 1.5000000000000002 1.5000000000000002 1.0000000180025095e-35 5.5000000000000009 1.0000000180025095e-35 6.5000000000000009 1.5000000000000002 2.5000000000000004 4.5000000000000009 3.5000000000000004 3.5000000000000004 1.5000000000000002 5.5000000000000009 1.5000000000000002 10.500000000000002 1.5000000000000002
decision_type=2 2 2 2 2 2 2 2 2 2 2 2 2 2 2 2 2 2 2 2 2 2 2 2 2 2 2 2 2 2
left_child=-1 4 3 5 8 20 -7 9 13 18 12 -11 25 17 15 16 -15 -2 22 21 -3 27 24 -24 28 -5 -27 -6 -4 -29
right_child=1 2 7 10 19 6 -8 -9 -10 11 -12 -13 -14 14 -16 -17 -18 -19 -20 -21 -22 -23 23 -25 -26 26 -28 29 -30 -31
leaf_value=-0.062929973570418143 0.0047839106485817939 0.044902306197314286 -0.018231946589405783 0.087175511163950725 0.020204632344949392 0.075538651068129195 0.0045684828514716827 0.100169754989239 0.11403260988282227 0.084385241482551276 -0.13258960081382973 -0.064163276108133369 -0.112411420805901 0.016673372589000781 -0.045931064357596321 -0.02340518505051381 0.072016322321305157 0.1083378421362996 0.13097009165314374 -0.085651725310301435 -0.018034046903794201 0.10594383273643003 0.014279844070246395 -0.068801202323311106 0.018453651694365761 0.030550167114372129 0.093554515989645315 0.036255690750773693 -0.11768155095527216 -0.011090975155381468
leaf_weight=3330.5312527194619 4474.3135487437248 1116.457053206861 105.41612420976162 1652.5810831859708 732.76236449182034 604.76749584078789 75.032483324408531 22.540506184101105 19.972013577818871 33.418446213006973 3.3573811501264563 8.5899393260478956 3.5477677881717673 1465.35154017061 48.687189012765884 110.58635491132736 101.46600724756718 12.998490586876867 5.2961674034595481 8.9855136722326261 26.792110562324524 16.912811547517776 20.420767813920975 66.335555255413055 73.966745302081108 64.51824001967907 53.237381547689438 839.72569096088409 8.7131475657224637 34.827594056725502
leaf_count=47851 15687 6130 391 12792 3061 4242 441 156 92 195 15 35 26 5694 229 417 458 45 24 34 103 95 88 271 279 392 396 3922 42 155
internal_value=0.00881736 0.0290481 0.0621579 0.0682852 0.0124439 0.0524804 0.0677054 -0.00184028 0.00834306 -0.00897767 0.0844974 0.0540098 0.0849083 0.00800334 0.015593 0.0173788 0.0202573 0.00508388 -0.0184227 0.0280955 0.0434274 0.0287248 -0.0213013 -0.0492455 -0.00841252 0.0853037 0.0590345 0.0279122 -0.0258244 0.0343702
internal_weight=15142.1 11811.6 3944.99 3600.29 7866.59 1823.05 679.8 344.697 6233.38 322.157 1777.24 42.0084 1773.88 6213.4 1726.09 1677.4 1566.82 4487.31 280.149 1633.21 1143.25 1624.23 274.852 86.7563 188.096 1770.34 117.756 1607.32 114.129 874.553
internal_count=103758 55907 26018 24537 29889 10916 4683 1481 22622 1325 13621 230 13606 22530 6798 6569 6152 15732 1095 7267 6233 7233 1071 359 712 13580 788 7138 433 4077
is_linear=0
shrinkage=0.1


Tree=22
num_leaves=31
num_cat=0
split_feature=0 3 1 17 17 17 0 17 1 3 17 8 1 0 16 0 1 3 17 17 17 1 17 0 17 3 17 17 7 3
split_gain=1863.28 575.448 136.941 107.763 86.2327 62.7463 59.2312 44.4256 28.9059 24.721 23.9921 19.5882 14.5177 14.2439 12.4447 12.1952 11.8985 15.1258 13.9546 15.6985 10.9045 11.1587 12.5932 10.7968 13.8269 10.1479 9.53389 9.50818 9.3606 9.32526
threshold=-1.0000000180025095e-35 2.5000000000000004 2.5000000000000004 19.500000000000004 1.5000000000000002 16.500000000000004 1.0000000180025095e-35 44.500000000000007 1.5000000000000002 3.5000000000000004 123.50000000000001 1.0000000180025095e-35 1.0000000180025095e-35 1.5000000000000002 7.5000000000000009 1.5000000000000002 4.5000000000000009 4.5000000000000009 69.500000000000014 63.500000000000007 103.50000000000001 9.5000000000000018 73.500000000000014 1.0000000180025095e-35 33.500000000000007 4.5000000000000009 127.50000000000001 2.5000000000000004 1.0000000180025095e-35 5.5000000000000009
decision_type=2 2 2 2 2 2 2 2 2 2 2 2 2 2 2 2 2 2 2 2 2 2 2 2 2 2 2 2 2 2
left_child=-1 4 3 5 -2 -3 9 8 -5 12 13 14 -7 16 15 20 18 -18 19 29 21 22 27 24 -10 -26 -16 -6 -29 -4
right_child=1 2 10 7 11 6 -8 -9 23 -11 -12 -13 -14 -15 26 -17 17 -19 -20 -21 -22 -23 -24 -25 25 -27 -28 28 -30 -31
leaf_value=-0.059944595720866724 -0.00044270748980103082 0.064606236568231057 -0.0065418466091773002 0.068564389648160542 0.1015646651097802 -0.023773453426833666 0.096040201899565192 0.093698532860679529 0.022512633686130618 0.058559221917422688 0.098463493427264431 0.12284546670511472 0.060380521096697275 0.097376407681184496 -0.10133565641374385 0.059220958504484791 -0.0083974891855747701 -0.070879816630577144 0.10170317881121148 -0.14597081209839774 0.10848970612900538 -0.07754905100848157 0.11396663208806133 0.051961100437523923 -0.13390277059383893 0.014368200635712465 0.054830348697781188 0.019050482743267358 0.12834214998753446 0.067048157139936115
leaf_weight=3155.9879577457905 3483.383829087019 334.60690969228745 93.962380692362785 1735.2229732125998 14.082410365343092 303.00877705216408 63.894691623747349 826.90579707920551 30.777480110526085 48.349998839199543 22.37344066798687 18.68725349009037 21.987344011664391 12.1798720061779 14.396465212106706 80.258736908435822 108.82095496356487 60.164819404482841 14.524103745818136 7.1296793222427359 13.839867919683455 11.794977456331251 14.169731453061102 35.273898422718048 13.554678931832315 6.9996955543756476 5.3665375709533683 4157.6542878299952 7.8514357507228842 21.083353355526924
leaf_count=47851 11943 1980 363 13082 55 1060 423 7173 126 283 172 124 100 84 106 422 404 241 90 36 70 50 62 224 56 30 26 16998 33 91
internal_value=0.0081708 0.0267311 0.0588758 0.064894 0.0112749 0.0320135 0.00707125 0.0744754 0.0657503 -0.00815495 -0.00162815 0.0206839 -0.0180801 -0.00867326 0.0202419 0.0206058 -0.0128988 -0.0306434 0.00903686 -0.00197922 0.0198713 0.0195797 0.0198529 0.00936793 -0.019901 -0.0834098 -0.0589296 0.0195338 0.0192565 0.0069443
internal_weight=14738.3 11582.3 3760.82 3420.58 7821.49 771.848 437.241 2648.73 1821.83 373.346 340.239 4338.1 324.996 317.865 4319.41 4299.65 305.685 168.986 136.7 122.175 4219.39 4205.55 4193.76 86.6058 51.3319 20.5544 19.763 4179.59 4165.51 115.046
internal_count=103758 55907 26018 24537 29889 3846 1866 20691 13518 1443 1481 17946 1160 1309 17822 17690 1225 645 580 490 17268 17198 17148 436 212 86 132 17086 17031 454
is_linear=0
shrinkage=0.1


Tree=23
num_leaves=31
num_cat=0
split_feature=0 3 1 17 17 17 0 17 1 2 2 17 3 8 17 3 5 2 17 0 1 0 1 1 17 17 17 17 17 17
split_gain=1578.37 511.209 121.787 100.077 71.1323 54.6092 52.0156 44.5218 26.16 23.654 22.1105 21.0336 20.6723 17.972 13.5324 13.9714 12.5309 13.4565 18.7206 19.2525 20.6429 12.3545 12.0134 11.9328 17.8589 11.7368 11.4408 11.295 14.2636 13.3417
threshold=-1.0000000180025095e-35 2.5000000000000004 2.5000000000000004 19.500000000000004 1.5000000000000002 16.500000000000004 1.0000000180025095e-35 44.500000000000007 1.5000000000000002 3.5000000000000004 1.5000000000000002 123.50000000000001 3.5000000000000004 1.0000000180025095e-35 34.500000000000007 3.5000000000000004 1.0000000180025095e-35 1.0000000180025095e-35 7.5000000000000009 1.0000000180025095e-35 1.0000000180025095e-35 1.5000000000000002 1.0000000180025095e-35 9.5000000000000018 73.500000000000014 39.500000000000007 71.500000000000014 18.500000000000004 24.500000000000004 15.500000000000002
decision_type=2 2 2 2 2 2 2 2 2 2 2 2 2 2 2 2 2 2 2 2 2 2 2 2 2 2 2 2 2 2
left_child=-1 4 3 5 -2 -3 12 8 10 -9 -5 21 22 16 -12 25 17 23 -19 20 -20 -4 -7 24 -6 -16 -25 29 -29 -21
right_child=1 2 11 7 13 6 -8 9 -10 -11 14 -13 -14 -15 15 -17 -18 18 19 27 -22 -23 -24 26 -26 -27 -28 28 -30 -31
leaf_value=-0.056976359505102318 -0.00039844866455439662 0.061135736959440294 -0.011641616412796792 0.067174484304047266 0.01948341989475524 -0.021363826933071935 0.093497719342672106 0.094156395509434693 0.0086397760319250876 -0.027138251500787604 0.059174764049018815 0.096280932398767061 0.055117495006506145 0.12098283633810165 -0.22572902421472021 0.02639631794369382 0.12525151572826032 0.11678617496123496 -0.049275976793074217 -0.011352127946736347 0.070945778128317871 0.094846661558723941 0.056539835558027086 0.039098649619290951 0.11265881157704356 -0.027384915754354529 -0.15751104777535396 -0.046162634347805577 0.032130582088720473 0.10200984358631898
leaf_weight=2996.7960924208164 3483.246889680624 319.0663323327899 303.99850076436996 1604.269311055541 3941.7919878661633 303.44183813035488 59.306569837033749 748.44951818138361 85.484988711774349 16.430583469569683 16.384889051318169 20.679974876344204 46.339449249207973 17.155919201672077 6.4262776821851748 10.003665909171103 10.952780917286871 12.535576567053793 119.75668580830097 16.581873327493668 16.216503649950027 11.299814127385615 21.176198959350586 4.9437956809997541 20.678757712244987 5.568677544593811 7.3746736645698547 40.79213060438633 54.168573260307312 27.766429051756859
leaf_count=47851 11943 1980 1225 12867 16367 1060 423 7064 436 109 85 172 283 124 34 70 52 56 513 64 76 84 100 17 109 26 37 168 240 123
internal_value=0.00757493 0.0246153 0.0558933 0.0618319 0.0102181 0.0297868 0.00653962 0.0714638 0.0625732 0.0915508 0.0653799 -0.00141734 -0.00736275 0.0188368 -0.00962557 -0.0608691 0.0184267 0.0181522 -0.00272759 -0.00816991 -0.034938 -0.00782524 -0.0162818 0.0196642 0.0199697 -0.133647 -0.0786053 0.0179572 -0.00150172 0.0596237
internal_weight=14349.1 11352.3 3578.33 3242.35 7773.96 749.33 430.264 2493.02 1728.14 764.88 1642.65 335.978 370.957 4290.72 38.3835 21.9986 4273.56 4262.61 287.818 275.282 135.973 315.298 324.618 3974.79 3962.47 11.995 12.3185 139.309 94.9607 44.3483
internal_count=103758 55907 26018 24537 29889 3846 1866 20691 13518 7173 13082 1481 1443 17946 215 130 17822 17770 1240 1184 589 1309 1160 16530 16476 60 54 595 408 187
is_linear=0
shrinkage=0.1


Tree=24
num_leaves=31
num_cat=0
split_feature=0 3 1 17 17 17 0 17 1 17 3 6 16 17 1 17 17 0 3 16 1 0 17 17 3 17 17 17 17 17
split_gain=1334.81 451.627 108.774 92.599 58.6791 47.395 45.6761 44.4984 23.9085 18.4464 17.273 15.9127 14.5204 14.8469 11.7817 18.2938 13.7674 11.6638 11.4959 10.8542 9.94018 9.09752 10.8907 8.90145 19.8598 44.6247 30.9318 40.0906 22.6932 17.8311
threshold=-1.0000000180025095e-35 2.5000000000000004 2.5000000000000004 19.500000000000004 1.5000000000000002 16.500000000000004 1.0000000180025095e-35 44.500000000000007 1.5000000000000002 123.50000000000001 3.5000000000000004 1.0000000180025095e-35 19.000000000000004 103.50000000000001 4.5000000000000009 27.500000000000004 25.500000000000004 1.0000000180025095e-35 1.5000000000000002 7.5000000000000009 1.0000000180025095e-35 1.0000000180025095e-35 33.500000000000007 5.5000000000000009 1.5000000000000002 3.5000000000000004 3.5000000000000004 4.5000000000000009 2.5000000000000004 4.5000000000000009
decision_type=2 2 2 2 2 2 2 2 2 2 2 2 2 2 2 2 2 2 2 2 2 2 2 2 2 2 2 2 2 2
left_child=-1 4 3 5 -2 -3 10 8 -5 17 20 12 13 14 15 16 23 -4 -16 -17 -7 22 -10 24 25 28 -26 -28 -6 -27
right_child=1 2 9 7 11 6 -8 -9 21 -11 -12 -13 -14 -15 18 19 -18 -19 -20 -21 -22 -23 -24 -25 26 29 27 -29 -30 -31
leaf_value=-0.054032633399350452 -0.00035861165280788847 0.057748420041547593 -0.022477882531544882 0.062264991708445752 0.11832547251755605 -0.019205790664352476 0.090995928487401206 0.089440787430918073 0.019736273317813208 0.094129605660718402 0.05178100679856136 0.10532312379804172 -0.10813168652951483 0.11919273514438999 0.042003089600287008 0.04348719496120565 -0.026676356497462368 0.016937189787520349 -0.04857399682568117 -0.084659444939775022 0.052865182567874619 0.048195576777310435 -0.07388091985616195 0.014383950227526601 0.10804398183630598 0.11911459297959395 -0.039352481084169888 0.040975057338961784 -0.033633884603899399 0.049993919098862277
leaf_weight=2851.7572731375694 3483.1233823001385 304.76406590640545 191.61743202060461 1557.1666876003146 11.546730712056158 303.76539571583271 55.063305713236332 707.69596488401294 30.287645161151886 19.11802738904953 44.491525448858738 20.371540404856205 9.2932859137654287 14.170043371617792 19.274063736200333 303.66839399933815 76.017015174031258 123.44620478898287 51.326368063688278 6.7567766681313506 20.423649966716766 33.694311492145061 21.071493610739708 3238.4153975248337 29.229413732886314 70.340744271874428 129.12199603021145 119.75714732706547 66.001334354281425 79.507110789418221
leaf_count=47851 11943 1980 769 13082 47 1060 423 7173 126 172 283 107 73 81 73 1619 343 540 194 48 100 224 86 13411 117 255 504 494 254 326
internal_value=0.00701397 0.0226407 0.0529395 0.0588218 0.00926093 0.0276725 0.00604138 0.0684785 0.0594451 -0.00124708 -0.00664678 0.0171544 0.0167292 0.0170045 0.0166598 0.0173522 0.015455 -0.00703452 -0.0238463 0.0406979 -0.0146654 0.00781745 -0.0186727 0.0163104 0.028652 0.050572 0.0107291 -0.000699998 -0.0110075 0.0824402
internal_weight=13992.3 11140.5 3412.61 3078.42 7727.92 728.508 423.744 2349.92 1642.22 334.182 368.681 4244.8 4224.43 4215.13 4200.96 4130.36 3819.94 315.064 70.6004 310.425 324.189 85.0535 51.3591 3743.92 505.504 227.396 278.109 248.879 77.5481 149.848
internal_count=103758 55907 26018 24537 29889 3846 1866 20691 13518 1481 1443 17946 17839 17766 17685 17418 15751 1309 267 1667 1160 436 212 15408 1997 882 1115 998 301 581
is_linear=0
shrinkage=0.1


Tree=25
num_leaves=31
num_cat=0
split_feature=0 3 1 17 17 17 17 0 2 1 2 3 3 17 5 0 0 17 3 1 3 13 2 17 0 1 17 1 17 17
split_gain=1126.82 396.966 96.7695 85.1987 48.3997 44.172 41.0134 40.096 23.9811 21.4946 20.8922 16.8194 14.4191 11.7861 11.164 10.9181 9.96067 9.36688 10.2156 9.36399 9.27378 8.55457 8.77374 15.9728 12.168 15.206 11.6591 14.9906 9.64946 12.4788
threshold=-1.0000000180025095e-35 2.5000000000000004 2.5000000000000004 19.500000000000004 1.5000000000000002 44.500000000000007 16.500000000000004 1.0000000180025095e-35 3.5000000000000004 1.5000000000000002 1.5000000000000002 6.5000000000000009 3.5000000000000004 31.500000000000004 1.0000000180025095e-35 1.5000000000000002 1.5000000000000002 79.500000000000014 4.5000000000000009 7.5000000000000009 3.5000000000000004 1.0000000180025095e-35 1.0000000180025095e-35 7.5000000000000009 1.0000000180025095e-35 1.0000000180025095e-35 65.500000000000014 1.0000000180025095e-35 18.500000000000004 15.500000000000002
decision_type=2 2 2 2 2 2 2 2 2 2 2 2 2 2 2 2 2 2 2 2 2 2 2 2 2 2 2 2 2 2
left_child=-1 4 3 6 -2 9 -3 12 -7 10 -5 15 -8 -12 16 -4 21 18 -10 -13 -15 22 -6 -24 25 -25 27 28 29 -26
right_child=1 2 11 5 14 8 7 -9 17 -11 13 19 -14 20 -16 -17 -18 -19 -20 -21 -22 -23 23 24 26 -27 -28 -29 -30 -31
leaf_value=-0.051121891692452605 -0.00032276442252655694 0.054444974025488091 -0.013770723982302663 0.06104567948572609 0.015777637526947535 0.090271070785800822 -0.013211097385862798 0.088514959477364166 -0.23166037116446395 0.0071787967476205101 0.069287874894353674 0.08220044615810003 0.048551601498643716 -0.10043274395185596 0.12170432949474473 0.085021508442741742 0.051508067143131775 0.077150729014788283 -0.02124689518079757 -0.029670449855332421 0.023344134100001673 0.12254585696173813 0.11297892101520667 -0.039835096268887801 -0.014425486240309411 0.065602676865401138 0.14105953924446699 -0.137417007880904 -0.0051980272913420529 0.097571965646783901
leaf_weight=2719.7390199303627 3483.0121115148067 291.62985835969448 277.56215204298496 1442.5447798147798 3825.9386671110988 639.73231218382716 323.7308299690485 51.149026401340961 3.3785539716482145 84.130642093718052 11.448498770594595 33.453215941786766 42.796533137559891 15.728222429752352 9.8965248614549619 11.656478837132452 74.901348568499088 5.0710852444171897 7.2775264009833336 9.6377371996641141 9.8401249051094037 7.343513771891593 11.506543025374411 123.01035702973604 16.239274308085442 15.389152273535727 6.8674844950437537 6.7773617357015601 78.794813066720963 25.681249111890793
leaf_count=47851 11943 1980 1095 12867 16173 7064 1160 423 21 436 66 240 283 75 53 99 421 34 54 47 74 40 56 538 63 78 28 34 339 123
internal_value=0.00648504 0.0207984 0.0500344 0.0558375 0.00839404 0.0654807 0.0256677 0.00557478 0.087272 0.0563464 0.0591421 -0.0011052 -0.00599955 -0.0150385 0.0156188 -0.00978907 0.0153683 -0.0347211 -0.0879594 0.0571794 -0.0527965 0.0147109 0.0145183 -0.00243163 -0.0073003 -0.0281111 0.0141361 0.00729931 0.0154242 0.0541861
internal_weight=13665.9 10946.1 3260.77 2928.46 7685.36 2219.15 709.306 417.676 655.459 1563.69 1479.56 332.31 366.527 37.0168 4202.35 289.219 4192.45 15.7272 10.6561 43.091 25.5683 4117.55 4110.2 284.266 272.76 138.4 134.36 127.493 120.715 41.9205
internal_count=103758 55907 26018 24537 29889 20691 3846 1866 7173 13518 13082 1481 1443 215 17946 1194 17893 109 75 287 149 17472 17432 1259 1203 616 587 559 525 186
is_linear=0
shrinkage=0.1


Tree=26
num_leaves=31
num_cat=0
split_feature=0 3 1 3 17 17 17 0 17 8 17 1 1 5 1 17 0 3 17 17 0 1 7 1 0 17 17 3 3 17
split_gain=949.436 347.704 85.6804 82.1987 39.8169 34.6677 34.9232 25.4599 23.333 16.4886 15.0629 11.9841 10.2387 10.0916 9.78327 22.4997 9.45887 8.52591 7.93177 17.461 35.2691 34.4138 41.3493 29.7109 30.6793 7.53097 17.8236 23.348 17.4126 39.23
threshold=-1.0000000180025095e-35 2.5000000000000004 2.5000000000000004 3.5000000000000004 1.5000000000000002 19.500000000000004 17.500000000000004 1.0000000180025095e-35 44.500000000000007 1.0000000180025095e-35 123.50000000000001 1.5000000000000002 1.0000000180025095e-35 1.0000000180025095e-35 6.5000000000000009 83.500000000000014 2.5000000000000004 5.5000000000000009 40.500000000000007 32.500000000000007 1.0000000180025095e-35 1.0000000180025095e-35 1.0000000180025095e-35 1.0000000180025095e-35 1.5000000000000002 5.5000000000000009 6.5000000000000009 1.5000000000000002 1.5000000000000002 3.5000000000000004
decision_type=2 2 2 2 2 2 2 2 2 2 2 2 2 2 2 2 2 2 2 2 2 2 2 2 2 2 2 2 2 2
left_child=-1 4 3 5 -2 6 12 -8 -5 13 14 18 -3 16 15 17 25 -4 19 -7 21 -21 -23 24 -22 28 27 -27 29 -6
right_child=1 2 10 8 9 11 7 -9 -10 -11 -12 -13 -14 -15 -16 -17 -18 -19 -20 20 23 22 -24 -25 -26 26 -28 -29 -30 -31
leaf_value=-0.048253412682790826 -0.00029050176141586398 0.035378646815678975 -0.015080993853288621 0.060293521854754228 -0.011593796807910044 0.055513680688097783 -0.018620690641974552 0.077540783305092786 0.087640693338782175 0.11901450231205911 0.091003130932042223 0.0019328336493803515 0.10394670032521047 0.11959969562979192 -0.033580723874192621 0.098977188496897905 0.098326050541085785 0.038897501099772573 0.07500697903082848 0.083974266151948807 -0.13441229432950538 -0.4987437219378541 0.10915399178935997 0.086451421045320498 0.067710219842910035 0.013850816154858303 0.013983137526633695 -0.039091904356296024 0.0080612852906245726 0.076945929101170304
leaf_weight=2599.6767661385238 3482.9116266071796 321.32423115521669 163.81410456448793 772.69828775525093 77.094409316778183 575.31240786612034 243.83589749038219 31.037789441645145 523.27704606950283 14.95425423979759 16.896920017898083 49.487849533557892 23.360341235995293 8.9994883909821493 90.83676765859127 23.018521122634411 13.131970897316931 35.625323407351971 132.57600525766611 59.407595410943031 31.849757589399815 2.3035660535097113 2.175835520029068 12.9902476221323 9.8264811411499959 183.42082414031029 3298.9392609149218 152.59960532188416 273.09114263951778 142.6172955930233
leaf_count=47851 11943 2011 621 7287 301 5057 876 262 6334 124 172 277 167 52 377 142 91 169 1254 500 256 25 19 116 96 704 14388 591 1111 584
internal_value=0.00598642 0.0190796 0.047204 0.0529019 0.00759983 0.0369276 0.018824 -0.00776247 0.0713355 0.0141982 -0.000966489 0.0497325 0.0400257 0.0138205 -0.00592669 0.00536535 0.0135906 -0.00543896 0.0525948 0.0483125 0.013367 0.0638208 -0.203462 -0.0455969 -0.0867556 0.013321 0.0117483 -0.0101925 0.0249217 0.0458783
internal_weight=13369.1 10769.4 3121.65 2791.46 7647.76 1495.49 619.558 274.874 1295.98 4164.85 330.192 875.93 344.685 4149.89 313.295 222.458 4140.89 199.439 826.442 693.866 118.553 63.887 4.4794 54.6665 41.6762 4127.76 3634.96 336.02 492.803 219.712
internal_count=103758 55907 26018 24537 29889 10916 3316 1138 13621 17946 1481 7600 2178 17822 1309 932 17770 790 7323 6069 1012 544 44 468 352 17679 15683 1295 1996 885
is_linear=0
shrinkage=0.1


Tree=27
num_leaves=31
num_cat=0
split_feature=0 3 3 17 0 2 17 17 2 0 17 11 0 5 2 17 0 7 3 17 17 17 17 17 3 16 17 17 17 17
split_gain=798.544 303.48 62.833 32.7057 18.1222 22.4999 17.6204 29.2582 22.3248 21.7397 16.4672 13.2776 12.8432 12.6314 11.6416 11.4184 11.1721 10.0758 9.94058 10.9321 9.97887 9.7954 12.3924 9.58381 16.8951 9.53253 12.6403 9.30585 9.13713 9.54885
threshold=-1.0000000180025095e-35 2.5000000000000004 3.5000000000000004 1.5000000000000002 1.0000000180025095e-35 1.0000000180025095e-35 19.500000000000004 17.500000000000004 1.0000000180025095e-35 1.0000000180025095e-35 51.500000000000007 1.0000000180025095e-35 1.5000000000000002 1.0000000180025095e-35 2.5000000000000004 50.500000000000007 1.5000000000000002 1.0000000180025095e-35 7.5000000000000009 22.500000000000004 24.500000000000004 29.500000000000004 38.500000000000007 63.500000000000007 4.5000000000000009 19.000000000000004 103.50000000000001 64.500000000000014 33.500000000000007 34.500000000000007
decision_type=2 2 2 2 2 2 2 2 2 2 2 2 2 2 2 2 2 2 2 2 2 2 2 2 2 2 2 2 2 2
left_child=-1 3 6 -2 5 13 7 -3 10 -9 16 12 14 18 -6 -16 21 25 19 -4 -21 -8 28 -22 -25 26 -5 -10 -23 -30
right_child=1 2 4 17 11 -7 8 9 27 -11 -12 -13 -14 -15 15 -17 -18 -19 -20 20 23 22 -24 24 -26 -27 -28 -29 29 -31
leaf_value=-0.045436819620140317 -0.00026145834991208385 0.037085915189231482 0.064115912268764286 0.012581238709060354 0.067713997316403665 0.090499397616484401 0.054754376821289641 -0.016760433044500572 0.00040658666990598514 0.074675964515991053 -0.00070652456503976849 -0.10856862915120741 0.1006548193191099 0.10913945421978151 -0.19818115572423345 0.020622921727156684 0.095488938382254043 0.11869523583578515 0.10073254170634011 -0.03198978068189836 0.038385662853237267 0.027484212096729018 0.051550302357011239 0.067313884042594613 -0.03408823953946289 -0.089334568386585017 0.11258320054904934 -0.13762441758587013 -0.10028891813976025 0.0017780804542831014
leaf_weight=2490.5749129392207 3482.8209739327431 335.42202537506819 96.875665992498398 4101.8812355995178 611.0673538967967 103.75462290644646 444.38271468132734 243.810597255826 88.975399501621723 29.106737717986107 74.863983996212482 4.1305676661431781 123.78248830512166 25.157211817800999 2.8507772088050869 14.598477181047199 47.301194176077843 8.9814266264438611 23.182441156357527 26.960524782538414 321.85591099411249 100.9800663664937 149.55205543711782 24.286518506705761 50.799556903541088 9.142540015280245 12.678885892033575 5.1680049002170554 12.644411921501158 33.319598183035851
leaf_count=47851 11943 2178 797 17734 6794 1129 4029 876 610 262 474 40 1549 298 20 146 469 54 251 264 2893 858 1224 119 347 75 83 33 99 259
internal_value=0.00552132 0.0174828 0.0444517 0.00687714 0.0596109 0.0476721 0.0306116 0.0173039 0.0390693 -0.00700871 0.0441133 0.0702309 0.0712126 0.0398643 0.0654142 -0.0151243 0.0483704 0.0128932 0.0366605 0.0338083 0.026882 0.0453622 0.0312853 0.0308806 -0.00128982 0.0126628 0.0128894 -0.00717063 0.0106606 -0.0262999
internal_weight=13100.9 10610.3 2994.83 7615.51 1429.3 672.872 1565.53 608.339 957.187 272.917 863.044 756.43 752.299 569.118 628.517 17.4493 788.18 4132.68 543.961 520.778 423.903 740.879 296.496 396.942 75.0861 4123.7 4114.56 94.1434 146.944 45.964
internal_count=103758 55907 26018 29889 14647 6098 11371 3316 8055 1138 7412 8549 8509 4969 6960 166 6938 17946 4671 4420 3623 6469 2440 3359 466 17892 17817 643 1216 358
is_linear=0
shrinkage=0.1


Tree=28
num_leaves=31
num_cat=0
split_feature=0 3 1 17 0 2 17 17 0 17 17 2 3 2 0 8 17 1 1 3 3 3 17 1 5 2 17 0 1 17
split_gain=669.954 262.328 79.1339 79.7896 39.0964 33.7929 34.7719 26.7954 26.0611 23.6727 23.0934 21.2412 18.9027 23.5835 16.0165 15.0569 13.0189 12.2043 11.008 9.26258 11.4549 10.6749 18.0922 15.4806 8.83904 9.20545 14.6757 12.6814 13.4928 9.8936
threshold=-1.0000000180025095e-35 2.5000000000000004 1.5000000000000002 25.500000000000004 1.0000000180025095e-35 1.5000000000000002 44.500000000000007 1.5000000000000002 1.5000000000000002 16.500000000000004 18.500000000000004 1.0000000180025095e-35 3.5000000000000004 6.5000000000000009 1.0000000180025095e-35 1.0000000180025095e-35 23.500000000000004 1.0000000180025095e-35 1.0000000180025095e-35 7.5000000000000009 4.5000000000000009 3.5000000000000004 66.500000000000014 4.5000000000000009 1.0000000180025095e-35 1.0000000180025095e-35 7.5000000000000009 1.0000000180025095e-35 1.0000000180025095e-35 27.500000000000004
decision_type=2 2 2 2 2 2 2 2 2 2 2 2 2 2 2 2 2 2 2 2 2 2 2 2 2 2 2 2 2 2
left_child=-1 7 3 4 9 6 -5 -2 11 -3 17 14 18 -14 16 24 -4 -11 -7 20 21 -18 23 -23 25 29 -27 28 -28 -9
right_child=1 2 8 5 -6 12 -8 15 -10 10 -12 -13 13 -15 -16 -17 19 -19 -20 -21 -22 22 -24 -25 -26 26 27 -29 -30 -31
leaf_value=-0.042681827200350804 -0.00023531925881833146 0.044267745620519675 0.09833101931030902 0.0569667041726033 0.0646515378626039 -0.094603667586510648 0.091662442664969146 0.010918890175796329 0.091864033317888172 -0.02253145058912507 0.023451764975663626 0.066521691691541984 0.048644593498034565 -0.32624375924412069 0.015699311718904523 0.11736756373773981 -0.043897359084132809 0.07818493641960253 0.062131551071867776 0.097365057540425876 -0.063869580905922471 0.010845583876689059 0.094193841886908103 -0.11694652659068903 0.11689012604557564 0.10944910713430636 -0.04395544074924039 0.010788369393326407 0.05897766020860401 0.029758648349497343
