tree
version=v4
num_class=1
num_tree_per_iteration=1
label_index=0
max_feature_idx=13
objective=binary sigmoid:1
feature_names=time_response domain_spf asn_ip time_domain_activation time_domain_expiration qty_ip_resolved qty_nameservers qty_mx_servers ttl_hostname tls_ssl_certificate qty_redirects url_google_index domain_google_index url_shortened
feature_infos=[-1:38.402412414550781] [-1:1] [-1:395754] [-1:17775] [-1:22574] [-1:24] [0:20] [0:20] [-1:604800] [0:1] [-1:17] [-1:1] [-1:1] [0:1]
tree_sizes=3445 3440 3464 3455 3444 3473 3494 3465 3425 3474 3480 3488 3492 3481 3479 3467 3477 3489 3471 3490 3473 3457 3498 3491 3482 3483 3457 3469 3450 3465 3446 3466 3493 3483 3465 3506 3454 3496 3467 3482 3491 3480 3491 3431 3451 3436 3454 3473 3455 3501 3476 3467 3438 3443 3490 3416 3432 3469 3483 3468 3461 3436 3454 3472 3463 3453 3462 3439 3443 3439 3449 3432 3462 3482 3461 3409 3466 3432 3452 3430 3400 3453 3432 3418 3410 3471 3446 3460 3385 3435 3390 3421 3466 3475 3474 3382 3397 3439 3408 3409 3428 3364 3416 3475 3448 3416 3437 3419 3429 3436 3394 3395 3464 3405 3423 3460 3417 3409 3415 3422 3386 3428 3396 3439 3388 3386 3426 3396 3429 3416 3402 3450 3468 3449 3380 3362 3387 3379 3396 3419 3473 3427 3418 3416 3389 3430 3381 3370 3383 3406 3393 3464 3412 3446 3422 3447 3412 3382 3413 3476 3386 3377 3443 3449 3410 3383 3432 3365 3429 3408 3405 3437 3401 3417 3363 3412 3384 3402 3400 3443 3445 3469 3432 3439 3429 3423 3364 3430 3364 3432 3436 3408 3398 3444 3388 3404 3375 3401 3435 3435

Tree=0
num_leaves=31
num_cat=0
split_feature=3 2 3 5 0 2 1 0 2 3 4 0 3 2 2 0 6 1 13 13 2 2 5 6 2 2 3 3 6 0
split_gain=29478.5 4202.02 1448.52 886.188 920.489 923.053 715.496 625.268 578.604 577.535 574.479 534.897 442.506 426.294 590.092 621.771 447.402 376.513 367.65 305.569 247.273 313.568 238.336 216.139 215.893 213.802 213.488 210.773 199.702 222.629
threshold=4153.5000000000009 15179.000000000002 4939.5000000000009 1.0000000180025095e-35 0.30338150262832647 13420.500000000002 1.0000000180025095e-35 0.040039498358964927 15141.000000000002 6739.5000000000009 215.50000000000003 0.15690399706363681 3490.5000000000005 53827.500000000007 55067.000000000007 0.32015299797058111 4.5000000000000009 -1.0000000180025095e-35 1.0000000180025095e-35 1.0000000180025095e-35 2883.5000000000005 1.0000000180025095e-35 1.5000000000000002 1.5000000000000002 13457.000000000002 15141.000000000002 1.0000000180025095e-35 3147.5000000000005 2.5000000000000004 1.0000000180025095e-35
decision_type=2 2 2 2 2 2 2 2 2 2 2 2 2 2 2 2 2 2 2 2 2 2 2 2 2 2 2 2 2 2
left_child=1 3 18 10 8 20 7 28 27 19 -1 -10 13 16 15 -15 23 -7 22 -4 21 -6 -2 -9 -19 -26 -25 -5 -3 -30
right_child=2 6 9 4 5 17 -8 12 11 -11 -12 -13 -14 14 -16 -17 -18 24 -20 -21 -22 -23 -24 26 25 -27 -28 -29 29 -31
leaf_value=-0.45775586548681257 -0.39635018056863836 -0.31631901340683943 -0.48621744266757921 -0.31197510509823012 -0.32483303382534823 -0.24150885472927988 -0.20455944667730019 -0.16605952988333972 -0.49601022978575432 -0.53541236805702419 -0.27387723279980608 -0.20525641229907812 -0.34407812458708026 -0.54311896726147146 -0.26652919145401449 -0.27493446134180188 -0.36656847672031745 -0.56622243332197031 -0.15531358970234227 -0.15367371001668045 -0.31508246276935858 -0.49104250403807626 -0.51174854031654116 -0.26472321863949805 -0.36772206314205647 -0.47256964991199502 -0.22699834124422297 -0.4475755984759695 -0.34137510985132247 -0.553717316712246
leaf_weight=970.17423595488071 1188.9341002702713 211.14071939885616 4089.388582855463 1463.2856633812189 265.5163049697876 88.592670574784279 2657.8425319194794 406.74923731386662 67.932611390948296 4644.2923408746719 205.98060582578182 922.48174567520618 558.25043408572674 180.64328679442406 1193.6451189219952 165.79193209111691 276.22611626982689 152.35138073563576 57.312919661402702 27.819954290986061 2064.8072866052389 198.26178938150406 210.68967154622078 2410.0684040039778 293.60021601617336 576.14104440808296 3973.0016765594482 124.37124219536781 91.481293901801109 107.27430213987827
leaf_count=3691 4283 705 15941 4865 894 274 7897 1157 267 18856 659 2743 1915 738 3790 531 968 634 161 78 6886 776 839 7638 1030 2220 12098 469 313 442
internal_value=-0.358151 -0.286437 -0.495885 -0.345954 -0.330896 -0.363281 -0.250462 -0.263205 -0.28518 -0.511239 -0.425553 -0.225199 -0.257801 -0.252204 -0.299877 -0.414775 -0.241814 -0.43927 -0.403556 -0.48397 -0.329903 -0.395886 -0.413721 -0.236738 -0.456411 -0.437176 -0.241242 -0.322598 -0.384041 -0.455983
internal_weight=29844 19625.6 10218.4 7393.5 6217.34 3639.27 12232.1 9574.27 2578.07 8761.5 1176.15 990.414 9164.38 8606.13 1540.08 346.435 7066.05 1110.69 1456.94 4117.21 2528.59 463.778 1399.62 6789.82 1022.09 869.741 6383.07 1587.66 409.896 198.756
internal_count=103758 63600 40158 25408 21058 12714 38192 30295 8344 34875 4350 3010 28835 26920 5059 1269 21861 4158 5283 16019 8556 1670 5122 20893 3884 3250 19736 5334 1460 755
is_linear=0
shrinkage=1


Tree=1
num_leaves=31
num_cat=0
split_feature=3 2 3 8 10 8 8 0 2 13 8 4 2 6 8 0 3 0 0 8 8 3 2 0 2 2 6 10 8 3
split_gain=23707.8 3230.55 1253.81 1031.23 927.859 826.032 717.44 725.83 730.427 569.207 482.263 478.737 454.455 425.613 422.659 384.503 366.748 344.85 500.122 271.103 218.627 285.199 224.155 215.088 194.437 255.314 183.341 175.506 175.143 171.31
threshold=4153.5000000000009 15250.000000000002 6079.5000000000009 3600.5000000000005 1.0000000180025095e-35 14397.500000000002 -1.0000000180025095e-35 0.30338150262832647 13420.500000000002 1.0000000180025095e-35 368.50000000000006 326.50000000000006 15141.000000000002 2.5000000000000004 552.50000000000011 0.15690399706363681 4896.5000000000009 0.24955099821090701 0.23799099773168567 3597.5000000000005 892.50000000000011 1850.5000000000002 7395.0000000000009 0.040039498358964927 2883.5000000000005 1.0000000180025095e-35 1.5000000000000002 -1.0000000180025095e-35 21599.500000000004 3147.5000000000005
decision_type=2 2 2 2 2 2 2 2 2 2 2 2 2 2 2 2 2 2 2 2 2 2 2 2 2 2 2 2 2 2
left_child=1 6 9 4 17 -5 11 12 24 10 -2 -1 20 -6 -10 -14 -12 18 27 26 21 22 -8 -15 25 -9 -19 -3 -7 -26
right_child=2 3 -4 5 13 28 7 8 14 -11 16 -13 15 23 -16 -17 -18 19 -20 -21 -22 -23 -24 -25 29 -27 -28 -29 -30 -31
leaf_value=-0.047636910422670424 -0.10926019336702719 -0.00015313231144772457 -0.11699887991488774 0.17606224260354797 0.082734215055845731 0.08378925792155742 -0.011160494150485027 0.065935118240693244 -0.074161484057235952 0.21317821510192006 0.020397601273660276 0.15163122933485826 -0.085433136276763744 -0.15399246135724787 0.063289686241957452 0.1692737196612043 -0.055774681901933756 0.21118336741373656 -0.08492315294472369 0.0037116267424896579 0.11486639472111455 -0.070591014319256823 0.10169598771049147 0.0036076844177793618 0.08399682060767677 -0.084490964362338869 0.13824036943181467 0.12168507535784448 -0.14241678639854402 -0.011056551918801932
leaf_weight=1034.7902940511703 1002.0408293008804 137.38916243612766 6175.4038877636194 5123.2830662280321 981.79228861629963 936.77929274737835 260.31939081847668 269.07154834270477 798.82660399377346 84.087394163012505 991.36684577167034 136.46475794911385 63.206284329295158 100.28798195719719 310.73672872781754 951.14527504146099 1744.0903670489788 388.97065192461014 161.96653166413307 138.2364332228899 614.00798305869102 191.75072126090527 543.30072997510433 634.32654955983162 1885.1317540705204 194.31270354986191 3019.5565431714058 847.783278003335 35.526187941431999 210.80736947059631
leaf_count=3953 4063 486 25565 14805 3144 3004 928 894 3144 228 3517 409 253 430 1046 2747 6785 1060 643 480 1940 732 1735 2216 6135 776 9128 2619 141 752
internal_value=0.0365727 0.0995051 -0.0891396 0.130578 0.102576 0.160025 0.0474423 0.0608182 0.0320975 -0.044121 -0.0499098 -0.0244199 0.10098 0.03966 -0.0356678 0.153402 -0.0281688 0.125582 0.0779215 0.140997 0.0679388 0.0389908 0.065138 -0.0179075 0.0614764 0.00285637 0.146564 0.104694 0.0755241 0.0744365
internal_weight=29966.8 19969.8 9996.99 12505.9 6410.31 6095.59 7463.87 6292.62 3668.89 3821.59 3737.5 1171.26 2623.73 1716.41 1109.56 1014.35 2735.46 4693.9 1147.14 3546.76 1609.38 995.371 803.62 734.615 2559.32 463.384 3408.53 985.172 972.305 2095.94
internal_count=103758 63600 40158 38156 20206 17950 25444 21082 12747 14593 14365 4362 8335 5790 4190 3000 10302 14416 3748 10668 5335 3395 2663 2646 8557 1670 10188 3105 3145 6887
is_linear=0
shrinkage=0.1


Tree=2
num_leaves=31
num_cat=0
split_feature=3 8 2 8 3 10 13 1 8 6 5 8 8 2 3 2 8 5 0 3 3 8 6 10 1 8 3 1 2 2
split_gain=19265.2 2670.6 1314.49 1058.01 757.441 700.495 499.681 360.021 309.663 273.548 249.389 229.109 429.493 298.423 391.714 322.358 261.384 225.739 227.486 252.365 216.63 202.228 190.914 185.119 248.58 175.332 207.184 173.534 237.326 444.406
threshold=4577.5000000000009 3600.5000000000005 15141.000000000002 14397.500000000002 6739.5000000000009 1.0000000180025095e-35 1.0000000180025095e-35 -1.0000000180025095e-35 3597.5000000000005 1.5000000000000002 4.5000000000000009 300.50000000000006 295.50000000000006 7182.5000000000009 1.0000000180025095e-35 8087.5000000000009 3596.5000000000005 3.5000000000000004 0.040039498358964927 3344.0000000000005 3490.5000000000005 21599.500000000004 4.5000000000000009 1.0000000180025095e-35 1.0000000180025095e-35 3593.5000000000005 1.0000000180025095e-35 1.0000000180025095e-35 53827.500000000007 61983.500000000007
decision_type=2 2 2 2 2 2 2 2 2 2 2 2 2 2 2 2 2 2 2 2 2 2 2 2 2 2 2 2 2 2
left_child=1 2 7 20 6 8 23 -1 9 -4 11 12 13 14 -9 -15 22 18 -7 25 -3 -5 -13 24 -2 26 -20 28 -11 -30
right_child=4 3 5 21 -6 17 -8 10 -10 27 -12 16 -14 15 -16 -17 -18 -19 19 -21 -22 -23 -24 -25 -26 -27 -28 -29 29 -31
leaf_value=0.099032607105800086 -0.061926697374694618 0.15745486524592517 0.18434721422837541 0.061970355874775798 -0.11919929641712267 -0.097704741059141842 0.19100530797629622 -0.048100925046999997 -0.012927119422328506 0.10186868448773574 0.10475879315244536 0.080830872660450512 -0.090061335174475954 0.18749118917652977 0.065550567890444583 0.026573984600542708 -0.070616730730097069 -0.12026656965816024 0.037562303005168295 -0.050018763435730598 0.095101014787101354 -0.12228460041654132 -0.095356887723333755 -0.093544756208685215 0.024441429418564246 -0.066024705232276507 0.10978850854613104 0.14983747257435123 -0.046493306044758681 0.11139994115525542
leaf_weight=500.55281209945679 2655.9599107056856 5521.2588909268379 402.74695853888988 1290.0994977504015 4351.9727028608322 112.09809991717339 77.255128860473633 1219.5730648338795 232.26630444824696 4237.7130754739046 259.91058337688446 793.15753220021725 545.72785633802414 143.72913290560246 403.63061015307903 929.99970650672913 163.92808185517788 90.89165236055851 882.73248641192913 227.86938354372978 619.71395316720009 62.449948742985725 66.671398505568504 1551.9115187078714 381.0511012673378 100.61472469568253 722.00694660842419 599.02211311459541 326.39621102809906 392.7672434002161
leaf_count=1582 10639 15788 1098 4184 18856 476 209 4686 820 13154 812 2557 2121 409 1349 3233 611 360 2979 846 1957 249 255 6386 1407 369 2212 1731 1225 1198
internal_value=0.0329247 0.0857488 0.0589377 0.133528 -0.0891902 0.0833143 -0.0612018 0.0185573 0.100352 0.104767 0.00965778 0.00386422 -0.00915656 0.00721463 -0.01984 0.0481143 0.0451064 0.033939 0.0407917 0.0488225 0.151162 0.0534629 0.0671692 -0.0654477 -0.0510902 0.0620296 0.0700584 0.0989984 0.0928547 0.0397392
internal_weight=29865.7 20847.5 13354 7493.52 9018.15 8327.13 4666.18 5026.88 6190.91 5958.65 4526.33 4266.42 3242.66 2696.93 1623.2 1073.73 1023.76 2136.21 2045.32 1933.22 6140.97 1352.55 859.829 4588.92 3037.01 1705.35 1604.74 5555.9 4956.88 719.163
internal_count=103758 66261 44083 22178 37497 26468 18641 17615 19226 18406 16033 15221 11798 9677 6035 3642 3423 7242 6882 6406 17745 4433 2812 18432 12046 5560 5191 17308 15577 2423
is_linear=0
shrinkage=0.1


Tree=3
num_leaves=31
num_cat=0
split_feature=3 8 2 8 3 7 2 10 3 2 2 3 2 7 3 3 9 0 2 7 7 8 9 7 8 3 13 8 3 3
split_gain=15855.9 2158.9 1075.35 916.75 627.139 556.897 1696.81 550.167 445.35 401.018 581.621 349.306 346.531 440.31 313.182 313.177 298.267 297.298 258.947 238.353 226.125 218.915 213.973 213.377 206.352 203.568 201.935 178.723 178.448 172.802
threshold=4896.5000000000009 3600.5000000000005 15141.000000000002 14397.500000000002 3344.0000000000005 1.0000000180025095e-35 15179.000000000002 1.0000000180025095e-35 6739.5000000000009 53827.500000000007 63973.000000000007 3793.5000000000005 2883.5000000000005 1.5000000000000002 1.0000000180025095e-35 3793.5000000000005 1.0000000180025095e-35 0.040039498358964927 13420.500000000002 1.5000000000000002 1.5000000000000002 30.500000000000004 1.0000000180025095e-35 1.0000000180025095e-35 21594.500000000004 176.50000000000003 1.0000000180025095e-35 280.50000000000006 15.500000000000002 150.50000000000003
decision_type=2 2 2 2 2 2 2 2 2 2 2 2 2 2 2 2 2 2 2 2 2 2 2 2 2 2 2 2 2 2
left_child=1 2 11 15 5 6 27 9 20 16 -11 12 14 18 -1 19 -7 -9 23 -3 -2 -19 -20 25 -5 -14 -22 -4 -21 -16
right_child=8 3 4 24 -6 7 -8 17 -10 10 -12 -13 13 -15 29 -17 -18 21 22 28 26 -23 -24 -25 -26 -27 -28 -29 -30 -31
leaf_value=-0.043104875295806866 -0.046606987802003612 0.14824842267980251 -0.13947064214558608 0.066506666563298233 -9.0986863127156413e-08 0.097714793655658272 0.10509534870654409 -0.1230293427446395 -0.11198079332903044 -0.050811645061444893 0.13316708456315368 -0.072672220996030087 0.16224326451023297 -0.010594816693394403 0.15815659032131898 0.06151026407957192 0.15595203193227819 -0.092142196320350492 -0.067983720025205988 0.016318887094999204 -0.10108780229419304 0.067978069355728352 0.11819887739373383 0.053043387655400065 -0.021591144771866144 0.054665071821462533 0.17650080992536965 -0.030955333608155073 0.12081066272237673 0.018176272456542724
leaf_weight=1147.4930280745029 2467.560938835144 4995.6465124487877 388.96239347755909 1090.1409236490726 1047.3917115479708 1596.0804790109396 1187.2102901786566 97.342954069375992 4178.3256597518921 324.94416111707687 364.67385745048523 419.95259609818459 488.33973543345928 1052.5380251407623 119.50450050830841 552.83385173976421 1958.6317564696074 91.275797381997108 220.53653126955032 237.69533559679985 1450.7405028790236 1323.1179138720036 85.720979943871498 984.34512209892273 351.63642947375774 274.92562034726143 26.688571438193321 248.89347124099731 523.13548964262009 336.54105016589165
leaf_count=4465 10051 14183 1579 3491 3707 4849 3594 442 18856 1230 1061 1658 1407 3754 346 1823 5539 352 848 781 6184 4212 267 3231 1250 903 73 926 1531 1165
internal_value=0.0298009 0.0747541 0.0509749 0.116963 0.0725313 0.0825521 0.034419 0.0978136 -0.0892295 0.116264 0.0464773 0.0147168 0.0225086 0.0419969 -0.0152444 0.133403 0.129803 0.0460111 0.0689484 0.140307 -0.0651325 0.0576449 -0.0158715 0.0838125 0.0450204 0.123494 -0.0960734 -0.0971276 0.0881658 0.0548574
internal_weight=29632.8 21509.5 13758.4 7751.09 8628.52 7581.13 1825.07 5756.07 8123.32 4244.33 689.618 5129.9 4709.94 3106.41 1603.54 6309.31 3554.71 1511.74 2053.87 5756.48 3944.99 1414.39 306.258 1747.61 1441.78 763.265 1477.43 637.856 760.831 456.046
internal_count=103758 68594 45535 23059 27491 23784 6099 17685 35164 12679 2291 18044 16386 10410 5976 18318 10388 5006 6656 16495 16308 4564 1115 5541 4741 2310 6257 2505 2312 1511
is_linear=0
shrinkage=0.1


Tree=4
num_leaves=31
num_cat=0
split_feature=3 2 3 1 7 2 2 3 3 7 2 2 5 7 3 4 3 1 5 0 5 1 7 2 2 7 7 7 2 7
split_gain=13070.5 1719.56 938.406 569.693 643.632 1186.55 683.063 474.924 407.549 388.476 286.317 330.099 262.208 482.496 415.755 312.733 260.672 256.232 276.713 255.167 230.889 215.293 198.585 182.345 177.436 166.398 213.67 163.945 144.476 143.921
threshold=4896.5000000000009 15179.000000000002 3490.5000000000005 -1.0000000180025095e-35 4.5000000000000009 15141.000000000002 13340.000000000002 1.0000000180025095e-35 6739.5000000000009 1.5000000000000002 53789.500000000007 55324.000000000007 1.0000000180025095e-35 1.0000000180025095e-35 419.50000000000006 334.50000000000006 1799.5000000000002 1.0000000180025095e-35 1.5000000000000002 0.040039498358964927 3.5000000000000004 1.0000000180025095e-35 1.5000000000000002 55023.500000000007 47581.500000000007 1.0000000180025095e-35 1.5000000000000002 1.5000000000000002 27571.000000000004 1.0000000180025095e-35
decision_type=2 2 2 2 2 2 2 2 2 2 2 2 2 2 2 2 2 2 2 2 2 2 2 2 2 2 2 2 2 2
left_child=1 3 7 -1 6 -6 12 9 22 10 24 23 15 14 -14 -5 -7 18 27 -11 21 -9 29 -12 -3 -4 28 -15 -27 -2
right_child=8 2 25 4 5 16 -8 20 -10 19 11 -13 13 17 -16 -17 -18 -19 -20 -21 -22 -23 -24 -25 -26 26 -28 -29 -30 -31
leaf_value=0.10214245699405033 -0.10231837427535469 0.091171390840550093 -0.080647235098662215 -0.036009630721642059 -0.03799713060969543 0.16971789071821922 -0.05916897004093067 0.1055852940467726 -0.1055484052847962 -0.11899830888594554 0.053057377304727385 0.08487465249860876 0.14428361896055011 0.052841049444120637 -0.00074112221733156852 0.12548943880540694 -0.14787937086410219 0.099938860721122125 -0.054870288599632715 0.039720186323561668 -0.11416414561376374 0.14361476097277404 -0.089586569592854659 -0.14990777487452026 0.15308466934165721 0.098715774534375467 -0.01891727348318133 -0.018270693802415465 0.024397846094686024 -0.032694316373437921
leaf_weight=973.33171761035919 346.19432125985622 2059.6600652039051 146.3686828315258 1003.9255089759827 493.431222230196 774.52725555002689 1256.855262324214 5235.1779574751854 3999.054668545723 111.69728957116604 68.039658144116402 333.54576902091503 644.93832696974277 862.25038939714432 285.04186162352562 136.16696310043335 26.734901040792465 304.04839995503426 607.60240444540977 1087.1912751346827 43.692669704556465 2080.1282752454281 1428.5723653435707 126.67296302318573 597.0728327780962 467.54615862667561 566.6189122647047 519.55045148730278 593.80281148850918 2084.981885060668
leaf_count=2972 1508 6263 561 3926 1827 2141 4861 15611 18856 511 226 1024 1868 2805 1002 403 108 949 2301 3524 166 5916 6257 568 1690 1469 2032 1850 2020 8543
internal_value=0.0271205 0.0676144 0.0892663 0.0305127 0.0204304 0.0839957 0.0057877 0.0995083 -0.083176 0.0734525 0.0917161 0.0244773 0.0244976 0.0390762 0.0998331 -0.016721 0.159121 0.0144396 0.00137245 0.0249328 0.11503 0.116399 -0.0599961 -0.0789844 0.105086 0.0214833 0.0306657 0.0261034 0.0571364 -0.0426086
internal_weight=29264.4 21405.6 13517.2 7888.4 6915.07 1294.69 5620.38 11742.9 7858.8 4383.88 3184.99 528.258 4363.52 3223.43 929.98 1140.09 801.262 2293.45 1989.4 1198.89 7359 7315.31 3859.75 194.713 2656.73 1774.34 1627.97 1381.8 1061.35 2431.18
internal_count=103758 68594 41581 27013 24041 4076 19965 35499 35164 13806 9771 1818 15104 10775 2870 4329 2249 7905 6956 4035 21693 21527 16308 794 7953 6082 5521 4655 3489 10051
is_linear=0
shrinkage=0.1


Tree=5
num_leaves=31
num_cat=0
split_feature=3 8 3 2 8 8 8 7 3 6 3 1 2 7 2 10 8 13 13 2 3 1 10 7 3 2 2 6 8 7
split_gain=10854 1495.39 910.866 665.856 617.514 341.511 321.176 377.272 727.753 474.725 287.885 316.814 312.994 472.959 384.288 444.268 279.243 301.171 266.803 227.931 215.551 189.329 185.874 185.395 168.171 163.07 270.202 209.146 164.164 151.436
threshold=3886.5000000000005 3600.5000000000005 5617.5000000000009 2883.5000000000005 14397.500000000002 3597.5000000000005 908.00000000000011 4.5000000000000009 1675.5000000000002 1.5000000000000002 1.0000000180025095e-35 -1.0000000180025095e-35 13420.500000000002 1.0000000180025095e-35 15179.000000000002 1.0000000180025095e-35 368.50000000000006 1.0000000180025095e-35 1.0000000180025095e-35 14262.000000000002 1.0000000180025095e-35 1.0000000180025095e-35 1.0000000180025095e-35 1.5000000000000002 1.0000000180025095e-35 53827.500000000007 55067.000000000007 4.5000000000000009 3584.5000000000005 1.0000000180025095e-35
decision_type=2 2 2 2 2 2 2 2 2 2 2 2 2 2 2 2 2 2 2 2 2 2 2 2 2 2 2 2 2 2
left_child=1 3 16 20 23 6 7 9 19 -5 11 -11 13 -13 -14 29 17 -2 22 -9 -1 -18 -4 -3 -6 27 -27 28 -8 -16
right_child=2 4 18 5 24 -7 25 8 -10 10 -12 12 14 -15 15 -17 21 -19 -20 -21 -22 -23 -24 -25 -26 26 -28 -29 -30 -31
leaf_value=-0.037324146598654039 -0.083105713445935536 0.12591909807665852 -0.072651297770970749 0.14344744895972347 -0.00039183917014917844 -0.037235828009184575 0.12496724527630182 -0.009337244420188285 -0.064496745171719924 0.10566383344982871 0.053578316586427782 0.13870313126926853 -0.074855531652002802 -0.01471399616587362 0.13592662573948164 -0.066065770871844967 -0.014916227074551586 0.16666782226012763 0.21142323509653349 0.13369425593488046 0.043758684664392263 0.058533228639808192 -0.10777875602839426 0.072890831885448912 0.073441400447067859 -0.086017368216886769 0.087510417492779213 -0.013510352903478132 0.068276516341482699 0.03323022800468986
leaf_weight=1125.6950698643923 798.29136036336422 4901.9558100700378 3734.6796547472477 392.84380555152893 547.04232510924339 382.49931222200394 1480.6724795103073 122.5340498238802 251.70162796974182 303.09860102832317 2697.4215576350689 344.75010934472084 842.12077932059765 481.73008051514626 213.65474776923656 408.97055514156818 1815.0714726746082 51.381960019469261 30.139608711004257 1227.7146496921778 462.59647998213768 435.06756365299225 2524.6334220319986 761.75264911353588 707.4430697709322 135.67191131412983 265.00578506290913 158.2418190985918 779.830207914114 437.84067413210869
leaf_count=4465 3414 14296 17318 1153 1851 1358 4331 431 935 905 8639 986 3419 1700 613 1589 6933 143 87 3576 1537 1500 12219 2354 2202 590 808 544 2438 1424
internal_value=0.0247603 0.0674164 -0.0635242 0.0467913 0.104726 0.0555857 0.058953 0.0484087 0.0916135 0.037104 0.0298126 0.00867066 -0.00210171 0.049281 -0.0244222 0.0156271 -0.0191582 -0.0680013 -0.0853904 0.120714 -0.0137084 -0.000714671 -0.0868196 0.118787 0.041245 0.0878415 0.0287529 0.0976299 0.10541 0.066909
internal_weight=28822.1 19432.8 9389.27 12514.6 6918.19 10926.3 10543.8 7724.38 1601.95 6122.43 5729.59 3032.17 2729.07 826.48 1902.59 1060.47 3099.81 849.673 6289.45 1350.25 1588.29 2250.14 6259.31 5663.71 1254.49 2819.42 400.678 2418.74 2260.5 651.495
internal_count=103758 62144 41614 41441 20703 35439 34081 25370 4942 20428 19275 10636 9731 2686 7045 3626 11990 3557 29624 4007 6002 8433 29537 16650 4053 8711 1398 7313 6769 2037
is_linear=0
shrinkage=0.1


Tree=6
num_leaves=31
num_cat=0
split_feature=4 2 10 10 1 7 1 7 2 2 7 1 9 2 9 6 4 10 4 7 1 2 7 4 4 0 4 1 5 4
split_gain=1766.31 1043.08 477.11 439.51 418.224 394.266 386.354 342.669 792.025 311.057 306.179 304.707 277.078 255.874 253.684 224.248 199.464 190.437 201.862 188.898 188.156 187.481 272.576 240.74 173.085 171.569 162.214 156.126 149.034 145.613
threshold=377.50000000000006 15141.000000000002 1.0000000180025095e-35 -1.0000000180025095e-35 -1.0000000180025095e-35 1.5000000000000002 1.0000000180025095e-35 1.0000000180025095e-35 15179.000000000002 20017.000000000004 1.5000000000000002 -1.0000000180025095e-35 1.0000000180025095e-35 15250.000000000002 1.0000000180025095e-35 1.5000000000000002 789.50000000000011 -1.0000000180025095e-35 334.50000000000006 1.5000000000000002 1.0000000180025095e-35 13420.500000000002 1.0000000180025095e-35 1.0000000180025095e-35 3.5000000000000004 0.39416249096393591 312.50000000000006 1.0000000180025095e-35 3.5000000000000004 3.5000000000000004
decision_type=2 2 2 2 2 2 2 2 2 2 2 2 2 2 2 2 2 2 2 2 2 2 2 2 2 2 2 2 2 2
left_child=1 4 3 -3 -1 25 11 8 -5 28 17 -2 16 29 -15 -11 -13 18 -6 -8 -12 22 23 -19 -10 -4 -25 -16 -9 -7
right_child=6 2 5 7 10 13 19 9 24 15 20 12 -14 14 27 -17 -18 21 -20 -21 -22 -23 -24 26 -26 -27 -28 -29 -30 -31
leaf_value=0.066533593722321011 0.0054695195688605524 -0.030821468820966737 0.070178549100237464 -0.088443102485942587 -0.0386700996973754 0.13285520645747392 0.058963659626216074 0.10308514994868803 0.11377280860430175 0.13551673417180485 -0.056048359353453175 0.0044825738885947959 -0.088053838909717255 0.028445167592333127 -0.087567944996952488 0.055107985237677674 -0.070860685540286017 0.12966624391562406 0.11016675044718421 -0.022596692745904912 0.037087688674627431 -0.04329163269592539 0.0071554322449571316 -0.014410612399082005 0.036183865525811099 0.021931314437700303 0.11306187339897772 0.0036180158020271986 -0.085043418517316172 -0.096017670143445782
leaf_weight=872.90882684290409 921.61139754951 520.37264709174633 1269.7833497822285 470.33630459010601 1116.1874817162752 151.64929774403572 609.81025645136833 2574.0427812486887 445.36701206862926 366.58187253773212 1505.7926114350557 816.91075183451176 1646.7142529636621 443.74870172142982 698.49537807703018 6438.5052447021008 616.59755709767342 423.41001404821873 99.225030153989792 531.44036886096001 253.41709233820438 402.48222209513187 1758.1654308736324 319.46442906558514 811.19089178740978 1756.7534287720919 145.20312777161598 256.79808102548122 42.809493348002434 34.03703872859478
leaf_count=2903 3575 1959 4258 1941 4498 442 2182 8285 1320 1125 6166 3222 7615 1623 3044 22055 2742 1247 302 2197 961 1623 6443 1184 2761 6349 442 962 171 161
internal_value=0.0226754 0.03444 0.0482472 0.0590085 0.00184433 0.0210147 -0.0303401 0.0632013 0.0222507 0.0707069 -0.00753049 -0.0449767 -0.0600704 -0.0193945 -0.0340334 0.0594395 -0.027925 0.00695094 -0.0265192 0.0209839 -0.042632 0.0202942 0.0299654 0.0751232 0.063684 0.0421734 0.025423 -0.0630557 0.100008 0.0909019
internal_weight=28319.8 23176.7 16280.5 11669.2 6896.26 4611.27 5143.08 11148.8 1726.89 9421.94 6023.35 4001.83 3080.22 1584.73 1399.04 6805.09 1433.51 4264.14 1215.41 1141.25 1759.21 3048.73 2646.24 888.078 1256.56 3026.54 464.668 955.293 2616.85 185.686
internal_count=103758 82225 56456 39617 25769 16839 21533 37658 6022 31636 22866 17154 13579 6232 5629 23180 5964 15739 4800 4379 7127 10939 9316 2873 4081 10607 1626 4006 8456 603
is_linear=0
shrinkage=0.1


Tree=7
num_leaves=31
num_cat=0
split_feature=3 8 8 3 0 3 5 8 8 5 13 3 7 3 6 3 8 9 7 3 7 9 3 3 8 3 3 0 13 13
split_gain=8625.69 1262.98 689.197 548.357 555.667 344.26 341.333 273.62 230.074 224.611 305.567 264.676 260.703 483.097 413.272 233.342 177.231 165.414 161.442 157.931 151.842 187.946 174.038 220.605 219.316 150.44 149.576 148.952 146.622 144.505
threshold=4896.5000000000009 3600.5000000000005 14385.500000000002 3050.5000000000005 0.040039498358964927 6739.5000000000009 1.5000000000000002 21594.500000000004 3591.5000000000005 1.5000000000000002 1.0000000180025095e-35 1799.5000000000002 4.5000000000000009 1.0000000180025095e-35 1.5000000000000002 507.50000000000006 300.50000000000006 1.0000000180025095e-35 1.5000000000000002 1.0000000180025095e-35 1.0000000180025095e-35 1.0000000180025095e-35 1.0000000180025095e-35 781.50000000000011 57.500000000000007 50.500000000000007 3147.5000000000005 0.91700950264930736 1.0000000180025095e-35 1.0000000180025095e-35
decision_type=2 2 2 2 2 2 2 2 2 2 2 2 2 2 2 2 2 2 2 2 2 2 2 2 2 2 2 2 2 2
left_child=1 3 -3 4 19 18 8 26 28 12 11 20 13 14 -6 27 -16 -18 -2 -1 21 -11 24 -24 -22 -21 -4 -14 -5 -20
right_child=5 2 7 6 9 -7 -8 -9 -10 10 -12 -13 15 -15 16 -17 17 -19 29 25 22 -23 23 -25 -26 -27 -28 -29 -30 -31
leaf_value=-0.037795777608604614 -0.035441636177001634 0.11351082717343852 0.073856387267609777 0.01491015106940592 0.1298884757037829 -0.094525056902291849 -0.097800521935789211 -0.031130683449856728 -0.08639766150709996 -0.049728250672157408 0.19124374878839406 -0.085028406471547247 0.12484206328468912 0.081216265208048657 -0.0039997905191504913 -0.0047191145510487248 0.069144516972143244 0.0025484858895554775 -0.083534584330720058 0.14313918554518706 0.055712657755015826 0.095053768401080208 0.15798507918705829 -0.011887128587295742 -0.063370380975848253 0.00056872574802827145 0.018204407145710828 -0.027862927861921457 0.16583968084332554 0.15710925507435591
leaf_weight=976.7990243434906 2356.0703793913126 4158.1474242955446 2304.6719304323196 1306.5424964725971 355.4656121134758 3640.5093768537045 386.10285614430904 352.09943549335003 226.65459243953228 110.80393785238266 100.05580666661263 244.71662309765816 1090.6843205988407 2960.8794476687908 1880.5615968108177 186.15900473296642 906.69919396936893 633.60810318589211 1310.8973034471273 100.40081924200058 230.25707557797432 469.89423011243343 141.04246827960014 166.92888939380646 471.04609371721745 281.59666860103607 610.98272021114826 67.849983170628548 67.700346708297729 25.437744528055191
leaf_count=4048 10051 12553 7212 4539 1132 18856 1624 1250 874 409 271 932 3296 9111 6912 632 2838 2244 6184 289 770 1430 405 581 1788 979 2044 238 193 73
internal_value=0.0205467 0.05344 0.0865041 0.0350653 0.0435318 -0.0727038 -0.0134048 0.0521386 0.00694968 0.0516721 0.0210666 0.0117859 0.0589988 0.0509749 0.0272638 0.0992005 0.0165999 0.0417501 -0.0511893 -0.0164759 0.0266868 0.0674277 0.00324606 0.0659097 -0.0242722 0.0380407 0.0621944 0.115899 0.0223455 -0.0789538
internal_weight=28121.3 20788.4 7425.9 13362.4 11375.4 7332.91 1987 3267.75 1600.9 10016.7 1934.75 1834.69 8081.91 6737.21 3776.33 1344.69 3420.87 1540.31 3692.41 1358.8 1589.97 580.698 1009.27 307.971 701.303 381.997 2915.65 1158.53 1374.24 1336.34
internal_count=103758 68594 23059 45535 38305 35164 7230 10506 5606 32989 6586 6315 26403 22237 13126 4166 11994 5082 16308 5316 5383 1839 3544 986 2558 1268 9256 3534 4732 6257
is_linear=0
shrinkage=0.1


Tree=8
num_leaves=31
num_cat=0
split_feature=3 8 3 8 0 10 2 7 2 8 7 3 8 3 2 8 3 2 2 8 7 4 2 2 4 3 0 3 3 8
split_gain=7205.81 1039.52 581.406 502.254 413.056 414.524 256.859 521.085 516.098 293.584 233.041 237.748 232.048 212.253 199.3 180.093 164.114 157.716 340.013 153.904 151.618 147.426 145.672 145.066 133.348 130.362 128.545 127.664 203.808 127.48
threshold=4153.5000000000009 3600.5000000000005 6677.5000000000009 14396.500000000002 0.040039498358964927 1.0000000180025095e-35 15250.000000000002 4.5000000000000009 13420.500000000002 297.50000000000006 1.5000000000000002 6635.5000000000009 298.50000000000006 3299.5000000000005 2883.5000000000005 3593.5000000000005 5617.5000000000009 53827.500000000007 61983.500000000007 119.50000000000001 1.5000000000000002 9.5000000000000018 33487.000000000007 46512.000000000007 9.5000000000000018 1.0000000180025095e-35 0.28657498955726629 552.50000000000011 581.00000000000011 14382.500000000002
decision_type=2 2 2 2 2 2 2 2 2 2 2 2 2 2 2 2 2 2 2 2 2 2 2 2 2 2 2 2 2 2
left_child=1 4 10 20 -1 6 7 8 -6 -9 11 16 22 14 -7 19 21 23 26 -16 29 -2 -13 -8 -22 -5 -19 -20 -29 -3
right_child=2 3 -4 25 5 13 17 9 -10 -11 -12 12 -14 -15 15 -17 -18 18 27 -21 24 -23 -24 -25 -26 -27 -28 28 -30 -31
leaf_value=-0.014592477334174479 0.1470407736848971 0.11639562747281161 -0.088198945096340298 -0.0061083453018918928 0.042404816612775315 -0.070840547485138239 0.069463568519301869 0.12690918888608266 -0.055634062002085698 -0.030468473670034225 -0.065400259636075694 -0.14041051057560755 -0.018106897090016654 -0.07224036942661792 -0.014714569470878715 -0.084111258250025814 -0.051946301012487595 -0.098688621715161212 0.12871267840406422 0.045211441506406942 -0.005340562018520208 -0.010200749534465302 0.3184188535569249 0.11884584794508923 0.084957514001620951 0.056399709124172692 0.029784609869420525 -0.2391961917715395 0.062379813552753995 0.081024185300782411
leaf_weight=1450.5702035874128 61.845159307122231 3116.892460256815 3654.089795216918 573.497872158885 1641.2941473722458 223.00599308311939 2791.5632681101561 717.0852824151516 798.02728217840195 142.00914238393307 1666.3982828259468 7.9771661609411231 61.986817046999931 270.95234316587448 536.60302484035492 137.75273510813713 1268.7753225117922 196.91256447136402 276.61689385771751 2128.6286481320858 238.29371298849583 1662.0066998451948 52.186602145433426 755.96576017141342 521.3417813628912 797.73410432040691 128.83625610172749 25.6454196870327 177.58753809332848 1513.753614589572
leaf_count=5689 205 9596 19724 1945 5443 896 8712 2247 3271 526 7661 39 270 1050 1915 509 5639 834 818 6939 799 6454 166 2380 1623 2525 423 106 558 4796
internal_value=0.0188467 0.0527518 -0.0581681 0.0842935 0.0355514 0.042195 0.0549675 0.0339191 0.0103313 0.100895 -0.0352165 -0.0190683 0.11768 0.0125523 0.0201448 0.0273836 -0.02465 0.0709162 0.0309732 0.0331463 0.0980399 -0.00455953 0.257582 0.0799868 0.0566315 0.0302566 -0.0478764 0.0845008 0.0243247 0.104833
internal_weight=27595.8 19160.6 8435.27 6761.51 12399.1 10948.5 7651.54 3298.42 2439.32 859.094 4781.18 3114.78 122.151 3296.94 3025.99 2802.98 2992.63 4353.13 805.599 2665.23 5390.28 1723.85 60.1638 3547.53 759.635 1371.23 325.749 479.85 203.233 4630.65
internal_count=103758 63600 40158 21284 42316 36627 25318 11487 8714 2773 20434 12773 475 11309 10259 9363 12298 13831 2739 8854 16814 6659 205 11092 2422 4470 1257 1482 664 14392
is_linear=0
shrinkage=0.1


Tree=9
num_leaves=31
num_cat=0
split_feature=3 8 8 3 3 7 6 3 13 8 3 9 0 3 7 3 8 7 8 10 13 8 8 8 8 10 8 10 6 8
split_gain=6021.91 895.618 698.747 641.681 540.43 355.31 332.791 275.484 251.784 306.428 219.165 197.526 194.552 189.096 186.529 180.537 146.633 141.062 127.81 127.28 123.379 123.156 192.794 159.054 130.686 117.903 115.622 115.47 140.794 114.427
threshold=3793.5000000000005 368.50000000000006 297.50000000000006 6079.5000000000009 1.0000000180025095e-35 4.5000000000000009 2.5000000000000004 1675.5000000000002 1.0000000180025095e-35 368.50000000000006 3008.5000000000005 1.0000000180025095e-35 0.11489250138401987 670.50000000000011 1.5000000000000002 1.0000000180025095e-35 21592.500000000004 5.5000000000000009 577.50000000000011 -1.0000000180025095e-35 1.0000000180025095e-35 3600.5000000000005 3596.5000000000005 14385.500000000002 621.50000000000011 1.0000000180025095e-35 290.50000000000006 1.0000000180025095e-35 2.5000000000000004 3597.5000000000005
decision_type=2 2 2 2 2 2 2 2 2 2 2 2 2 2 2 2 2 2 2 2 2 2 2 2 2 2 2 2 2 2
left_child=1 2 5 8 14 6 11 12 9 -2 19 15 -7 -13 -3 -1 18 -14 -11 -6 25 22 24 -23 -20 -5 -15 29 -29 -16
right_child=3 4 -4 20 10 7 -8 -9 -10 16 -12 13 17 26 27 -17 -18 -19 21 -21 -22 23 -24 -25 -26 -27 -28 28 -30 -31
leaf_value=-0.024901810378829811 -0.072765004723618146 0.050525926045874553 -0.072573334288846519 -0.063605235964499643 0.015380268703060897 -0.086386372100280467 -0.0034531924114013183 -0.059336244189751246 0.15445792143154796 0.11372679123152143 0.043525108322349147 0.093899553689467022 0.11484469775394411 0.062992222659842334 0.064325673721258567 0.058608913960049296 -0.098876565617781007 -0.072924910213570712 -0.065976705521106446 0.093128159264922392 0.27424239929839594 0.049347692811735143 -0.10046101233621912 -0.018927818239461752 0.012874757064727863 -0.095876346460624012 -0.050218748034037787 0.025558795462920381 -0.096589580774034789 -0.017945449057219783
leaf_weight=547.11302533745766 1010.0428892076015 2716.2768674939871 703.60768581926823 2805.6084052473307 218.11100916564465 54.653559461236 2668.5703473836184 124.970229819417 79.587640881538391 89.974008023738861 1182.7066391259432 1037.208087310195 987.01678976416588 192.65532183647156 361.57360391318798 491.36102306842804 171.14544855058193 41.699481055140495 290.27516324818134 6084.8481454253197 10.043290734291075 653.85359817743301 294.13416934013367 713.57544386386871 761.84244260191917 1898.0470150560141 169.651530995965 168.58505997061729 214.33944061398506 317.51212380826473
leaf_count=2113 4646 8958 2690 14726 731 216 10057 470 236 307 3900 3365 3162 612 1153 1575 755 156 1231 19223 31 2367 1324 2777 2988 10808 608 557 926 1090
internal_value=0.0173054 0.0499929 0.0219536 -0.0507739 0.067464 0.0324858 0.0209473 0.0812488 -0.0216573 -0.0251748 0.0830257 0.0476555 0.0974657 0.0721746 0.0366327 0.0146119 -0.00901639 0.107233 -0.00353099 0.0904377 -0.0758799 -0.00741876 -0.028889 0.013719 -0.00888006 -0.0766275 0.00998076 0.00109833 -0.0428129 0.0258591
internal_weight=27060.6 18282.5 7018.51 8778.13 11264 6314.9 5106.56 1208.34 4064.43 3984.84 7485.67 2437.99 1083.37 1399.51 3778.29 1038.47 2974.8 1028.72 2803.65 6302.96 4713.7 2713.68 1346.25 1367.43 1052.12 4703.66 362.307 1062.01 382.925 679.086
internal_count=103758 61562 25024 42196 36538 22334 18330 4004 16631 16395 23854 8273 3534 4585 12684 3688 11749 3318 10994 19954 25565 10687 5543 5144 4219 25534 1220 3726 1483 2243
is_linear=0
shrinkage=0.1


Tree=10
num_leaves=31
num_cat=0
split_feature=3 8 8 8 8 8 3 13 3 7 6 8 10 10 0 5 8 7 0 7 10 7 8 4 3 7 3 8 1 8
split_gain=5036.37 830.436 528.885 369.614 334.618 689.701 273.652 245.287 286.975 373.229 287.519 204.354 181.427 161.839 160.044 150.89 187.266 223.16 145.994 128.331 118.947 117.151 167.964 116.593 120.621 114.801 110.646 188.14 123.13 122.777
threshold=4896.5000000000009 3600.5000000000005 14385.500000000002 3597.5000000000005 368.50000000000006 297.50000000000006 6739.5000000000009 1.0000000180025095e-35 1971.5000000000002 4.5000000000000009 2.5000000000000004 21596.500000000004 1.0000000180025095e-35 1.0000000180025095e-35 0.11489250138401987 1.0000000180025095e-35 290.50000000000006 1.0000000180025095e-35 0.3065164983272553 1.5000000000000002 -1.0000000180025095e-35 1.0000000180025095e-35 14385.500000000002 9.5000000000000018 199.50000000000003 2.5000000000000004 6635.5000000000009 295.50000000000006 1.0000000180025095e-35 7536.0000000000009
decision_type=2 2 2 2 2 2 2 2 2 2 2 2 2 2 2 2 2 2 2 2 2 2 2 2 2 2 2 2 2 2
left_child=1 3 20 4 5 7 19 8 9 10 15 -4 -10 -6 -11 -1 25 -18 -16 21 -3 -2 26 -19 -25 -17 28 -28 -23 -29
right_child=6 2 11 -5 13 -7 -8 -9 12 14 -12 -13 -14 -15 18 16 17 23 -20 -21 -22 22 -24 24 -26 -27 27 29 -30 -31
leaf_value=-0.017764763711758443 -0.083602251349497919 -0.0018445333748127132 0.046596978976741033 -0.059092014971972667 0.060712047736502288 -0.071052661579534368 -0.080899454694969716 0.15631458822108943 0.0044667183943487409 -0.080034661870190996 -0.0029859671805770246 -0.041092675230658182 -0.089468460486766307 0.021140133120041739 0.11723407699555062 0.092846452563739412 0.078963717115715676 -0.077314832660984267 0.026389548199695169 -0.066426373155697535 0.097007875213922998 -0.020734281440130637 -0.063475972329864169 0.15443224781437628 -0.037553459122013577 -0.065559105925366748 0.21165273549213529 -0.076040878049893235 0.076008835556167928 0.16650075550920099
leaf_weight=301.19841188192368 306.22523123025894 125.86050952970982 2855.2495719492435 491.04527096450329 3576.3237954974174 812.87511573731899 3161.8660211265087 142.54043786227703 582.57605008780956 54.713509768247604 2493.0765960216522 293.03262972831726 317.75662161409855 1453.5464700907469 746.70491106808186 999.88234062492847 326.58308072388172 233.78498555719852 231.82660247385502 1214.7356129735708 3704.2191856503487 1074.4383846968412 556.86828428506851 54.427761614322662 82.072977364063263 47.945109263062477 64.513101160526276 72.806949734687805 149.91675339639187 29.258502662181854
leaf_count=1177 1508 435 9447 1831 11647 3226 18856 420 2097 219 9450 1059 1313 4996 2502 3287 1033 939 780 6257 12118 4764 2521 155 288 175 211 355 576 116
internal_value=0.0158722 0.040992 0.0687999 0.0260058 0.0293601 0.0158737 -0.0596211 0.0265553 0.0236978 0.0321617 0.0198137 0.0384351 -0.0286861 0.0492764 0.0864055 0.0475968 0.0588806 0.0187072 0.0957118 -0.0402254 0.0937595 -0.0261053 -0.0170658 -0.0344376 0.0389982 0.0855983 0.00151475 0.077979 -0.00888852 -0.0065129
internal_weight=26557.9 19927.2 6978.36 12948.9 12457.8 7427.96 6630.63 6615.09 6472.55 5572.22 4538.97 3148.28 900.333 5029.87 1033.25 2045.89 1744.7 696.869 978.532 3468.76 3830.08 2254.03 1947.8 370.286 136.501 1047.83 1390.93 166.579 1224.36 102.065
internal_count=103758 68594 23059 45535 43704 27061 35164 23835 23415 20005 16504 10506 3410 16643 3501 7054 5877 2415 3282 16308 12553 10051 8543 1382 443 3462 6022 682 5340 471
is_linear=0
shrinkage=0.1


Tree=11
num_leaves=31
num_cat=0
split_feature=4 1 1 10 9 7 10 7 5 6 6 6 0 7 9 4 4 10 4 7 4 7 9 0 13 7 0 10 9 7
split_gain=853.169 651.301 595.065 487.989 397.395 340.518 325.132 192.39 182.421 162.286 157.289 156.542 163.698 155.52 155.297 149.039 142.157 138.334 134.601 138.285 133.292 131.781 157.9 124.066 118.011 114.466 111.099 111.077 105.49 107.475
threshold=908.50000000000011 1.0000000180025095e-35 -1.0000000180025095e-35 1.0000000180025095e-35 1.0000000180025095e-35 1.0000000180025095e-35 -1.0000000180025095e-35 1.5000000000000002 1.5000000000000002 1.5000000000000002 3.5000000000000004 4.5000000000000009 0.31261600553989416 1.5000000000000002 1.0000000180025095e-35 736.50000000000011 1.0000000180025095e-35 1.0000000180025095e-35 6.5000000000000009 2.5000000000000004 336.50000000000006 2.5000000000000004 1.0000000180025095e-35 0.27805800735950476 1.0000000180025095e-35 1.0000000180025095e-35 0.24639149755239489 1.5000000000000002 1.0000000180025095e-35 1.5000000000000002
decision_type=2 2 2 2 2 2 2 2 2 2 2 2 2 2 2 2 2 2 2 2 2 2 2 2 2 2 2 2 2 2
left_child=1 2 24 6 8 16 20 -3 26 14 13 12 15 -11 -8 18 -6 -9 21 -20 -4 22 -12 -2 -1 -22 -5 -7 29 -14
right_child=23 7 3 4 5 27 9 17 -10 10 11 -13 28 -15 -16 -17 -18 -19 19 -21 25 -23 -24 -25 -26 -27 -28 -29 -30 -31
leaf_value=0.042313388354626377 -0.093084387315302067 0.075312143116854954 -0.037503771427182836 0.072770719751790544 0.068388126271699559 -0.076260676115155857 -0.063281037470612866 0.054934009779325124 -0.080047236532650612 0.020114011462477936 0.10745165979328226 -0.008403357911005006 0.075908711407433632 -0.01463609794878095 0.12311382773386421 0.4056581540698691 -0.034769339852368561 -0.010543634815379909 0.059153070829481506 -0.081036891519928572 0.089189195547823105 0.12326845042669639 -0.027248398046780444 -0.034737642352078206 0.14901718806292685 -0.056800722056529085 0.0098771239503866216 -0.022908254654341497 -0.0042230207902650384 -0.016030664245762643
leaf_weight=4382.9845622628927 489.09119425714016 2373.8449700027704 1442.8703742027283 372.30483011901379 308.20992237329483 1761.3319780081511 53.745931521058083 778.60803866386414 184.26990357041359 4465.3622638881207 184.81763146817684 601.88830062747002 492.24620746076107 1809.8711425811052 265.53989364206791 13.45533502101898 235.78460046648979 550.99408802390099 234.58749762177467 100.5091203302145 166.67019408941269 525.73267589509487 164.46935366094112 1429.8763020634651 106.15900871157646 79.240977913141251 1143.5777474343777 501.2852687984705 663.59562189877033 171.42461678385735
leaf_count=16119 2646 8692 6037 1318 1046 8310 227 2979 798 16878 575 2320 1673 7497 1033 62 972 2392 904 563 545 1860 602 6995 330 355 4452 2184 2655 739
internal_value=0.0145671 0.0196696 0.0126758 0.00362003 -0.0242494 -0.0473611 0.0146029 0.0582544 0.0139034 0.0216213 0.0192468 0.0374695 0.0482935 0.0100916 0.0917377 0.0746778 0.0236764 0.0277997 0.0709976 0.0171044 -0.0259056 0.0916364 0.0440252 -0.0496086 0.0448367 0.0421463 0.025324 -0.0644404 0.0239706 0.052161
internal_weight=26054.3 24135.4 20431.9 15942.8 4506.76 2806.61 11436 3703.45 1700.15 9747.25 9427.96 3152.73 2550.84 6275.23 319.286 1223.57 543.995 1329.6 1210.12 335.097 1688.78 875.02 349.287 1918.97 4489.14 245.911 1515.88 2262.62 1327.27 663.671
internal_count=103758 94117 80054 63605 19080 12512 44525 14063 6568 37588 36328 11953 9633 24375 1260 4566 2018 5371 4504 1467 6937 3037 1177 9641 16449 900 5770 10494 5067 2412
is_linear=0
shrinkage=0.1


Tree=12
num_leaves=31
num_cat=0
split_feature=4 1 1 10 10 8 10 9 9 0 0 5 8 2 0 2 2 2 4 2 2 1 1 5 2 2 2 5 8 8
split_gain=715.687 500.934 448.251 281.113 303.693 301.149 228.379 225.431 209.911 168.758 167.128 165.25 156.579 154.641 220.148 201.349 173.087 155.797 134.309 119.637 131.12 118.768 113.506 106.802 106.666 158.91 185.113 105.631 104.68 104.609
threshold=366.50000000000006 1.0000000180025095e-35 -1.0000000180025095e-35 1.0000000180025095e-35 -1.0000000180025095e-35 57.500000000000007 1.0000000180025095e-35 1.0000000180025095e-35 1.0000000180025095e-35 0.98220250010490429 0.32356899976730352 4.5000000000000009 3600.5000000000005 18830.000000000004 0.32356899976730352 53827.500000000007 55324.000000000007 13218.000000000002 336.50000000000006 20017.000000000004 20976.500000000004 1.0000000180025095e-35 -1.0000000180025095e-35 1.5000000000000002 24456.000000000004 33487.000000000007 33505.500000000007 1.0000000180025095e-35 3592.5000000000005 21594.500000000004
decision_type=2 2 2 2 2 2 2 2 2 2 2 2 2 2 2 2 2 2 2 2 2 2 2 2 2 2 2 2 2 2
left_child=1 2 -1 4 18 27 10 12 -8 -3 -2 -9 23 14 -7 19 -17 -16 -4 -15 -21 22 -12 28 -22 -26 -27 -6 -5 -14
right_child=6 9 3 7 5 13 8 11 -10 -11 21 -13 29 15 17 16 -18 -19 -20 20 24 -23 -24 -25 25 26 -28 -29 -30 -31
leaf_value=0.044794976015281582 -0.043034573608497599 0.074350236293681177 -0.034134142548219996 0.018631651349442304 -0.011557874457569606 0.029292614852388189 0.0088792458838462159 -0.041852507942861647 -0.070215902929004897 0.022251858870106285 0.037969478566809635 0.07023566904302285 0.073538592582905044 0.094932905033317902 0.012344654092880891 -0.084843472576016946 0.015102236429987642 -0.043747923803734767 0.076306956376996984 -0.073178676004784296 0.094305769673866766 0.052864362750443983 -0.02044701845005498 -0.086422122745588928 0.0068902259544145854 0.21342386183668483 0.046788703529308036 0.087499914900959125 -0.084069738938093191 -0.06817511895084398
leaf_weight=3913.784860253334 822.5864322334528 2109.0986017137766 1427.6086119115353 720.73149308562279 123.29087299108505 1531.7881638258696 448.44714766740799 2257.9504714012146 1332.5906701982021 881.66047877073288 472.76921890676022 139.66492667794228 470.33828744292259 349.39793394505978 837.40148319303989 251.62272992730141 556.48896932601929 1211.5877614170313 119.31789959967136 111.70363773405552 294.41689090430737 496.81119231879711 1122.0172421187162 152.85519045591354 1354.9510782957077 70.477579489350319 1232.6837890297174 848.54620687663555 115.09385505318642 58.575848609209061
leaf_count=14201 4001 7762 6037 2677 478 5890 2024 9930 7197 3477 1861 497 1670 1216 3165 1123 2050 5090 396 484 994 1912 5253 683 5241 210 4388 3097 500 254
internal_value=0.0132275 0.021071 0.0148225 0.00658274 0.0152374 0.0224398 -0.0220893 -0.0162327 -0.0503006 0.0589919 -0.00484772 -0.0353232 0.013928 0.0159016 0.000615247 0.028867 -0.016018 -0.0208234 -0.0256156 0.0394927 0.0331711 0.0101705 -0.00312964 -0.00956584 0.0371947 0.030869 0.0558007 0.0749331 0.00448958 0.0578442
internal_weight=25836.3 21141 18150.3 14236.5 10321.3 8774.36 4695.22 3915.21 1781.04 2990.76 2914.18 2397.62 1517.59 7802.52 3580.78 4221.74 808.112 2048.99 1546.93 3413.63 3064.23 2091.6 1594.79 988.681 2952.53 2658.11 1303.16 971.837 835.825 528.914
internal_count=103758 81510 70271 56070 39859 33426 22248 16211 9221 11239 13027 10427 5784 29851 14145 15706 3173 8255 6433 12533 11317 9026 7114 3860 10833 9839 4598 3575 3177 1924
is_linear=0
shrinkage=0.1


Tree=13
num_leaves=31
num_cat=0
split_feature=3 2 3 2 5 1 7 2 3 3 3 4 10 2 10 10 9 1 2 2 2 0 2 6 9 2 2 2 3 2
split_gain=3989.52 579.563 444.464 350.097 265.48 240.85 181.818 335.153 288.748 222.332 205.082 139.82 132.35 116.972 113.359 162.222 158.733 119.028 112.573 111.107 228.663 173.686 153.208 135.135 251.926 107.198 132.768 104.279 97.4208 96.6144
threshold=3793.5000000000005 18265.500000000004 6079.5000000000009 20017.000000000004 1.5000000000000002 -1.0000000180025095e-35 4.5000000000000009 15141.000000000002 1.0000000180025095e-35 1150.5000000000002 150.50000000000003 13.500000000000002 -1.0000000180025095e-35 12877.000000000002 1.0000000180025095e-35 -1.0000000180025095e-35 1.0000000180025095e-35 1.0000000180025095e-35 20976.500000000004 53827.500000000007 133650.50000000003 0.30047351121902471 59301.000000000007 2.5000000000000004 1.0000000180025095e-35 55067.000000000007 61300.500000000007 61983.500000000007 7839.5000000000009 14601.500000000002
decision_type=2 2 2 2 2 2 2 2 2 2 2 2 2 2 2 2 2 2 2 2 2 2 2 2 2 2 2 2 2 2
left_child=1 5 11 -3 12 -1 8 -8 -7 -9 29 -2 -5 -12 15 -13 -16 -17 -14 23 21 25 -23 -20 -25 -21 -27 -6 -4 -10
right_child=2 3 28 4 27 6 7 9 10 -11 13 14 18 -15 16 17 -18 -19 19 20 -22 22 -24 24 -26 26 -28 -29 -30 -31
leaf_value=0.063549338594102583 0.077683778817709201 0.10412250405498631 -0.058863270650285418 -0.013618232863453768 -0.067112595990811236 -0.013004356295878559 -0.025418126193916077 0.10819906478418678 0.12605554826066487 -0.10148701275730249 0.048186671637580211 -0.092111564598581608 -0.023697943499751583 -0.0039265395316604749 0.0028689529354297902 -0.014740281513444801 -0.073573176679602795 0.045607983424937867 0.07062003682471564 -0.12898102909580703 0.07574988944338551 0.075925140281196971 -0.029838353476999549 0.063647398557624857 -0.024567812959801101 0.079449460130294927 -0.097779166824073227 0.085210476258146275 -0.093832902384781883 -0.036272857761159377
leaf_weight=1035.7467723637819 138.60645267367363 1283.6057178974152 3255.2726791650057 299.76041015982628 265.55322542786598 3508.4047520011663 383.05007945001125 630.24927447736263 293.02209077775478 54.977579012513161 803.75941246747971 232.62508651614189 181.67090082168579 927.99565555155277 398.60755091905594 1930.6008708775043 852.84255957603455 393.4301972836256 4558.9929283410311 135.72877581417561 670.87648765742779 322.44071979820728 238.10640130937099 1035.7779535204172 470.91870076954365 84.070984467864037 85.012290298938751 54.099492967128754 1054.7894009798765 41.909050062298775
leaf_count=3428 484 4418 18782 1040 992 13556 1451 2338 883 216 2652 1092 656 3298 1632 7991 4071 1361 15678 637 2225 1069 853 3417 1837 271 317 171 6783 159
internal_value=0.0120062 0.039215 -0.0452194 0.0554807 0.0480504 0.018697 0.0117042 0.049497 0.00446253 0.0913754 0.0341143 -0.0209736 0.051585 0.0202608 -0.0245645 -0.0124935 -0.0492251 -0.00452405 0.0540961 0.0559552 0.0319326 -0.0020371 0.0309995 0.0620393 0.0360757 -0.0627911 -0.00965818 -0.0413327 -0.0674213 0.105744
internal_weight=25622.5 17365.7 8256.77 9686.61 8403.01 7679.11 6643.37 1068.28 5575.09 685.227 2066.69 3946.71 8083.36 1731.76 3808.11 2556.66 1251.45 2324.03 7783.6 7601.93 1536.24 865.359 560.547 6065.69 1506.7 304.812 169.083 319.653 4310.06 334.931
internal_count=103758 61562 42196 33581 29163 27981 24553 4005 20548 2554 6992 16631 28000 5950 16147 10444 5703 9352 26960 26304 5372 3147 1922 20932 5254 1225 588 1163 25565 1042
is_linear=0
shrinkage=0.1


Tree=14
num_leaves=31
num_cat=0
split_feature=3 8 3 8 13 8 8 8 7 2 2 2 2 7 5 4 3 8 8 3 8 3 9 2 2 7 2 2 2 2
split_gain=3309.23 545.759 407.649 390.468 213.319 210.038 227.766 439.075 201.267 235.679 264.419 238.235 206.422 197.953 178.618 163.231 147.823 146.976 140.221 135.786 131.049 130.332 162.38 147.49 121.803 120.77 120.603 221.892 157.783 315.891
threshold=3793.5000000000005 3600.5000000000005 6739.5000000000009 14382.500000000002 1.0000000180025095e-35 3597.5000000000005 368.50000000000006 297.50000000000006 4.5000000000000009 17508.500000000004 13420.500000000002 7859.5000000000009 14262.000000000002 2.5000000000000004 1.5000000000000002 -1.0000000180025095e-35 1.0000000180025095e-35 8040.0000000000009 21588.500000000004 742.50000000000011 21591.500000000004 1.0000000180025095e-35 1.0000000180025095e-35 24456.000000000004 16260.500000000002 2.5000000000000004 1.0000000180025095e-35 6638.0000000000009 16625.500000000004 20017.000000000004
decision_type=2 2 2 2 2 2 2 2 2 2 2 2 2 2 2 2 2 2 2 2 2 2 2 2 2 2 2 2 2 2
left_child=1 5 4 -3 14 6 7 8 9 10 11 16 -10 -11 15 -2 -1 -16 -5 -13 26 22 -8 -24 -14 -12 -17 -28 -29 -30
right_child=2 3 -4 18 -6 -7 21 -9 12 13 25 19 24 -15 17 20 -18 -19 -20 -21 -22 -23 23 -25 -26 -27 27 28 29 -31
leaf_value=-0.025981593946101052 0.11838653460333855 0.085735810356894704 -0.072233855405644656 0.044965156197628114 0.14172128208022727 -0.048780722846540961 0.048944949958221365 -0.061798873506882172 -0.029613429752755743 0.059820563315184289 -0.049033365833626483 0.078249572050169247 0.10779874409097581 -0.10435322072476971 -0.095888467857785042 -0.097368966989048511 0.046863826160948426 0.058628584362391878 -0.011511799565013588 -0.0020622401957106772 -0.094471351332550815 0.057586875083493839 0.041610692613269544 -0.051191165030831848 0.024738593688744172 0.096981566615943218 0.090834469766021067 -0.058332798257303621 0.075360754464439642 -0.022311736325466878
leaf_weight=1086.2064933180809 82.75530780851841 3026.9452691674232 2847.3487154692411 2193.4680215120316 75.474069133400917 391.58737650513649 947.49089442193508 682.90248164534569 197.80313844978809 1253.9793896377087 1005.3982433825731 740.49582730233669 608.84962984919548 78.012687042355537 542.2139634937048 188.53500294685364 374.65873615443707 69.443554937839508 549.80422174930573 294.1467075496912 244.86044542491436 2626.2763244658709 284.78660234808922 429.59783342480659 248.65645261108875 60.027649939060211 186.98244950175285 863.72101224958897 380.03452335298061 2572.9036496728659
leaf_count=4572 285 10942 18856 7668 247 1427 3109 2690 754 4466 4136 2383 2384 305 2936 979 1254 293 1894 1018 1214 8729 942 1827 866 196 748 4150 1438 11050
internal_value=0.0110293 0.0359452 -0.041811 0.0609714 -0.0251746 0.0231781 0.0257587 0.0141445 0.0228634 0.0143206 0.000897788 0.018703 0.0624717 0.0502052 -0.0276293 -0.0207659 -0.0072994 -0.0783456 0.0336461 0.0554171 -0.0233613 0.0437187 0.0218027 -0.0141961 0.0837133 -0.0408067 -0.0192078 -0.0155271 -0.0207379 -0.00974157
internal_weight=25135.4 17081.1 8054.27 5770.22 5206.92 11310.9 10919.3 6631.14 5948.23 4892.93 3560.93 2495.51 1055.31 1331.99 5131.45 4519.79 1460.87 611.658 2743.27 1034.64 4437.04 4288.15 1661.88 714.384 857.506 1065.43 4192.18 4003.64 3816.66 2952.94
internal_count=103758 61562 42196 20504 23340 41058 39631 25024 22334 18330 13559 9227 4004 4771 23093 19864 5826 3229 9562 3401 19579 14607 5878 2769 3250 4332 18365 17386 16638 12488
is_linear=0
shrinkage=0.1


Tree=15
num_leaves=31
num_cat=0
split_feature=3 8 8 3 8 8 13 10 3 9 7 2 2 2 3 13 8 2 2 2 2 8 2 2 2 2 3 2 2 2
split_gain=2765.12 486.924 398.997 248.13 218.509 210.572 192.02 178.472 194.173 176.728 239.401 336.786 251.191 191.805 157.899 152.028 149.364 137.68 133.633 148.76 209.826 124.448 123.805 407.514 116.784 109.676 106.04 112.809 101.601 187.768
threshold=4577.5000000000009 3600.5000000000005 14385.500000000002 6809.5000000000009 3597.5000000000005 908.00000000000011 1.0000000180025095e-35 1.0000000180025095e-35 2382.5000000000005 1.0000000180025095e-35 1.0000000180025095e-35 13457.000000000002 15007.000000000002 16519.000000000004 419.50000000000006 1.0000000180025095e-35 3584.5000000000005 262627.00000000006 52227.500000000007 16625.500000000004 20017.000000000004 21599.500000000004 33221.000000000007 33505.500000000007 13218.000000000002 36989.000000000007 5649.5000000000009 29550.500000000004 53827.500000000007 55067.000000000007
decision_type=2 2 2 2 2 2 2 2 2 2 2 2 2 2 2 2 2 2 2 2 2 2 2 2 2 2 2 2 2 2
left_child=1 4 -3 15 5 6 7 9 25 -1 12 -12 14 -14 -11 18 28 -13 19 24 -21 -4 26 -24 -2 -9 27 -22 -7 -30
right_child=3 2 21 -5 -6 16 -8 8 -10 10 11 17 13 -15 -16 -17 -18 -19 -20 20 22 -23 23 -25 -26 -27 -28 -29 29 -31
leaf_value=0.0051953151751139267 -0.021815238539211895 0.077103323513697058 0.028956215850346953 -0.069722116226860767 -0.049356736075421848 0.071307486031995299 0.14779226592847766 0.012532915734541454 -0.070298128425556911 0.10553640215507556 -0.0072222362912582848 0.087841102034019486 -0.077900499630296133 0.097112014147401754 -0.056591026706498029 0.13034343657962363 0.013269421723027695 -0.12554297334152195 -0.087659763739631469 0.063972806661738588 0.021506744766214579 -0.11672933069621599 0.22167228879733081 -0.017195686930816387 -0.079079219686836899 -0.053679916552968443 -0.070998162585183058 -0.078581262414081005 -0.092286989448523621 0.074230012652024266
leaf_weight=3291.3753165900707 691.74067408591509 3279.0043181180954 2775.6006522476673 2545.2890876755118 454.62827567756176 1586.7665104418993 105.24148064851761 1646.9388679116964 451.97698540985584 230.31738962233067 573.84286922216415 1418.3538141548634 416.42871397733688 73.704807549715042 81.266963690519333 58.364874452352524 978.25404119491577 30.896298795938492 392.16500446945429 327.95610926300287 358.78109358251095 59.900183334946632 80.673374846577644 622.74917756021023 734.07845909893513 294.97021624445915 622.25605071336031 164.12471203505993 114.76735508441925 165.18525010347366
leaf_count=12318 3482 12204 9725 17692 1711 5247 328 5953 1919 731 2100 5519 1871 235 309 209 3371 117 2035 1312 1463 249 236 2825 4112 1255 3382 749 562 537
internal_value=0.0101375 0.0304081 0.0533487 -0.0452517 0.0186355 0.0213327 0.0135433 0.011883 -0.0112646 0.0209431 0.0392918 0.057618 -0.00695319 -0.0515826 0.0632506 -0.0298838 0.0449211 0.083292 -0.0322249 -0.0261901 -0.00974263 0.0258786 -0.0228204 0.0101993 -0.0512974 0.00247538 -0.043103 -0.00990793 0.0615082 0.0059659
internal_weight=24627.6 18029.4 6114.51 6598.18 11914.9 11460.3 8615.31 8510.07 2393.89 6116.19 2824.81 2023.09 801.718 490.134 311.584 4052.89 2844.97 1449.25 3994.52 3602.36 2176.54 2835.5 1848.58 703.423 1425.82 1941.91 1145.16 522.906 1866.72 279.953
internal_count=103758 66261 22178 37497 44083 42372 32655 32327 9127 23200 10882 7736 3146 2106 1040 19805 9717 5636 19596 17561 9967 9974 8655 3061 7594 7208 5594 2212 6346 1099
is_linear=0
shrinkage=0.1


Tree=16
num_leaves=31
num_cat=0
split_feature=4 1 1 10 9 7 10 2 2 7 6 2 7 2 4 4 7 2 7 2 2 2 2 2 2 7 2 2 2 4
split_gain=448.354 394.919 296.379 281.425 212.181 255.068 172.928 120.432 173.641 173.841 159.911 192.574 190.666 150.051 146.452 221.242 142.563 142.19 140.589 138.849 180.997 184.678 150.924 128.321 122.287 117.147 117.018 157.838 115.57 105.07
threshold=952.50000000000011 1.0000000180025095e-35 -1.0000000180025095e-35 1.0000000180025095e-35 1.0000000180025095e-35 1.0000000180025095e-35 -1.0000000180025095e-35 18830.000000000004 20017.000000000004 2.5000000000000004 2.5000000000000004 6706.5000000000009 3.5000000000000004 14622.500000000002 9.5000000000000018 736.50000000000011 1.5000000000000002 20976.500000000004 1.0000000180025095e-35 53827.500000000007 33487.000000000007 24456.000000000004 55067.000000000007 33505.500000000007 7859.5000000000009 1.5000000000000002 19068.500000000004 62696.500000000007 203250.50000000003 62.500000000000007
decision_type=2 2 2 2 2 2 2 2 2 2 2 2 2 2 2 2 2 2 2 2 2 2 2 2 2 2 2 2 2 2
left_child=1 2 -1 6 26 -6 -4 10 -9 17 11 -8 13 16 -14 -16 29 -10 -15 20 21 -19 -21 -22 -13 -3 -5 -28 -27 -12
right_child=-2 25 3 4 5 -7 7 8 9 -11 12 24 14 18 15 -17 -18 19 -20 22 23 -23 -24 -25 -26 28 27 -29 -30 -31
leaf_value=0.030884313492973599 -0.041327614105892016 0.058623903438672013 -0.020786011473974728 -0.028726987801372245 0.023833454291459097 -0.054422306662775644 0.045803929228675544 0.088089883100292782 -0.07338272360426433 -0.037875303535918461 0.08198930119388298 -0.12590081710625933 0.093429861528124117 -0.064410495546407973 -0.063042997058357961 0.33824855567606904 -0.028659543318526895 0.088954424450434555 0.03848859841156288 -0.073489604149922477 0.17245284522202364 0.00062578481977122594 0.021537956100790338 0.056524402885091231 -0.025616138865744559 0.011513856427508478 0.040211887945297481 -0.09207710120400564 0.12909577889029075 -0.0014598813466009919
leaf_weight=4196.1162194609642 1631.0308701768517 2141.9989665001631 1612.278295211494 576.19375590980053 520.74840147793293 2080.7241649702191 373.31198553740978 404.93428311496973 137.89965987205505 469.37045120447874 436.45359466969967 132.85010895133018 485.57495418190956 463.82340739667416 130.56698034703732 15.354436308145521 313.04126668721437 287.64021691679955 186.03557386249304 241.22010017186403 102.49083831906319 1336.815119639039 544.15065462887287 1396.1242329478264 1435.1390780135989 1153.3243723884225 937.18027787655592 99.794917345046997 90.124322205781937 230.59708078205585
leaf_count=16550 9213 8739 6946 2469 2029 10569 1435 1554 638 2078 1441 604 2117 2101 771 69 1328 1073 756 1219 320 5498 2100 5497 6130 5069 3702 418 333 992
internal_value=0.00930186 0.0129668 0.00739984 0.000808433 -0.0210888 -0.0387575 0.00940493 0.0147402 0.0253584 0.0197331 0.00230835 -0.0187449 0.0203812 0.00230769 0.0670304 -0.0208175 0.0270141 0.0264156 -0.0349535 0.0299368 0.0393886 0.016266 -0.00764897 0.0644528 -0.0341129 0.0444509 0.00740446 0.0274809 0.0200361 0.0531412
internal_weight=24162.9 22531.9 19146.4 14950.3 4214.64 2601.47 10735.7 9123.39 4920.65 4515.71 4202.75 1941.3 2261.45 1629.95 631.496 145.921 980.092 4046.34 649.859 3908.44 3123.07 1624.46 785.371 1498.62 1567.99 3385.45 1613.17 1036.98 1243.45 667.051
internal_count=103758 94545 80404 63854 19187 12598 44667 37721 19977 18423 17744 8169 9575 6618 2957 840 3761 16345 2857 15707 12388 6571 3319 5817 6734 14141 6589 4120 5402 2433
is_linear=0
shrinkage=0.1


Tree=17
num_leaves=31
num_cat=0
split_feature=3 3 3 8 3 8 2 2 3 4 13 8 6 7 8 4 7 9 2 8 2 9 8 10 6 13 10 8 4 4
split_gain=2288.82 411.833 319.386 295.197 301.606 268.354 188.887 178.379 156.468 142.851 138.99 152.25 131.596 124.71 284.047 122.892 122.134 202.372 179.304 116.55 114.917 94.6879 136.288 121.248 90.5815 89.8822 90.3335 91.8421 129.002 330.705
threshold=3650.5000000000005 1.0000000180025095e-35 6079.5000000000009 368.50000000000006 383.50000000000006 290.50000000000006 13457.000000000002 13420.500000000002 3008.5000000000005 199.50000000000003 1.0000000180025095e-35 368.50000000000006 1.5000000000000002 1.0000000180025095e-35 -1.0000000180025095e-35 3.5000000000000004 4.5000000000000009 1.0000000180025095e-35 16260.500000000002 1440.5000000000002 15141.000000000002 1.0000000180025095e-35 577.50000000000011 1.0000000180025095e-35 4.5000000000000009 1.0000000180025095e-35 1.0000000180025095e-35 296.50000000000006 326.50000000000006 267.50000000000006
decision_type=2 2 2 2 2 2 2 2 2 2 2 2 2 2 2 2 2 2 2 2 2 2 2 2 2 2 2 2 2 2
left_child=1 6 10 4 -3 -6 7 13 24 12 11 15 -8 14 -1 -2 17 -14 -18 20 -19 22 -13 -23 -5 26 27 28 29 -4
right_child=2 3 25 8 5 -7 9 -9 -10 -11 -12 21 16 -15 -16 -17 18 19 -20 -21 -22 23 -24 -25 -26 -27 -28 -29 -30 -31
leaf_value=-0.016770689259444735 0.1168877273739746 0.073135343635884587 -0.056167653926963726 0.064743615580560604 0.026650953264170454 -0.058843468228639985 0.10214489563889662 -0.13088831772999016 0.017581880727495922 -0.14212414385988811 0.13092783276897749 0.15502161524496838 0.037924012561139808 -0.019865573747546453 0.092671545164853764 -0.060886503409477682 0.090424249741153692 0.10562887119126035 -0.0014941435219118992 0.023153232480497773 -0.035581916651235383 -0.0013366152724797349 0.002195129771643739 -0.064261963583810353 -0.015141883691937488 0.24326540862799298 -0.076904995928885014 -0.054379102671387451 -0.062157771243061183 0.18864185649106913
leaf_weight=619.77511587738991 40.615589290857315 591.04527871310711 128.78014566749334 5262.2815006226301 826.87498299777508 660.33751620352268 220.51986157894135 112.94312557578087 901.15027731657028 50.670450925827026 63.256641581654549 60.417250469326973 1934.7167548835278 1598.4770473092794 384.13070528209209 912.75280109792948 568.08844263851643 60.86555603146553 338.77346402406693 725.51299451291561 1084.1224909722805 707.71696434915066 1707.6528442054987 539.74963933229446 145.87420363724232 9.978743448853491 1450.0461909994483 1945.9354752004147 196.32203848659992 96.550656452775002
leaf_count=2746 138 1980 804 19435 2860 2544 1117 630 3306 210 236 190 6816 5963 1279 4785 2510 202 1203 2720 4651 2761 6864 2528 519 31 10808 12118 1399 405
internal_value=0.0084535 0.0300642 -0.0357759 0.0453935 0.0127062 -0.0113094 0.0133631 -0.00785676 0.0561606 0.0249255 -0.0161357 -0.0184796 0.0266415 -0.00251721 0.0251059 -0.0533129 0.0231081 0.0152486 0.0560866 -0.0082053 -0.0280754 -0.00746694 0.00741741 -0.0285629 0.0625889 -0.0564658 -0.0572493 -0.045211 -0.00289984 0.0487293
internal_weight=23945.9 16086.2 7859.77 8387.56 2078.26 1487.21 7698.6 2715.33 6309.31 4983.27 4032.16 3968.91 4932.6 2602.38 1003.91 953.368 4712.08 3805.22 906.862 1870.5 1144.99 3015.54 1768.07 1247.47 5408.16 3827.61 3817.63 2367.59 421.653 225.331
internal_count=103758 60691 43067 30644 7384 5404 30047 10618 23260 19429 17502 17266 19219 9988 4025 4923 18102 14389 3713 7573 4853 12343 7054 5289 19954 25565 25534 14726 2608 1209
is_linear=0
shrinkage=0.1


Tree=18
num_leaves=31
num_cat=0
split_feature=3 3 3 8 3 8 2 2 8 8 8 13 2 2 2 2 8 8 10 0 7 2 10 8 2 2 8 2 2 8
split_gain=1897.97 343.727 288.933 260.057 239.688 182.309 155.958 189.512 133.972 216.777 203.491 133.73 122.255 143.915 218.163 132.835 102.904 141.318 121.2 111.431 139.234 105.119 97.6625 94.4205 111.092 232.854 113.555 110.875 106.268 92.944
threshold=3650.5000000000005 1.0000000180025095e-35 6809.5000000000009 3600.5000000000005 150.50000000000003 14382.500000000002 6941.0000000000009 6852.0000000000009 368.50000000000006 290.50000000000006 3588.5000000000005 1.0000000180025095e-35 53313.000000000007 16625.500000000004 20017.000000000004 13218.000000000002 -1.0000000180025095e-35 57.500000000000007 1.0000000180025095e-35 0.34322549402713781 4.5000000000000009 15141.000000000002 -1.0000000180025095e-35 14385.500000000002 33221.000000000007 33505.500000000007 300.50000000000006 29550.500000000004 20976.500000000004 1997.5000000000002
decision_type=2 2 2 2 2 2 2 2 2 2 2 2 2 2 2 2 2 2 2 2 2 2 2 2 2 2 2 2 2 2
left_child=1 6 11 4 -3 -5 7 -1 9 -6 29 12 13 15 -15 22 -8 18 -18 20 -19 -22 -2 24 27 -26 -27 28 -16 -10
right_child=2 3 -4 5 8 -7 16 -9 10 -11 -12 -13 -14 14 23 -17 17 19 -20 -21 21 -23 -24 -25 25 26 -28 -29 -30 -31
leaf_value=-0.010105883799825259 -0.096884713223826871 0.082786505929343585 -0.062521633463162349 0.083410967097426056 0.027889196057869048 0.037734861101377214 -0.1117979358402313 -0.22622524281143505 0.03473262496906087 -0.043549515040662089 -0.021906633792122963 0.12537743903752802 -0.068630550219522843 0.058885249913229111 -0.11516977408984144 -0.065470083886647032 0.082126512250772499 0.01706597172002644 -0.0035507045091737197 0.0011480726057594944 -0.098189399192261093 0.085257727546657738 0.0014250164488419526 -0.047875758495471127 0.18485488949414097 -0.078757288444987833 0.028537221507401702 -0.070119798777474096 0.0093973968422507177 0.085238507084121104
leaf_weight=1531.0388375222683 116.28179154545069 648.95046293735504 2320.8194441497326 1889.8201300054789 956.01822757720947 1625.4087954312563 59.082847982645035 41.678648576140404 1313.6529433429241 764.37746503949165 525.58057694137096 62.300051763653755 508.1293777897954 472.11963357776403 75.598903901875019 934.51304824650288 610.1222338527441 1778.6905349045992 226.36811240017414 2796.4984509944916 33.214396134018898 524.47345747053623 771.40891782194376 654.25157748907804 83.318890020251274 124.06900429725647 481.26804117113352 344.75324913114309 727.77834266424179 504.22035422921181
leaf_count=6242 662 2234 17692 7871 3314 6041 231 179 4631 2910 1901 247 2554 1783 426 5321 2604 6746 844 10719 130 2352 3650 3013 238 614 1965 1735 3167 1742
internal_value=0.0077539 0.0275424 -0.03305 0.0417058 0.0263518 0.0622908 0.0122108 -0.0158333 0.0173398 -0.00385126 0.0328967 -0.020279 -0.0219933 -0.0170412 -0.00344187 -0.0391555 0.0195271 0.0208269 0.0589408 0.0146155 0.0307353 0.0743321 -0.0114529 -0.0152546 -0.0036351 0.0281194 0.00654629 -0.0226817 -0.00232455 0.0487414
internal_weight=23505.8 15829.2 7676.61 8228.03 4712.8 3515.23 7601.17 1572.72 4063.85 1720.4 2343.45 5355.79 5293.49 4785.36 2963.16 1822.2 6028.45 5969.37 836.49 5132.88 2336.38 557.688 887.691 2491.04 1836.79 688.656 605.337 1148.13 803.377 1817.87
internal_count=103758 60691 43067 30644 16732 13912 30047 6421 14498 6224 8274 25375 25128 22574 12941 9633 23626 23395 3448 19947 9228 2482 4312 11158 8145 2817 2579 5328 3593 6373
is_linear=0
shrinkage=0.1


Tree=19
num_leaves=31
num_cat=0
split_feature=1 4 1 10 0 10 5 5 1 10 10 8 0 0 8 8 8 6 2 8 6 13 6 0 0 8 2 5 2 9
split_gain=340.989 301.35 219.213 195.485 154.896 154.114 151.121 193.337 142.2 128.572 125.096 188.17 132.315 118.363 107.923 159.883 128.106 122.67 139.506 106.882 105.997 89.132 118.901 113.064 81.3863 79.2396 83.008 74.7924 73.1396 72.6062
threshold=1.0000000180025095e-35 971.50000000000011 -1.0000000180025095e-35 1.0000000180025095e-35 0.46325699985027319 1.5000000000000002 1.5000000000000002 4.5000000000000009 -1.0000000180025095e-35 1.0000000180025095e-35 -1.0000000180025095e-35 57.500000000000007 8.8122830390930194 1.670894503593445 621.50000000000011 14381.500000000002 284.50000000000006 3.5000000000000004 32246.000000000004 21599.500000000004 4.5000000000000009 1.0000000180025095e-35 2.5000000000000004 0.50525251030921947 0.10660050064325334 14387.500000000002 24640.000000000004 3.5000000000000004 43825.000000000007 1.0000000180025095e-35
decision_type=2 2 2 2 2 2 2 2 2 2 2 2 2 2 2 2 2 2 2 2 2 2 2 2 2 2 2 2 2 2
left_child=1 2 14 10 6 29 20 -8 -3 13 -4 28 19 25 16 -16 -1 18 -18 24 -5 22 23 -11 -13 -2 -27 -26 -12 -6
right_child=9 8 3 4 5 -7 7 -9 -10 21 11 12 -14 -15 15 -17 17 -19 -20 -21 -22 -23 -24 -25 27 26 -28 -29 -30 -31
leaf_value=0.047838447036326059 0.071523527176746565 0.014056516513478418 -0.019320874681218986 0.023298314633838735 -0.023909754130577304 0.014637210453612881 -0.076932259791733903 0.074596422336583743 -0.066828338552256464 0.06624661995448608 0.036132057691128518 0.055208316952634451 0.10610997092136693 -0.0030455262012842568 0.056229045206348055 0.0063346810220782784 -0.0030539528413043339 0.045321072109428942 -0.095917359623835435 -0.12168385870992243 -0.067092497052001196 0.15420799716823597 -0.044115429950713526 -0.0055238852274322823 0.0053312159074760772 0.065017382557209277 -0.022151210013545725 -0.057828978265533085 0.098935188559092668 -0.069620776423681349
leaf_weight=418.38400470465422 1443.7863966375589 287.56353229284286 1574.1708071902394 1432.2255158275366 527.66599617898464 414.80647251009941 422.42062162607908 105.16589783877134 890.21406053751707 381.21834655851126 606.55993302166462 319.8342522829771 130.92239897698164 350.79735240340233 1674.3722166866064 1041.879736572504 401.52112121134996 221.60017759352922 270.93028684705496 66.306814454495907 142.65222168713808 41.80452373623848 345.33265426009893 517.42274236679077 7172.34861792624 226.3334403783083 211.17044336348772 192.51937127113342 267.08644612133503 1017.5908596664667
leaf_count=1672 6206 1419 6949 6189 2330 1889 2259 418 6009 1664 2410 1294 476 1584 6852 4434 1618 866 1134 379 697 137 1781 2514 31025 931 936 837 1365 5484
internal_value=0.00710539 0.00195981 0.00509524 -0.000676331 -0.0192603 -0.0394835 -0.000406773 -0.0467275 -0.0470797 0.0357724 0.00663245 0.0112986 0.00641789 0.0502822 0.0257139 0.0370909 0.00216761 -0.0192047 -0.0404686 0.00473399 0.0151107 0.0105837 0.00575715 0.0249223 0.00582477 0.060226 0.0229436 0.00368019 0.0553319 -0.0540116
internal_weight=23116.6 19598.7 18421 14392.3 4062.53 1960.06 2102.46 527.587 1177.78 3517.87 10329.7 8755.58 7881.93 2232.09 4028.69 2716.25 1312.44 894.052 672.451 7751.01 1574.88 1285.78 1243.97 898.641 7684.7 1881.29 437.504 7364.87 873.646 1545.26
internal_count=103758 88005 80577 64001 19266 9703 9563 2677 7428 15753 44735 37786 34011 9657 16576 11286 5290 3618 2752 33535 6886 6096 5959 4178 33156 8073 1867 31862 3775 7814
is_linear=0
shrinkage=0.1


Tree=20
num_leaves=31
num_cat=0
split_feature=3 8 8 13 3 6 5 3 4 8 8 7 8 8 2 2 7 4 6 3 8 13 2 8 8 10 10 9 2 2
split_gain=1553.94 290.234 304.016 187.011 219.786 150.351 139.647 137.473 133.558 122.234 109.83 107.942 105 136.187 147.279 114.549 108.081 130.888 137.128 123.593 102.642 101.007 100.852 99.1185 86.1622 90.7919 110.454 106.977 88.7672 171.404
threshold=4939.5000000000009 3600.5000000000005 14382.500000000002 1.0000000180025095e-35 2775.5000000000005 4.5000000000000009 1.5000000000000002 7839.5000000000009 1.0000000180025095e-35 3588.5000000000005 21588.500000000004 1.5000000000000002 3597.5000000000005 908.00000000000011 55023.500000000007 55067.000000000007 4.5000000000000009 320.50000000000006 1.5000000000000002 1675.5000000000002 1799.5000000000002 1.0000000180025095e-35 197700.50000000003 1.0000000180025095e-35 21591.500000000004 1.0000000180025095e-35 -1.0000000180025095e-35 1.0000000180025095e-35 6706.5000000000009 6326.0000000000009
decision_type=2 2 2 2 2 2 2 2 2 2 2 2 2 2 2 2 2 2 2 2 2 2 2 2 2 2 2 2 2 2
left_child=1 3 11 4 5 12 8 21 -6 20 -4 -3 13 16 -15 -16 17 18 -1 23 -10 24 -7 -18 25 26 -2 -27 29 -28
right_child=7 2 10 -5 6 22 -8 -9 9 -11 -12 -13 -14 14 15 -17 19 -19 -20 -21 -22 -23 -24 -25 -26 27 28 -29 -30 -31
leaf_value=0.076999141239115554 -0.086624364241751586 0.070959320443208851 0.026529863963523616 0.13073917372479582 0.13139798289091978 -0.040384785471913646 -0.074835723750245317 -0.078267488403756302 -0.012391654627461056 -0.069288553687795906 -0.020606102347969776 0.019155656976440547 -0.036955718716223697 0.055789513338240462 -0.1192801055820564 0.021369772945202991 -0.13770863243608714 0.048921059989548293 2.6649207621994367e-05 -0.05818195031136314 0.060884712641722662 0.15833483272331869 0.085140809539403617 0.064813157384068329 -0.091803031800892484 -0.010666967478433237 0.013707481106394715 -0.069624104026640307 -0.020481833609602859 0.29338744033737191
leaf_weight=243.89814335107803 236.04085575044155 2389.513933762908 2380.2752092629671 130.58460941910744 66.934071809053421 632.13578803837299 370.40978437662125 818.9630600810051 1078.6090546697378 309.35162216424942 623.89589768648148 483.63423950970173 308.27750474214554 1740.5591995865107 85.83045069873333 177.96777008473873 24.893484547734261 748.79654183983803 4534.4046309739351 100.83157558739185 232.33612844347954 27.205434635281563 71.21690522134304 827.33964541554451 251.58868487179279 440.74867099523544 172.13821645826101 1020.008386425674 2395.1916213482618 25.109089538455009
leaf_count=1365 1592 10207 8873 500 202 2406 1886 6783 4083 1261 2245 1842 1121 6135 482 635 122 2596 17770 404 796 98 243 3709 1699 2586 917 7709 13383 108
internal_value=0.00644466 0.0208568 0.0389829 0.0117393 0.0103943 0.0168145 -0.0192354 -0.0405392 -0.00702901 -0.0127474 0.0167408 0.0622393 0.0203733 0.0224563 0.0452366 -0.0243926 0.0154102 0.0100474 0.00395554 0.0465109 0.000594966 -0.0337752 -0.0276749 0.0588976 -0.0349262 -0.03159 -0.0211345 -0.0518352 -0.0151717 0.04931
internal_weight=22948.7 17561.7 5877.32 11684.4 11553.8 9496.15 2057.64 5386.99 1687.23 1620.3 3004.17 2873.15 8792.8 8484.52 2004.36 263.798 6480.16 5527.1 4778.3 953.065 1310.95 4568.03 703.353 852.233 4540.83 4289.24 2828.48 1460.76 2592.44 197.247
internal_count=103758 68883 23167 45716 45216 36988 8228 34875 6342 6140 11118 12049 34339 33218 7252 1117 25966 21731 19135 4235 4879 28092 2649 3831 27994 26295 16000 10295 14408 1025
is_linear=0
shrinkage=0.1


Tree=21
num_leaves=31
num_cat=0
split_feature=3 8 8 13 3 3 6 0 2 10 8 8 2 2 7 0 0 3 2 2 0 6 2 2 6 2 7 3 6 10
split_gain=1299.6 256.202 266.341 145.807 151.955 144.512 122.869 105.692 101.857 87.5269 85.7646 114.57 121.968 99.6675 91.6452 108.207 141.561 98.3234 86.678 315.209 107.117 104.846 138.266 128.628 86.7004 83.3082 81.6284 161.496 106.629 83.7749
threshold=4612.5000000000009 3600.5000000000005 14382.500000000002 1.0000000180025095e-35 2775.5000000000005 6809.5000000000009 4.5000000000000009 0.49156850576400762 52227.500000000007 -1.0000000180025095e-35 3597.5000000000005 908.00000000000011 55023.500000000007 55067.000000000007 4.5000000000000009 0.16024749726057055 0.77343299984931957 1675.5000000000002 15179.000000000002 13340.000000000002 0.040039498358964927 1.5000000000000002 32246.000000000004 33221.000000000007 3.5000000000000004 197700.50000000003 1.5000000000000002 6791.5000000000009 2.5000000000000004 -1.0000000180025095e-35
decision_type=2 2 2 2 2 2 2 2 2 2 2 2 2 2 2 2 2 2 2 2 2 2 2 2 2 2 2 2 2 2
left_child=1 3 9 4 6 8 10 -4 26 -3 11 14 -13 -14 18 -16 17 -17 19 -1 -20 -22 -23 -24 -25 -8 29 -28 -29 -2
right_child=5 2 7 -5 -6 -7 25 -9 -10 -11 -12 12 13 -15 15 16 -18 -19 20 -21 21 22 23 24 -26 -27 27 28 -30 -31
leaf_value=0.017369055233365932 -0.08130126559464583 -0.03255743326677546 0.039552677911129222 0.13147164298821459 -0.016868603761955953 -0.05564608803702778 -0.036429881033224275 0.00033748423505184055 -0.074953234667083854 0.06379504140658665 -0.033326749259137887 0.051232974900559447 -0.11487268369607179 0.019378276404663299 -0.058406597831237028 0.082719580321905004 -0.040791903254232438 -0.062421921341781088 -0.064993336140785479 -0.052925037843104587 0.10669908032749596 0.045961897891509777 -0.15844256852809638 -0.016358152678841109 0.062218415470855548 0.079437725789654523 -0.045027242383879409 -0.092293251660844511 0.41978153453073502 -0.0016435752450841162
leaf_weight=2401.9563255161047 140.87751615047455 97.854014590382576 1161.0324798077345 100.1464042365551 1741.2113543748856 2126.5817326232791 630.75828652083874 1684.3376060277224 340.97142209112644 2580.7353894785047 307.69215814769268 1707.6055073738098 80.488188475370407 176.70130826532841 94.444721460342407 652.44759746640921 131.2745249569416 50.269992232322693 126.91826826334 868.59488135576248 162.76994539797306 1125.0526608079672 53.125972330570221 587.45653533935547 184.53114362061024 68.82395675778389 1074.2760346382856 6.0324139222502735 12.476904779672621 2101.1947944611311
leaf_count=9176 883 384 4185 371 6898 17692 2406 6413 2025 11311 1121 6135 482 635 395 3127 507 206 646 3929 1071 3896 213 2168 632 243 6501 50 78 9979
internal_value=0.00589661 0.0200062 0.0376438 0.0113475 0.0102688 -0.0348977 0.0152898 0.016339 -0.0228941 0.0602751 0.0185279 0.0204265 0.0415636 -0.0226359 0.0139765 0.0430413 0.0545297 0.0723367 0.00907946 -0.00129969 0.0242347 0.0295944 0.0231589 -0.00793331 0.0024243 -0.025031 -0.0175713 -0.0399812 0.25289 -0.00664876
internal_weight=22578.6 16776.2 5523.96 11252.3 11152.1 5802.41 9410.91 2845.37 3675.83 2678.59 8711.33 8403.64 1964.8 257.189 6438.84 928.437 833.992 702.718 5510.41 3270.55 2239.85 2112.94 1950.17 825.114 771.988 699.582 3334.86 1092.79 18.5093 2242.07
internal_count=103758 66550 22293 44257 43886 37208 36988 10598 19516 11695 34339 33218 7252 1117 25966 4235 3840 3333 21731 13105 8626 7980 6909 3013 2800 2649 17491 6629 128 10862
is_linear=0
shrinkage=0.1


Tree=22
num_leaves=31
num_cat=0
split_feature=1 1 4 10 9 7 10 8 8 6 6 8 4 4 10 5 7 9 13 10 4 4 8 8 8 6 10 7 8 4
split_gain=269.275 209.056 266.812 151.953 114.27 182.758 96.1678 92.0713 91.78 90.7933 124.454 97.0628 88.8961 84.0565 77.5281 75.8956 75.0856 86.017 73.373 73.2102 72.7166 114.812 71.7106 121.413 103.416 85.6229 70.3313 89.1483 96.6861 75.6983
threshold=1.0000000180025095e-35 -1.0000000180025095e-35 971.50000000000011 1.0000000180025095e-35 1.0000000180025095e-35 1.0000000180025095e-35 1.0000000180025095e-35 14381.500000000002 300.50000000000006 3.5000000000000004 4.5000000000000009 21597.500000000004 1.0000000180025095e-35 636.50000000000011 1.5000000000000002 1.5000000000000002 1.5000000000000002 1.0000000180025095e-35 1.0000000180025095e-35 -1.0000000180025095e-35 736.50000000000011 751.50000000000011 621.50000000000011 14381.500000000002 284.50000000000006 3.5000000000000004 -1.0000000180025095e-35 1.5000000000000002 368.50000000000006 780.50000000000011
decision_type=2 2 2 2 2 2 2 2 2 2 2 2 2 2 2 2 2 2 2 2 2 2 2 2 2 2 2 2 2 2
left_child=1 18 3 9 8 12 7 -2 -5 11 20 26 -6 -12 -7 -9 17 -8 19 -1 -11 -22 24 -24 -21 -26 29 -28 -29 -3
right_child=6 2 -4 4 5 14 16 15 -10 10 13 -13 -14 -15 -16 -17 -18 -19 -20 22 21 -23 23 -25 25 -27 27 28 -30 -31
leaf_value=-0.048935631546087682 0.057690766866966448 -0.036612832163713055 -0.060251683118173673 -0.040859153098993448 0.058762449364794522 -0.057160708139565586 0.082746531972168511 0.0017940841528658212 0.016715407431844596 0.025524622334692472 -0.028616736583020261 -0.075921655669413474 -0.027251962840968841 0.14650427344691175 -0.008891172038561301 0.14056831538787004 -0.018071736554942167 0.0065373831503743388 0.12007669506383459 0.044628906792271106 0.38032000450570175 -0.020919927911624229 0.048388514446695917 0.0044156142802009874 -0.033554021659049346 0.040287969933216948 0.011725664158018642 -0.057995012572622941 -0.0016896094280967511 0.1111180003472563
leaf_weight=153.34677101671696 1510.4512467458844 691.75831468403339 819.53614660352468 362.98593579977751 283.48381449282169 1455.5912045016885 221.39669591933489 562.41895487159491 1167.1535825878382 2798.8420116752386 632.99456764757633 172.79959034919739 208.54720181971788 28.649646244943142 431.35230908542871 42.37883523106575 551.66776072233915 447.39137834310532 72.88093489408493 397.1961459890008 14.719326481223108 13.834046214818953 1586.385520003736 1039.2520582303405 688.58537888526917 203.41952224075794 4036.8084854185581 410.91272897273302 1182.9394519403577 36.516086533665657
leaf_count=683 6934 3232 6009 1572 1046 8412 990 2553 5040 12555 2693 921 983 128 2213 170 2919 2187 330 1659 55 80 7024 4597 2898 804 17601 2070 5280 120
internal_value=0.00539813 0.000772853 -0.0048013 -0.00153899 -0.0182611 -0.031973 0.0315916 0.044489 0.00305734 0.00498433 0.0180081 -0.00197255 0.0223053 -0.0210339 -0.0461264 0.0115181 0.00923834 0.0317658 0.0206266 0.0188449 0.0271444 0.18592 0.0214999 0.0309836 0.00218506 -0.0167145 3.69605e-05 0.00381921 -0.0162058 -0.0292055
internal_weight=22226.2 18890.5 14749.4 13929.9 3909.11 2378.97 3335.7 2115.25 1530.14 10020.8 3489.04 6531.73 492.031 661.644 1886.94 604.798 1220.46 668.788 4141.07 4068.19 2827.4 28.5534 3914.84 2625.64 1289.2 892.005 6358.94 5630.66 1593.85 728.274
internal_count=103758 88005 70010 64001 19266 12654 15753 9657 6612 44735 15511 29224 2029 2821 10625 2723 6096 3177 17995 17665 12690 135 16982 11621 5361 3702 28303 24951 7350 3352
is_linear=0
shrinkage=0.1


Tree=23
num_leaves=31
num_cat=0
split_feature=1 1 10 9 7 0 0 2 2 8 2 2 2 8 2 6 2 2 6 7 2 2 8 8 6 2 2 2 8 0
split_gain=221.088 171.126 151.185 123.819 159.645 92.7873 89.1051 85.2247 119.017 84.9014 98.7784 130.667 138.978 113.043 112.313 100.614 117.293 119.901 105.741 93.2149 196.624 157.722 93.0033 88.3694 77.9371 76.7344 81.0407 107.71 106.746 75.9781
threshold=1.0000000180025095e-35 -1.0000000180025095e-35 1.0000000180025095e-35 1.0000000180025095e-35 1.0000000180025095e-35 0.90279999375343334 8.8122830390930194 62696.500000000007 17054.500000000004 14397.500000000002 19068.500000000004 20017.000000000004 20976.500000000004 297.50000000000006 24456.000000000004 2.5000000000000004 6706.5000000000009 2883.5000000000005 4.5000000000000009 1.0000000180025095e-35 14622.500000000002 12579.500000000002 282.50000000000006 13912.000000000002 9.5000000000000018 26132.000000000004 26500.500000000004 33487.000000000007 1345.5000000000002 0.031339498236775405
decision_type=2 2 2 2 2 2 2 2 2 2 2 2 2 2 2 2 2 2 2 2 2 2 2 2 2 2 2 2 2 2
left_child=1 -1 6 7 -5 24 9 8 -4 10 15 -12 -13 -14 -15 16 17 -3 19 20 29 23 -22 -21 -2 -16 -27 -28 -29 -17
right_child=5 2 3 4 -6 -7 -8 -9 -10 -11 11 12 13 14 25 18 -18 -19 -20 21 22 -23 -24 -25 -26 26 27 28 -30 -31
leaf_value=0.018726312542493947 0.043014060836746915 -0.014093409890049494 -0.0289931924492173 0.016588141062229892 -0.046111138761406427 0.0052923629484469478 0.076626989940244208 -0.089459832559484323 0.029211538496684033 -0.026247537276721758 0.074497644942432328 -0.087022635582856389 0.049069926093656714 0.068114042543056627 -0.081981448309470836 0.0064077704375649809 -0.037385264922542016 0.076191440676066494 -0.046393998298671052 -0.025813152621933053 -0.092548231570881961 0.064330238139915702 0.0047459599653227429 0.11284057052977033 -0.11492558195418488 0.038590071660907665 -0.043044721361568172 -0.035002446238204935 0.022604448254300195 0.076448269379820369
leaf_weight=4110.0981184244156 2154.6801458969712 515.4513503536582 562.34270050376654 504.16925758868456 2087.6751465275884 1116.567999176681 157.8164094388485 96.768094621598721 936.16081321984529 1035.4206778928638 340.12624596059322 142.58069603145123 725.4617961794138 260.27334930747747 111.10006216913462 607.75069831311703 1503.1171186044812 205.82997599989176 325.51545628905296 416.34963687509298 284.94694463908672 707.1507164388895 149.95012706518173 51.670823812484741 31.703387320041656 513.81555676460266 568.14316952973604 436.87107619643211 1219.7736781015992 207.84470965713263
leaf_count=17995 10067 2367 2601 2155 12723 5423 645 427 4053 4755 1435 739 3507 1098 502 2611 7169 796 1473 1880 1386 3704 673 182 263 2153 2807 1925 5487 757
internal_value=0.00488686 0.000691508 -0.0043599 -0.0204236 -0.0339148 0.0287462 0.00205384 0.0014955 0.00736908 0.000914456 0.00394059 0.0150071 0.00992054 0.0135244 0.00523267 -0.00566365 -0.0214784 0.0116709 0.00712294 0.0143047 -0.00469894 0.0345264 -0.0590017 -0.0105054 0.0407239 -0.0005105 0.00279462 -0.00547235 0.00741303 0.0242568
internal_weight=22087.1 18784.2 14674.1 4187.12 2591.84 3302.95 10487 1595.27 1498.5 10329.1 9293.72 4318.15 3978.02 3835.44 3109.98 4975.58 2224.4 721.281 2751.18 2425.66 1250.49 1175.17 434.897 468.02 2186.38 2849.7 2738.6 2224.79 1656.64 815.595
internal_count=103758 88005 70010 21959 14878 15753 48051 7081 6654 47406 42651 19653 18218 17479 13972 22998 10332 3163 12666 11193 5427 5766 2059 2062 10330 12874 12372 10219 7412 3368
is_linear=0
shrinkage=0.1


Tree=24
num_leaves=31
num_cat=0
split_feature=13 7 10 8 8 8 8 9 8 8 8 8 9 10 8 8 2 2 6 8 8 2 2 1 2 2 8 7 2 2
split_gain=215.873 203.461 227.825 211.95 408.358 337.832 128.411 180.148 122.455 140.17 116.063 113.173 103.447 96.1133 88.4738 319.12 135.712 135.006 95.144 85.4027 106.158 84.9117 109.015 83.5644 82.286 95.801 78.6209 112.512 73.8263 75.6283
threshold=1.0000000180025095e-35 1.5000000000000002 1.0000000180025095e-35 3600.5000000000005 14381.500000000002 3596.5000000000005 286.50000000000006 1.0000000180025095e-35 621.50000000000011 591.50000000000011 3584.5000000000005 21599.500000000004 1.0000000180025095e-35 -1.0000000180025095e-35 300.50000000000006 297.50000000000006 16625.500000000004 13420.500000000002 4.5000000000000009 10824.000000000002 10786.500000000002 53789.500000000007 55067.000000000007 1.0000000180025095e-35 7859.5000000000009 8087.5000000000009 269.50000000000006 1.0000000180025095e-35 24456.000000000004 25242.000000000004
decision_type=2 2 2 2 2 2 2 2 2 2 2 2 2 2 2 2 2 2 2 2 2 2 2 2 2 2 2 2 2 2
left_child=1 3 6 5 13 8 7 -3 9 14 21 -6 -4 -5 15 16 17 24 -18 20 23 -10 -23 -15 -1 -26 27 -19 -16 -30
right_child=-2 2 12 4 11 -7 -8 -9 10 -11 -12 -13 -14 19 28 -17 18 26 -20 -21 -22 22 -24 -25 25 -27 -28 -29 29 -31
leaf_value=-0.0067588570050364201 0.12590386831626493 -0.028166445501270562 -0.0024819597853420246 -0.04242872319764561 0.004282603581147181 -0.07187214227805834 -0.0060018635793490874 0.067352160983088424 0.046060713344422244 -0.062243357576806928 -0.010878154403273665 -0.10809001705386992 -0.048913433858307896 0.038880628240360364 0.078963824533042071 -0.071766259418317199 0.041027507697973462 -0.084479368452400033 -0.064275167493746371 0.080793450742050077 -0.034267149202140523 -0.082502866901415964 0.04301287658850865 0.097720419142042839 0.11628788900525217 0.01929439969079999 0.0022081115045557427 0.020041162081040516 -0.15076315464936063 0.021789758283374542
leaf_weight=1400.7671742290258 145.31912758201361 292.32511923462152 668.70887162536383 99.230151616036892 3130.5824351683259 600.98980834335089 3489.2704467996955 608.35381502658129 1579.1932788267732 363.97012854367495 693.06493145227432 92.265178702771664 1698.8871827051044 1077.3269267827272 254.67496959865093 588.11979935318232 1220.0684763491154 436.78708465397358 92.293668664991856 992.16919313371181 158.72116163372993 126.32893144339323 153.00810264796019 311.05819527804852 117.60562765598297 759.24886959791183 317.8249024450779 134.76678208261728 27.635241769254208 314.08624464273453
leaf_count=6245 643 1307 3144 458 13712 3128 16620 3238 6582 1614 2942 601 10511 5240 969 3121 5670 2139 460 4763 830 751 615 1598 404 3031 1401 642 112 1267
internal_value=0.00442662 0.00361682 -0.0107968 0.0100922 0.0249481 0.000607242 0.00268752 0.0363506 0.00568442 -0.0020885 0.024047 0.00106555 -0.0357992 0.0541198 0.00177715 -0.00251052 0.00658244 -0.00462237 0.033622 0.0578928 0.0432064 0.037071 -0.0137511 0.0520633 0.00827959 0.0323034 -0.0376632 -0.0598345 0.0382088 0.00783529
internal_weight=21944.7 21799.3 6757.55 15041.8 5861.35 9180.43 4389.95 900.679 8579.44 6027.85 2551.6 3222.85 2367.6 2638.51 5663.88 5067.48 4479.36 3167 1312.36 2539.28 1547.11 1858.53 279.337 1388.39 2277.62 876.854 889.379 571.554 596.396 341.721
internal_count=103758 103115 34820 68295 27202 41093 21165 4545 37965 27075 10890 14313 13655 12889 25461 23113 19992 13862 6130 12431 7668 7948 1366 6838 9680 3435 4182 2781 2348 1379
is_linear=0
shrinkage=0.1


Tree=25
num_leaves=31
num_cat=0
split_feature=3 3 3 8 3 8 9 4 10 2 2 10 9 10 0 0 4 0 8 4 4 4 0 3 9 2 6 6 2 13
split_gain=1045.47 231.786 204.586 202.712 180.692 146.499 133.535 122.296 114.133 101.703 136.376 85.7383 90.4882 100.552 81.7108 82.9389 81.1185 82.1993 119.518 173.551 306.229 80.7977 99.6501 80.6081 101.614 76.9764 75.3263 75.2743 92.2362 72.4079
threshold=3606.5000000000005 1.0000000180025095e-35 335.50000000000006 368.50000000000006 6079.5000000000009 290.50000000000006 1.0000000180025095e-35 188.50000000000003 -1.0000000180025095e-35 13457.000000000002 13340.000000000002 -1.0000000180025095e-35 1.0000000180025095e-35 1.0000000180025095e-35 0.69924151897430431 1.0000000180025095e-35 6.5000000000000009 0.22580849379301074 296.50000000000006 326.50000000000006 267.50000000000006 269.50000000000006 0.26675900816917425 3008.5000000000005 1.0000000180025095e-35 59301.000000000007 4.5000000000000009 1.5000000000000002 45382.500000000007 1.0000000180025095e-35
decision_type=2 2 2 2 2 2 2 2 2 2 2 2 2 2 2 2 2 2 2 2 2 2 2 2 2 2 2 2 2 2
left_child=1 7 6 5 11 -4 -3 9 -5 10 -1 -2 -13 14 15 -14 -6 -18 19 20 -19 -22 -23 25 -25 26 -10 28 -11 -15
right_child=4 2 3 8 16 -7 -8 -9 23 27 -12 12 13 29 -16 -17 17 18 -20 -21 21 22 -24 24 -26 -27 -28 -29 -30 -31
leaf_value=-0.0033347783385690834 -0.073889510799453828 0.038540794098623155 0.019706918651601693 -0.047926724875830266 -0.097218161051829038 -0.04367233521412868 0.10099477871340601 -0.12455159449830928 0.049792118539183902 -0.23706282503118858 -0.12085382179134979 0.0059880305657875055 0.29732178923546954 -0.058890596542293963 0.033304868041121906 -0.030950079088299883 -0.074729536175090677 -0.036828123650267816 -0.042361195962248376 -0.053768379710547709 0.43705608407436208 0.40837882481345933 0.12199035862584223 0.038276990680086512 -0.036796947596995533 -0.0053218213439026468 -0.050231879093563386 0.014495899337545186 0.10562040421130853 0.10711201916749494
leaf_weight=2475.3090584129095 215.31448075920343 768.05866885185242 821.62857495248318 163.38826496899128 267.60361157357693 655.79749694466591 617.67945517599583 70.512714847922325 3314.4884280562401 8.3160930722951871 102.84931783378124 1919.2572449222207 7.796883024275302 728.72664483636618 362.62440656870604 597.52365762740374 550.92705134302378 127.53715842962265 2033.0202959999442 203.6985501870513 11.577104195952414 13.955975994467734 93.874863989651203 434.36108350008726 308.22826123982668 300.0684257298708 77.040172070264816 4330.2088973298669 141.49030733108521 27.258679792284966
leaf_count=9866 1204 3018 2972 627 2067 2607 2433 312 14246 40 650 7965 29 4244 1421 2768 4637 956 15562 1791 48 68 436 1670 1308 1190 285 18102 1077 159
internal_value=0.00402653 0.0193862 0.031707 0.0237981 -0.0272678 -0.00842576 0.0663791 0.00649156 0.0341533 0.00780071 -0.00802291 -0.0125723 -0.00894846 -0.0255773 -0.00423378 -0.0267217 -0.044439 -0.0397847 -0.0320332 0.0145603 0.0709228 0.186009 0.159056 0.0371777 0.00711588 0.0432248 0.04752 0.0169069 0.0865973 -0.052905
internal_weight=21750.1 14589.4 7460.74 6075 7160.7 1477.43 1385.74 7128.69 4597.57 7058.17 2578.16 3858.5 3643.19 1723.93 967.945 605.321 3302.19 3034.59 2483.66 450.644 246.945 119.408 107.831 4434.19 742.589 3691.6 3391.53 4480.02 149.806 755.985
internal_count=103758 60403 30356 24905 43355 5579 5451 30047 19326 29735 10516 17790 16586 8621 4218 2797 25565 23498 18861 3299 1508 552 504 18699 2978 15721 14531 19219 1117 4403
is_linear=0
shrinkage=0.1


Tree=26
num_leaves=31
num_cat=0
split_feature=3 8 8 3 13 3 2 2 5 4 4 13 2 2 0 8 2 2 0 0 3 3 8 0 8 6 0 2 2 2
split_gain=865.329 148.462 176.117 125.549 105.398 113.634 102.404 104.458 93.2631 92.3401 87.8784 85.9713 82.7824 81.5441 80.9473 78.0964 76.611 217.874 154.392 176.415 75.8411 98.1841 73.7662 72.2615 67.7024 65.0039 65.9624 64.5337 116.068 64.416
threshold=4612.5000000000009 3600.5000000000005 14385.500000000002 7839.5000000000009 1.0000000180025095e-35 2775.5000000000005 52227.500000000007 47309.500000000007 1.5000000000000002 310.50000000000006 1.0000000180025095e-35 1.0000000180025095e-35 47857.500000000007 262255.00000000006 1.5253984928131106 3582.5000000000005 20017.000000000004 16625.500000000004 0.49614250659942633 0.22580849379301074 383.50000000000006 1.0000000180025095e-35 21596.500000000004 0.040039498358964927 21591.500000000004 9.5000000000000018 0.34577649831771856 8309.5000000000018 6852.0000000000009 198057.50000000003
decision_type=2 2 2 2 2 2 2 2 2 2 2 2 2 2 2 2 2 2 2 2 2 2 2 2 2 2 2 2 2 2
left_child=1 4 27 6 5 9 7 11 10 23 -7 24 -9 -8 22 -12 17 -5 19 -19 21 -11 -4 -1 -2 26 29 28 -3 -25
right_child=3 2 14 16 -6 8 13 12 -10 20 15 -13 -14 -15 -16 -17 -18 18 -20 -21 -22 -23 -24 25 -26 -27 -28 -29 -30 -31
leaf_value=-0.015904377208361981 -0.021138804942146656 0.02913072137040254 0.025013616168550926 -0.082000519140401573 0.12124189726170456 0.1165326897234974 -0.083566200160642423 0.24575861018374143 -0.066001071914636486 -0.098209716723552526 0.0022935094664534796 0.12474940384360436 0.032125501715386827 0.062723664022238654 -0.028618019013788288 -0.057284031925059681 -0.10247580437664146 -0.1048773529096686 -0.055965713198535716 0.32404875171990438 0.019884242452224164 0.084684732750288955 -0.036315638535926002 0.021374746738190564 -0.080812044145073425 -0.12931450781799247 0.0042310470751510806 0.05302434495540187 -0.16773100306295763 0.09987395773389586
leaf_weight=1067.7481166645885 3976.7679054439068 172.82197122275829 1996.1366930902004 262.82979825884104 82.681477308273315 57.16987769305706 411.00127660483122 22.515843622386456 304.08524417877197 31.670482903718948 1060.2198835834861 39.223917804658413 93.298892296850681 41.996913947165012 425.89119234681129 277.63865108042955 357.32303283363581 12.888925425708292 36.467837251722813 37.452112480998039 851.89117440581322 400.97616957128048 217.48834486305714 2711.710882216692 199.67376160621643 32.340008124709129 3813.9916721880436 2320.7937781587243 36.227749109268188 108.72679618000984
leaf_count=4713 24834 722 7553 2709 371 180 3028 126 1636 149 3948 218 466 239 1679 1134 3487 108 301 178 3141 1505 820 11587 1514 127 15381 11362 157 385
internal_value=0.00366566 0.0154403 0.0293771 -0.0305773 0.00877004 0.00790241 -0.0247651 -0.0200339 -0.0158203 0.0123716 -0.00488196 -0.0226078 0.0736585 -0.0700038 0.0113067 -0.0100703 -0.0699126 -0.0366337 0.100722 0.21423 0.0372005 0.0712965 0.018988 0.00824801 -0.0239918 0.0121163 0.0128057 0.0482308 -0.00498488 0.0244009
internal_weight=21461.7 15970.2 5169.36 5491.44 10800.9 10718.2 4784.48 4331.48 1699.11 9019.06 1395.03 4215.67 115.815 452.998 2639.52 1337.86 706.962 349.639 86.8089 50.341 1284.54 432.647 2213.63 7734.52 4176.44 6666.77 6634.43 2529.84 209.05 2820.44
internal_count=103758 66550 22293 37208 44257 43886 30425 27158 6898 36988 5262 26566 592 3267 10052 5082 6783 3296 587 286 4795 1654 8373 32193 26348 27480 27353 12241 879 11972
is_linear=0
shrinkage=0.1


Tree=27
num_leaves=31
num_cat=0
split_feature=3 3 3 3 3 7 7 8 8 4 7 2 2 8 7 5 0 7 6 8 5 1 4 4 4 8 2 2 2 2
split_gain=723.517 166.153 180.559 138.455 121.868 157.689 104.792 94.7273 100.742 93.2066 84.7669 108.551 94.9631 157.235 103.602 210.343 93.015 87.5088 94.4901 110.773 89.5959 86.9606 82.8628 82.027 91.7251 75.5088 92.5878 74.2942 102.89 73.2048
threshold=3793.5000000000005 1.0000000180025095e-35 2033.5000000000002 6809.5000000000009 50.500000000000007 1.0000000180025095e-35 5.5000000000000009 300.50000000000006 290.50000000000006 168.50000000000003 4.5000000000000009 15250.000000000002 15141.000000000002 280.50000000000006 1.0000000180025095e-35 1.0000000180025095e-35 0.34322549402713781 1.0000000180025095e-35 1.5000000000000002 890.50000000000011 1.5000000000000002 -1.0000000180025095e-35 -1.0000000180025095e-35 6.5000000000000009 19.500000000000004 10824.000000000002 36027.500000000007 55023.500000000007 60129.000000000007 203250.50000000003
decision_type=2 2 2 2 2 2 2 2 2 2 2 2 2 2 2 2 2 2 2 2 2 2 2 2 2 2 2 2 2 2
left_child=1 6 4 22 -3 -6 9 8 -4 10 11 12 14 -14 15 -1 -12 25 -19 -20 27 -16 29 -5 -25 -13 -27 -21 -29 -2
right_child=3 2 7 23 5 -7 -8 -9 -10 -11 16 17 13 -15 21 -17 -18 18 19 20 -22 -23 -24 24 -26 26 -28 28 -30 -31
leaf_value=-0.012259851073309003 0.11032581091411175 0.092393112673995706 0.0071528520434827533 -0.10500641847053752 -0.0006398205785012567 0.044601933779562557 -0.092434000848579778 0.016518464385322645 -0.071287034318165007 -0.10954560525000574 0.061348210131601022 0.07253582417113523 -0.094490130218837717 0.013844551565437234 0.048769512603598936 0.083224323429850602 -0.014195704223541442 0.092395955180718803 -0.024901677571444573 0.033652868078484749 -0.1382002218431525 -0.025350757334613668 -0.01678883836209176 0.17815498724431478 -0.042028972670948836 0.057526532059726014 -0.20274452773219737 -0.097676497766799542 0.03396185996588235 -0.2045989590679437
leaf_weight=605.41986963152885 79.807392433285713 384.97499203681946 384.95688807964325 215.87995313107967 1017.9865929633379 3167.7529565691948 109.28738125413656 2301.3323597088456 284.91832134127617 68.817699104547501 540.90972091257572 401.81056460738182 308.56853125989437 236.77113316953182 177.9904910326004 372.75608964264393 233.2794341892004 131.34848560392857 805.34619355946779 1303.4422556683421 34.711084648966789 1429.9700279533863 4626.7900481671095 19.13849114626646 1655.906411126256 32.709681138396263 23.478544875979424 110.62197206914425 128.17109736800194 8.1334271728992444
leaf_count=2735 301 1552 1437 1935 3846 13709 454 9682 1289 307 2939 1437 1583 992 649 1351 889 1083 3234 5134 144 5768 24169 144 15613 120 100 631 497 34
internal_value=0.0033305 0.0157569 0.0260759 -0.0241298 0.038551 0.033599 0.00472641 0.00688509 -0.02621 0.00625509 0.00741385 0.00345972 -0.00953192 -0.0474543 -0.00153522 0.0241266 0.0385852 0.0171501 0.00982513 0.00527256 0.0206825 -0.0171461 -0.0149611 -0.0469903 -0.0395132 0.0573521 -0.0512291 0.0242585 -0.0270202 0.0811992
internal_weight=21203 14597.3 7541.92 6605.66 4570.71 4185.74 7055.41 2971.21 669.875 6946.12 6877.31 6103.12 3131.48 545.34 2586.14 978.176 774.189 2971.64 2513.64 2382.29 1576.95 1607.96 4714.73 1890.92 1675.04 457.999 56.1882 1542.24 238.793 87.9408
internal_count=103758 61562 31515 42196 19107 17555 30047 12408 2726 29593 29286 25458 13078 2575 10503 4086 3828 12380 10723 9640 6406 6417 24504 17692 15757 1657 220 6262 1128 335
is_linear=0
shrinkage=0.1


Tree=28
num_leaves=31
num_cat=0
split_feature=3 1 3 6 4 0 0 3 2 8 3 2 3 7 7 2 2 8 6 6 2 2 2 4 6 2 2 7 6 0
split_gain=606.661 147.16 118.356 114.981 104.425 96.7921 127.839 97.2934 107.794 98.7781 89.915 88.001 83.8176 82.8347 89.2226 88.0021 92.8322 138.609 87.1234 83.5361 103.954 83.1142 82.0806 94.8225 83.0879 80.2655 110.937 90.7793 171.976 77.8325
threshold=5617.5000000000009 1.0000000180025095e-35 2775.5000000000005 4.5000000000000009 9.5000000000000018 1.5253984928131106 8.8122830390930194 1.0000000180025095e-35 60129.000000000007 300.50000000000006 280.50000000000006 394707.00000000006 8468.5000000000018 5.5000000000000009 4.5000000000000009 15250.000000000002 15141.000000000002 269.50000000000006 3.5000000000000004 2.5000000000000004 3357.5000000000005 1.0000000180025095e-35 133650.50000000003 1.0000000180025095e-35 3.5000000000000004 55023.500000000007 55672.000000000007 1.5000000000000002 2.5000000000000004 0.11835600063204767
decision_type=2 2 2 2 2 2 2 2 2 2 2 2 2 2 2 2 2 2 2 2 2 2 2 2 2 2 2 2 2 2
left_child=1 2 3 5 -4 7 -7 13 9 10 -9 -5 -2 14 15 16 19 -18 -16 -1 21 -21 24 -24 -10 27 -27 -17 -29 -20
right_child=12 -3 4 11 -6 6 -8 8 22 -11 -12 -13 -14 -15 18 25 17 -19 29 20 -22 -23 23 -25 -26 26 -28 28 -30 -31
